<?xml version="1.0"?>
<opencv_storage>
<my_svm type_id="opencv-ml-svm">
  <svm_type>C_SVC</svm_type>
  <kernel><type>RBF</type>
    <gamma>1.</gamma></kernel>
  <C>9.9999899999999997e-001</C>
  <term_criteria><epsilon>2.2204460492503131e-016</epsilon>
    <iterations>1000</iterations></term_criteria>
  <var_all>118</var_all>
  <var_count>118</var_count>
  <class_count>2</class_count>
  <class_labels type_id="opencv-matrix">
    <rows>1</rows>
    <cols>2</cols>
    <dt>i</dt>
    <data>
      -1 1</data></class_labels>
  <sv_total>129</sv_total>
  <support_vectors>
    <_>
      7.84784928e-002 0. 0. 0. 0. 1.12112137e-002 0. 1.12112137e-002 0.
      0. 6.72672763e-002 2.35435471e-001 0. 0. 2.24224273e-002
      5.04504621e-001 2.69069105e-001 1.12112137e-002 0. 0.
      1.12112137e-002 1.23323344e-001 3.36336382e-002 0. 0.
      4.48448546e-002 1.12112137e-002 3.36336382e-002 1.12112137e-002 0.
      0. 0. 0. 5.60560673e-002 1.12112135e-001 2.24224273e-002
      1.12112137e-002 0. 4.48448546e-002 4.48448546e-002 2.24224273e-002
      2.24224273e-002 1.12112137e-002 1.56956986e-001 1.90590620e-001
      1.00900918e-001 3.36336382e-002 4.48448546e-002 4.48448539e-001
      5.15715837e-001 2.24224273e-002 0. 1.23323344e-001 2.24224273e-002
      0. 1.12112137e-002 2.24224273e-002 4.48448546e-002 6.72672763e-002
      -1.70717388e-002 0. 0. 0. 0. 1.12112137e-002 -4.24667709e-002
      -2.06388645e-002 0. 0. -1.76662654e-002 -3.06015849e-001 0. 0.
      1.18057346e-002 2.39087313e-001 5.67352623e-002 1.12112137e-002 0.
      0. 1.12112137e-002 1.71564221e-002 2.30169445e-002 0.
      -1.06166927e-002 3.42281610e-002 5.94520941e-004 -8.83313268e-003
      -3.12555581e-002 -1.06166927e-002 0. 0. 0. 2.42059901e-002
      -2.59048641e-002 2.24224273e-002 -1.00221718e-002 0.
      4.48448546e-002 4.48448546e-002 -2.00443435e-002 1.18904188e-003
      5.94520941e-004 2.95566767e-002 -6.42099977e-002 3.72007638e-002
      1.24002527e-002 1.29947774e-002 -1.46086216e-001 2.71531910e-001
      2.24224273e-002 0. -1.46936551e-002 2.24224273e-002
      -1.06166927e-002 -2.06388645e-002 1.18057346e-002 4.48448546e-002
      -4.95163426e-002</_>
    <_>
      9.10031497e-002 0. 0. 0. 0. 0. 0. 0. 0. 0. 0. 0. 0.
      9.10031516e-003 4.55015749e-002 4.55015749e-002 0. 1.82006303e-002
      1.82006303e-002 4.55015749e-002 9.10031516e-003 1.82006303e-002 0.
      0. 0. 6.37022033e-002 1.18304096e-001 4.55015749e-002
      9.10031516e-003 0. 0. 9.10031516e-003 0. 0. 0. 0. 0. 0.
      2.73009446e-002 9.10031516e-003 0. 0. 0. 1.09203778e-001
      8.46329331e-001 3.64012606e-002 0. 0. 1.63805678e-001
      4.27714825e-001 9.10031516e-003 1.82006303e-002 1.27404407e-001
      3.64012606e-002 9.10031516e-003 6.37022033e-002 1.82006303e-002
      2.73009446e-002 2.73009446e-002 -5.69111705e-002 -2.95828637e-002
      -9.86095518e-003 0. 0. 0. 0. 0. 0. 0. -9.86095518e-003
      -2.95828637e-002 -1.97219104e-002 -3.03435065e-002 6.05775416e-003
      -5.46155691e-001 -2.95828637e-002 1.82006303e-002 -1.52128004e-003
      2.57796645e-002 -7.60640018e-004 -4.09650952e-002 -9.86095518e-003
      0. 0. 5.38412482e-002 1.08443141e-001 1.59187112e-002
      -7.96482712e-002 0. 0. 9.10031516e-003 0. 0. -9.86095518e-003 0.
      -9.86095518e-003 0. 2.73009446e-002 -7.60640018e-004 0. 0.
      -9.86095518e-003 7.96209127e-002 1.16618693e-001 3.64012606e-002
      0. -1.97219104e-002 5.53351790e-002 2.10773826e-001
      9.10031516e-003 1.82006303e-002 6.82386756e-002 1.66793503e-002
      9.10031516e-003 4.39802930e-002 8.33967514e-003 -4.17257398e-002
      -5.15866950e-002</_>
    <_>
      5.95491342e-002 0. 0. 0. 0. 0. 0. 0. 0. 0. 0. 0. 0. 0.
      1.98497120e-002 2.97745671e-002 0. 0. 0. 1.98497120e-002
      2.97745671e-002 8.93236995e-002 0. 0. 9.92485601e-003
      9.92485601e-003 1.29023120e-001 9.92485583e-002 1.98497120e-002 0.
      0. 0. 0. 0. 0. 0. 0. 0. 0. 0. 0. 0. 0. 4.96242791e-002
      8.93236995e-001 0. 0. 0. 2.87820816e-001 2.28271678e-001 0. 0.
      1.09173410e-001 3.96994241e-002 0. 8.93236995e-002 3.96994241e-002
      1.98497120e-002 9.92485601e-003 -3.83290015e-002 0.
      -1.08753489e-002 0. -2.17506979e-002 0. -1.08753489e-002
      -3.26260477e-002 0. 0. -2.17506979e-002 -1.08753489e-002 0. 0.
      -1.27763357e-002 -2.09483117e-001 -2.17506979e-002 0.
      -1.08753489e-002 -1.27763357e-002 -1.76857069e-001
      -3.03051397e-002 -1.08753489e-002 0. 9.92485601e-003
      -1.18258419e-002 8.55217278e-002 2.31211185e-002 -2.36516837e-002
      -1.08753489e-002 0. 0. -2.17506979e-002 -3.26260477e-002
      -2.17506979e-002 -1.08753489e-002 -1.08753489e-002
      -1.08753489e-002 -1.08753489e-002 0. -2.17506979e-002
      -1.08753489e-002 0. -4.75246459e-003 4.49597836e-002
      -2.17506979e-002 0. -2.17506979e-002 2.68124342e-002
      2.16400474e-002 -3.26260477e-002 -1.08753489e-002 4.19922173e-004
      1.79487262e-002 0. 1.31962597e-002 2.88240761e-002
      -1.27763357e-002 -4.44518887e-002</_>
    <_>
      3.44338775e-001 3.72258164e-002 9.30645410e-003 0. 4.65322696e-002
      9.30645410e-003 9.30645410e-003 5.58387227e-002 9.30645410e-003
      1.86129082e-002 6.51451796e-002 7.35209823e-001 2.79193614e-002
      1.86129082e-002 7.44516328e-002 2.41967797e-001 1.86129078e-001
      9.30645410e-003 2.79193614e-002 2.79193614e-002 4.65322696e-002
      1.20983899e-001 6.51451796e-002 9.30645410e-003 9.30645410e-003
      3.72258164e-002 9.30645410e-003 4.65322696e-002 4.65322696e-002
      1.86129082e-002 0. 2.79193614e-002 2.79193614e-002 2.51274258e-001
      1.11677445e-001 1.86129082e-002 0. 1.86129082e-002 3.72258164e-002
      4.65322696e-002 4.65322696e-002 6.51451796e-002 9.30645410e-003
      3.72258164e-002 9.30645410e-003 3.72258164e-002 1.86129082e-002
      2.79193614e-002 2.51274258e-001 3.72258164e-002 3.72258164e-002
      1.86129082e-002 9.30645391e-002 2.79193614e-002 9.30645410e-003
      4.65322696e-002 0. 7.44516328e-002 1.58209711e-001
      -1.20307922e-001 -2.55642794e-002 -3.25156469e-003 0.
      4.65322696e-002 9.30645410e-003 -1.58095844e-002 -1.19973540e-001
      -1.58095844e-002 6.05488941e-003 -4.78769913e-002 2.32889056e-001
      -2.23127138e-002 -6.50312938e-003 -1.34544969e-002
      -4.68666255e-002 2.28748322e-002 9.30645410e-003 -2.23127138e-002
      -2.23127138e-002 8.85821506e-003 7.96172768e-003 5.25871590e-002
      9.30645410e-003 9.30645410e-003 -3.81222926e-002 -1.58095844e-002
      -3.69980559e-003 8.85821506e-003 -5.67352027e-002 0.
      -3.48707363e-002 -2.23127138e-002 2.52299160e-002 1.12132952e-002
      -6.50312938e-003 -1.25580188e-002 -1.90611463e-002
      -3.81222926e-002 -3.69980559e-003 8.85821506e-003 -4.78769913e-002
      -2.83676013e-002 2.46677976e-002 -1.41389757e-001 1.21097788e-002
      -1.90611463e-002 -8.51028115e-002 -1.00350261e-001
      -2.55642794e-002 1.21097788e-002 -1.90611463e-002 -3.25156525e-002
      -9.75469314e-003 -1.58095844e-002 -2.88158394e-002
      -2.51160376e-002 -8.96476209e-004 -3.01605612e-002</_>
    <_>
      6.54990003e-002 8.18737503e-003 0. 8.18737503e-003 8.18737503e-003
      0. 2.45621260e-002 7.36863762e-002 8.18737503e-003 8.18737503e-003
      9.00611281e-002 9.00611281e-001 0. 0. 2.45621260e-002
      9.82485041e-002 3.60244513e-001 0. 0. 0. 0. 2.45621260e-002
      1.63747501e-002 0. 0. 0. 0. 0. 8.18737503e-003 3.27495001e-002 0.
      0. 0. 3.27495001e-002 1.06435880e-001 8.18737522e-002
      8.18737503e-003 0. 0. 0. 0. 4.09368761e-002 4.09368761e-002 0. 0.
      0. 0. 0. 8.18737503e-003 0. 0. 0. 0. 0. 0. 8.18737503e-003 0. 0.
      7.36863762e-002 -2.68165112e-001 -2.63296030e-002 -2.30113193e-002
      8.18737503e-003 8.18737503e-003 0. 2.45621260e-002
      -6.85323775e-003 -3.31828464e-003 -1.48239443e-002 6.70498088e-002
      1.64249063e-001 0. 0. 1.30564664e-002 -8.58420506e-002
      6.10973835e-002 -1.15056597e-002 0. 0. 0. 1.55080669e-003
      -5.26592061e-002 0. 0. 0. 0. 0. -1.48239443e-002 -2.47787982e-002
      -1.15056597e-002 -3.45169790e-002 0. -1.32731386e-002
      -1.46688625e-001 -1.01715252e-002 -1.48239443e-002
      -3.45169790e-002 -4.60226387e-002 -9.20452774e-002
      -3.45169790e-002 6.41989708e-003 -5.08576259e-003 -5.75282983e-002
      -8.05396140e-002 -8.05396140e-002 -1.26562253e-001
      -1.03550933e-001 -8.38579014e-002 -1.03550933e-001
      -5.75282983e-002 -8.05396140e-002 -2.30113193e-002
      -1.15056597e-002 0. 8.18737503e-003 0. -2.30113193e-002
      -1.21909827e-001</_>
    <_>
      1.34433210e-001 0. 0. 0. 0. 0. 0. 0. 0. 0. 2.98740473e-002
      4.63047743e-001 1.49370236e-002 0. 0. 1.19496189e-001
      1.79244280e-001 0. 1.49370236e-002 0. 2.98740473e-002
      7.46851191e-002 4.48110700e-002 1.49370236e-002 0. 0.
      1.49370236e-002 1.49370236e-002 5.97480945e-002 1.49370236e-002 0.
      0. 0. 0. 5.97480945e-002 2.98740473e-002 0. 2.98740473e-002
      1.49370236e-002 1.49370236e-002 1.49370236e-002 1.49370236e-002
      2.98740473e-002 1.49370238e-001 3.13677490e-001 8.96221399e-002
      1.49370236e-002 5.97480945e-002 5.37732840e-001 5.07858813e-001
      4.48110700e-002 1.49370236e-002 8.96221399e-002 1.49370236e-002 0.
      4.48110700e-002 0. 4.48110700e-002 7.46851191e-002
      -2.40797997e-002 0. 0. -1.21933091e-002 0. 0. 0. -1.82899624e-001
      -1.21933091e-002 -2.43866183e-002 -1.53025582e-001
      -1.10037744e-001 1.49370236e-002 -1.21933091e-002 -6.09665439e-002
      -6.34034351e-002 -1.98748291e-001 0. 1.49370236e-002 0.
      1.76807381e-002 -1.06680393e-002 -2.83487812e-002 1.49370236e-002
      0. -2.43866183e-002 -1.80155918e-001 -5.82228266e-002
      -1.21844932e-003 1.49370236e-002 0. 0. 0. -3.77992570e-001
      -2.81664550e-001 -3.10924966e-002 -2.43866183e-002 2.98740473e-002
      1.49370236e-002 1.49370236e-002 -2.16429010e-002 -9.44959465e-003
      1.76807381e-002 1.24983624e-001 3.13677490e-001 7.74288327e-002
      -9.44959465e-003 5.97480945e-002 3.06059957e-001 4.59085584e-001
      3.26177627e-002 -2.16429010e-002 4.26898152e-003 -9.44959465e-003
      -1.21933091e-002 4.48110700e-002 -1.21933091e-002 8.23114440e-003
      1.37185752e-002</_>
    <_>
      4.42781746e-001 6.81202710e-002 1.36240542e-001 1.70300677e-002
      8.51503387e-002 1.70300677e-002 0. 5.10902032e-002 0. 0.
      5.10902032e-002 2.55451024e-001 5.10902032e-002 0. 1.19210474e-001
      3.74661475e-001 3.40601355e-001 1.70300677e-002 1.53270602e-001
      5.10902032e-002 8.51503387e-002 3.40601355e-002 3.40601355e-002 0.
      0. 8.51503387e-002 0. 0. 0. 1.70300677e-002 0. 1.70300677e-002
      5.10902032e-002 1.70300677e-002 5.10902032e-002 3.40601355e-002 0.
      0. 1.02180406e-001 6.81202710e-002 0. 1.02180406e-001
      1.70300677e-002 6.81202710e-002 3.91691566e-001 0. 3.40601355e-002
      5.10902032e-002 8.51503387e-002 2.38420948e-001 1.02180406e-001
      1.70300677e-002 1.70300677e-002 3.40601355e-002 0. 1.70300677e-002
      1.70300677e-002 2.21390873e-001 2.55451024e-001 2.10138381e-001
      5.58758825e-002 6.27742112e-002 4.78567928e-003 8.51503387e-002
      1.70300677e-002 0. -7.13536739e-002 0. -1.22443885e-002
      -3.46205160e-002 -4.54723477e-001 2.11264938e-003 -1.22443885e-002
      2.12553665e-002 -4.16477025e-002 1.07957989e-001 1.70300677e-002
      9.20486599e-002 3.88458148e-002 -2.50491500e-002 -1.49605691e-001
      -3.94061953e-002 0. 0. 4.84171733e-002 -1.22443885e-002
      -7.34663308e-002 -7.34663308e-002 -7.45870918e-003 0.
      -4.41918708e-002 3.88458148e-002 -1.97030976e-002 -7.13536739e-002
      9.57135856e-003 0. -2.44887769e-002 4.09584679e-002
      6.81202710e-002 -8.57107192e-002 4.09584679e-002 -7.45870918e-003
      6.81202710e-002 2.81492084e-001 -3.67331654e-002 -2.67302990e-003
      -1.01317354e-002 -3.72935385e-002 1.89443395e-001 7.76916295e-002
      1.70300677e-002 -1.97030976e-002 3.40601355e-002 0.
      1.70300677e-002 4.78567928e-003 6.22138232e-002 1.81984693e-001</_>
    <_>
      1.24303706e-001 2.26006731e-002 0. 0. 0. 0. 0. 3.39010097e-002 0.
      1.13003366e-002 0. 1.58204719e-001 0. 1.13003366e-002
      4.52013463e-002 1.13003366e-002 2.26006731e-002 1.13003366e-002
      1.13003366e-002 5.65016828e-002 1.24303706e-001 4.52013463e-002 0.
      1.13003366e-002 4.52013463e-002 3.39010097e-002 1.24303706e-001
      9.04026926e-002 1.13003366e-002 0. 0. 1.13003366e-002
      2.26006731e-002 2.26006731e-002 1.35604039e-001 0. 0.
      1.13003366e-002 5.65016828e-002 6.78020194e-002 2.26006731e-002
      5.65016828e-002 1.13003366e-002 4.52013463e-002 8.81426275e-001
      1.46904379e-001 5.65016828e-002 2.26006731e-002 7.91023597e-002
      2.37307072e-001 0. 2.26006731e-002 5.65016828e-002 3.39010097e-002
      0. 1.13003366e-002 2.26006731e-002 1.13003366e-002 5.65016828e-002
      -1.33133531e-001 5.43818995e-003 -8.58124122e-002 -1.71624832e-002
      -1.71624832e-002 0. -3.43249664e-002 1.67385265e-002
      -1.71624832e-002 -5.86214662e-003 -1.02974899e-001
      -3.22344780e-001 -1.71624832e-002 -5.86214662e-003
      -4.06110659e-002 -4.69249189e-001 -1.14699192e-001 1.13003366e-002
      1.13003366e-002 -1.21482499e-002 -2.18945950e-001 -1.95073411e-001
      -6.86499327e-002 1.13003366e-002 4.52013463e-002 -1.75864398e-002
      -1.29961595e-002 -6.40596449e-002 -4.01871130e-002
      -1.71624832e-002 -3.43249664e-002 1.13003366e-002 5.43818995e-003
      -4.60492596e-002 6.69541061e-002 -6.86499327e-002 -3.43249664e-002
      1.13003366e-002 -6.36356920e-002 -8.47913325e-004 -1.17242932e-002
      -1.21482499e-002 -2.30246298e-002 -6.28610328e-003 6.75476491e-001
      -2.47204453e-002 5.01423329e-003 -6.32117391e-002 4.47773933e-002
      1.34332180e-001 -3.43249664e-002 5.43818995e-003 2.21767165e-002
      -4.23956662e-004 0. -9.16745663e-002 -1.17242932e-002
      -5.86214662e-003 -1.32285625e-001</_>
    <_>
      3.35601643e-002 0. 0. 0. 0. 0. 0. 0. 0. 0. 8.39004107e-003
      8.39004107e-003 0. 0. 8.39004107e-003 7.71883786e-001
      8.39004144e-002 0. 0. 0. 1.67800821e-002 8.39004144e-002
      8.39004107e-003 0. 0. 2.51701232e-002 0. 3.35601643e-002
      8.39004107e-003 0. 0. 0. 0. 0. 8.39004107e-003 2.51701232e-002
      8.39004107e-003 0. 0. 8.39004107e-003 0. 1.67800821e-002
      1.67800821e-002 2.51701232e-002 6.04082942e-001 7.55103678e-002
      8.39004107e-003 1.67800821e-002 2.51701232e-002 6.71203285e-002 0.
      0. 4.19502072e-002 8.39004107e-003 8.39004107e-003 3.35601643e-002
      3.35601643e-002 4.19502072e-002 5.03402464e-002 -7.61354715e-003
      0. 0. 0. 0. 0. 0. 0. 0. 0. 8.39004107e-003 8.39004107e-003 0. 0.
      -5.33705279e-002 1.64571583e-001 7.36069828e-002 0. 0. 0.
      -3.46870571e-002 -1.52848423e-001 -1.90338679e-003 0. 0.
      2.51701232e-002 0. 2.32667364e-002 -1.21968146e-002 0. 0. 0. 0. 0.
      -1.90338679e-003 -5.71016036e-003 8.39004107e-003 -1.02934279e-002
      -3.08802836e-002 -3.27836722e-002 -1.02934279e-002
      -3.80677357e-003 -3.80677357e-003 -5.71016036e-003
      -1.26750410e-001 -2.74239108e-002 8.39004107e-003 -3.80677357e-003
      2.51701232e-002 -2.55205184e-002 -1.02934279e-002 0.
      4.19502072e-002 -2.24902425e-002 8.39004107e-003 -7.61354715e-003
      2.32667364e-002 3.16567793e-002 -1.14203207e-002</_>
    <_>
      1.55268759e-001 1.41153419e-002 1.41153419e-002 0. 1.41153419e-002
      0. 1.41153419e-002 4.23460267e-002 0. 0. 1.41153419e-002
      1.41153419e-002 0. 1.41153419e-002 4.23460267e-002 2.68191487e-001
      2.82306839e-002 0. 1.41153419e-002 0. 1.12922736e-001
      9.88073945e-002 1.41153419e-002 1.41153419e-002 0. 1.41153419e-002
      0. 1.41153419e-002 0. 0. 0. 0. 0. 0. 0. 0. 0. 1.41153419e-002
      5.64613678e-002 2.82306839e-002 1.41153419e-002 1.41153419e-002
      2.82306839e-002 9.88073945e-002 8.89266551e-001 1.41153425e-001
      1.41153419e-002 2.82306839e-002 8.46920535e-002 1.69384107e-001 0.
      0. 0. 0. 1.41153419e-002 0. 1.41153419e-002 4.23460267e-002
      9.88073945e-002 4.48509753e-002 -1.74325965e-002 -1.65862683e-003
      0. 1.41153419e-002 0. -1.65862683e-003 2.65720580e-002 0. 0.
      1.41153419e-002 -1.74325965e-002 -1.57739688e-002 1.41153419e-002
      -5.22977896e-002 -3.62767309e-001 1.24567151e-002 0.
      1.41153419e-002 0. 3.40528861e-002 -5.89323044e-002
      -1.65862683e-003 1.41153419e-002 0. 1.41153419e-002 0.
      -1.65862683e-003 -4.73219082e-002 -1.57739688e-002 0.
      -1.57739688e-002 0. -1.57739688e-002 0. -1.57739688e-002
      -1.57739688e-002 1.41153419e-002 -6.63450733e-003 1.24567151e-002
      -1.74325965e-002 -1.74325965e-002 -3.31725366e-003 6.72594607e-002
      1.95211887e-001 4.65096086e-002 1.41153419e-002 -1.90912243e-002
      2.15961784e-002 5.89663237e-002 -3.15479375e-002 -3.15479375e-002
      -9.46438164e-002 -1.57739688e-002 -1.65862683e-003
      -4.73219082e-002 -1.65862683e-003 -4.97588143e-003 4.16357815e-003</_>
    <_>
      7.77797401e-002 1.03706317e-002 0. 0. 0. 0. 5.18531585e-003
      1.03706317e-002 5.18531585e-003 5.18531585e-003 9.85210016e-002
      7.20758915e-001 0. 0. 5.18531585e-003 1.24447584e-001
      2.90377706e-001 5.18531585e-003 0. 5.18531585e-003 4.66678441e-002
      8.81503746e-002 4.66678441e-002 0. 0. 5.18531585e-003
      3.11118960e-002 5.18531613e-002 5.70384786e-002 4.66678441e-002 0.
      0. 0. 5.18531585e-003 6.22237921e-002 1.03706317e-002
      5.18531585e-003 5.18531585e-003 5.18531585e-003 0. 5.18531585e-003
      5.18531585e-003 2.07412634e-002 1.24447584e-001 1.03706323e-001
      1.03706317e-002 1.55559480e-002 1.55559480e-002 4.40751851e-001
      3.21489602e-001 1.03706317e-002 1.03706317e-002 7.25944266e-002
      3.62972133e-002 0. 3.62972133e-002 2.59265807e-002 1.55559480e-002
      7.25944266e-002 -8.71127993e-002 -1.00126769e-003 -5.68594970e-003
      0. 0. 0. 5.18531585e-003 -2.37450674e-002 5.18531585e-003
      -5.00633847e-004 -6.06855974e-002 7.25606680e-002 -1.13718994e-002
      -5.68594970e-003 -6.18658355e-003 -1.93965614e-001
      -1.07638776e-001 -5.00633847e-004 -5.68594970e-003
      -1.18725337e-002 1.82380956e-002 1.99189782e-002 1.25521459e-002
      0. -5.68594970e-003 -2.32444331e-002 2.68214755e-003
      6.79612160e-004 2.86087301e-002 2.39240453e-002 0.
      -5.68594970e-003 -5.68594970e-003 -3.46163325e-002
      -6.00760430e-003 -2.94310190e-002 -6.18658355e-003
      -5.00633847e-004 -2.89303828e-002 0. -5.00633847e-004
      -6.18658355e-003 9.36936401e-003 4.48442847e-002 -6.68721721e-002
      1.03706317e-002 4.18404862e-003 -1.85597502e-002 1.16652727e-001
      4.85640168e-002 -6.68721739e-003 -6.68721739e-003 -4.68105152e-002
      1.92393642e-002 0. 7.86746480e-003 -2.50316784e-003
      -1.50190108e-003 -2.97526717e-002</_>
    <_>
      1.16632573e-001 0. 0. 0. 0. 0. 6.47958741e-003 3.88775244e-002 0.
      0. 1.29591748e-002 4.85969067e-001 0. 0. 0. 0. 6.47958741e-002 0.
      0. 0. 0. 0. 6.47958741e-003 0. 6.47958741e-003 0. 0. 0. 0.
      1.94387622e-002 0. 0. 0. 6.47958741e-003 1.10152990e-001
      6.47958741e-003 6.47958741e-003 0. 0. 0. 0. 0. 6.47958741e-003
      9.07142237e-002 2.59183496e-002 1.29591748e-002 1.94387622e-002
      3.23979370e-002 7.58111715e-001 3.75816077e-001 1.94387622e-002
      2.59183496e-002 1.29591748e-002 1.94387622e-002 6.47958741e-003 0.
      0. 6.47958741e-003 5.83162867e-002 5.35162389e-002 0. 0. 0.
      -7.01292604e-003 0. -7.54626468e-003 -1.72258839e-002 0. 0.
      1.29591748e-002 -1.89616084e-002 0. 0. 0. 0. 5.07700220e-002 0. 0.
      0. 0. 0. -5.33338636e-004 0. -7.54626468e-003 -1.40258521e-002 0.
      -7.01292604e-003 0. 1.24258362e-002 0. 0. 0. -7.06626028e-002
      -1.21273577e-001 -1.45591907e-002 6.47958741e-003 0. 0. 0.
      -1.40258521e-002 -1.40258521e-002 -5.33338636e-004
      -7.46674091e-003 -3.71979848e-002 5.94624877e-003 -8.61294195e-003
      4.34623286e-003 2.87674069e-002 3.91956270e-002 -1.56258680e-002
      -9.14628059e-003 -1.50925294e-002 -8.61294195e-003
      -2.15721168e-002 -7.01292604e-003 -7.01292604e-003
      -5.33338636e-004 -4.68776040e-002</_>
    <_>
      1.30544916e-001 0. 0. 0. 0. 0. 0. 2.83793304e-002 5.67586627e-003
      0. 9.64897275e-002 5.95965922e-001 0. 0. 0. 7.94621259e-002
      1.75951853e-001 0. 0. 0. 0. 2.27034651e-002 3.40551957e-002 0. 0.
      5.67586627e-003 0. 0. 1.70275979e-002 2.27034651e-002 0. 0. 0. 0.
      1.02165595e-001 1.70275979e-002 1.13517325e-002 0. 0. 0. 0.
      1.13517325e-002 5.67586627e-003 7.37862587e-002 1.70275986e-001 0.
      5.67586627e-003 1.70275979e-002 6.30021155e-001 3.51903707e-001
      5.67586627e-003 1.13517325e-002 4.54069301e-002 1.70275979e-002 0.
      0. 5.67586627e-003 2.27034651e-002 9.08138603e-002
      -1.52807400e-001 -1.77095197e-002 0. -2.65642796e-002
      -8.85475986e-003 0. -3.54190394e-002 -4.24587503e-002
      5.67586627e-003 0. 7.87802041e-002 2.04065442e-002
      -8.85475986e-003 0. -3.54190394e-002 -7.99235553e-002
      3.42756957e-002 0. -1.77095197e-002 0. -2.65642796e-002
      -3.92798558e-002 -1.90733634e-002 0. -8.85475986e-003
      -2.08884142e-002 -4.42738011e-002 -6.19833209e-002
      -4.49557230e-002 -3.04250941e-002 -8.85475986e-003
      -8.85475986e-003 -1.77095197e-002 -1.68240443e-001
      -5.72200865e-002 -2.72462033e-002 -1.52125470e-002 0. 0.
      -1.77095197e-002 -6.19833209e-002 -7.71958679e-002
      -2.97431722e-002 -2.36160979e-002 1.43711701e-001 -4.42738011e-002
      -6.51622117e-002 8.17283802e-003 1.90427303e-002 2.36791819e-001
      -1.20336534e-002 -3.29220667e-002 -9.62692276e-002
      -1.83914416e-002 0. -2.65642796e-002 -1.20336534e-002
      -1.27155744e-002 -2.42980197e-002</_>
    <_>
      1.37386486e-001 0. 0. 0. 0. 0. 0. 1.37386490e-002 1.37386490e-002
      4.80852723e-002 2.06079725e-002 8.93012211e-002 0. 1.37386490e-002
      1.71733111e-001 5.83892584e-001 1.09909192e-001 0. 0.
      2.74772979e-002 2.06079736e-001 3.98420811e-001 6.86932430e-002 0.
      0. 0. 6.86932448e-003 8.93012211e-002 3.43466215e-002
      2.06079725e-002 6.86932448e-003 0. 6.86932448e-003 6.86932448e-003
      1.37386490e-002 3.43466215e-002 6.86932448e-003 0. 6.86932448e-003
      9.61705446e-002 2.06079725e-002 2.06079725e-002 6.86932448e-003
      2.06079725e-002 5.77023268e-001 1.03039868e-001 6.86932448e-003 0.
      4.80852723e-002 3.43466215e-002 6.86932448e-003 0. 2.06079725e-002
      1.37386490e-002 3.43466215e-002 2.74772979e-002 3.43466215e-002 0.
      8.93012211e-002 4.74549979e-002 0. 0. 0. 0. 0. 0. 1.37386490e-002
      6.82084216e-003 -3.39373946e-004 -7.06325471e-003 -7.54807144e-003
      0. -9.69646499e-005 5.70574403e-003 1.89577609e-001
      1.30598992e-002 0. 0. 1.36416843e-002 -1.25974998e-001
      3.86948586e-002 2.02685967e-002 -6.91780681e-003 -6.91780681e-003
      -6.91780681e-003 -4.84823249e-005 -2.13836879e-002
      -7.16022030e-003 1.36901662e-002 6.86932448e-003 0.
      6.86932448e-003 6.86932448e-003 -2.08503846e-002 6.67539425e-003
      -6.96628913e-003 -6.91780681e-003 -3.46375182e-002 6.84993193e-002
      -7.06325471e-003 6.77235890e-003 -2.08019018e-002 2.06079725e-002
      -1.14757419e-001 -6.99053034e-002 -4.84823249e-005
      -2.07534209e-002 2.73318514e-002 -3.48314457e-002 -4.84823249e-005
      -6.91780681e-003 -2.78166737e-002 -1.39325783e-002 3.43466215e-002
      -1.40295438e-002 6.67539425e-003 -1.38356136e-002 2.70409621e-002</_>
    <_>
      1.28357843e-001 3.20894606e-002 8.02236516e-003 8.02236516e-003
      8.02236516e-003 1.60447303e-002 1.60447303e-002 0. 0. 0.
      8.02236516e-003 8.02236516e-003 0. 0. 1.44402578e-001
      7.70147085e-001 8.02236516e-003 0. 8.02236516e-003 0.
      2.00559139e-001 5.29476106e-001 2.40670964e-002 0. 0.
      8.02236516e-003 0. 4.01118286e-002 3.20894606e-002 8.02236516e-003
      0. 1.60447303e-002 6.41789213e-002 4.01118286e-002 0.
      8.02236516e-003 0. 0. 2.40670964e-002 1.04290754e-001
      1.36380211e-001 8.02236516e-003 8.02236516e-003 8.02236516e-003
      7.22012892e-002 1.60447303e-002 0. 8.02236516e-003 0. 0. 0. 0. 0.
      8.02236516e-003 0. 3.20894606e-002 8.02236516e-003 8.02236516e-003
      2.40670964e-002 3.04358527e-002 2.31874622e-002 8.02236516e-003
      8.02236516e-003 8.02236516e-003 7.14273192e-003 -2.84652617e-002
      -2.67059971e-002 0. -1.78039968e-002 -1.86836310e-002
      -8.79633240e-004 0. -1.78039968e-002 -5.14414012e-002
      2.80537158e-001 -5.42916283e-002 0. 8.02236516e-003
      -7.12159872e-002 -3.06854784e-001 -1.35458112e-002
      -1.15408972e-002 0. -1.78039968e-002 -8.79633240e-004
      -3.56079936e-002 -6.67121559e-002 -3.91265266e-002 8.02236516e-003
      0. 1.60447303e-002 1.96689293e-002 -2.53654122e-001
      -2.67059971e-002 -8.79633240e-004 0. 0. 6.26309961e-003
      8.64867568e-002 1.17522255e-002 8.02236516e-003 -8.79633240e-004
      -2.75856294e-002 -4.35246974e-002 1.60447303e-002 0.
      -9.78163164e-003 -2.67059971e-002 -8.90199840e-003 0.
      -8.90199840e-003 -3.56079936e-002 -2.75856294e-002
      -8.90199840e-003 -3.51853296e-003 -1.86836310e-002
      -2.75856294e-002 6.26309961e-003</_>
    <_>
      6.42866015e-001 5.98014891e-002 1.49503723e-002 0. 0. 0.
      5.98014891e-002 2.99007446e-002 0. 1.49503723e-002 1.49503723e-002
      2.99007446e-002 0. 1.49503723e-002 1.49503723e-002 4.48511168e-002
      2.99007446e-002 0. 0. 0. 0. 1.49503723e-002 1.49503723e-002 0. 0.
      0. 0. 0. 0. 0. 1.49503723e-002 4.48511168e-002 1.49503723e-001
      1.04652606e-001 0. 7.47518614e-002 2.99007446e-002 2.99007446e-002
      7.47518614e-002 4.33560789e-001 4.78411913e-001 7.47518614e-002
      1.34553358e-001 0. 2.99007446e-002 1.49503723e-001 4.48511168e-002
      2.99007446e-002 0. 1.49503723e-002 5.98014891e-002 5.98014891e-002
      0. 0. 1.49503723e-002 1.49503723e-002 0. 0. 2.24255592e-001
      5.14508188e-001 2.77120285e-002 6.92800712e-003 -8.02236516e-003
      -8.02236516e-003 -1.60447303e-002 4.37567607e-002 2.99007446e-002
      0. 1.49503723e-002 6.92800712e-003 2.18783803e-002 0.
      1.49503723e-002 -1.29452199e-001 -7.25295961e-001 2.18783803e-002
      0. -8.02236516e-003 0. -2.00559139e-001 -5.14525712e-001
      -9.11672413e-003 0. 0. -8.02236516e-003 0. -4.01118286e-002
      -3.20894606e-002 -8.02236516e-003 1.49503723e-002 2.88063865e-002
      8.53248015e-002 6.45407736e-002 0. 6.67294934e-002 2.99007446e-002
      2.99007446e-002 5.06847650e-002 3.29270035e-001 3.42031717e-001
      6.67294934e-002 1.26530990e-001 -8.02236516e-003 -4.23005447e-002
      1.33458987e-001 4.48511168e-002 2.18783803e-002 0. 1.49503723e-002
      5.98014891e-002 5.98014891e-002 0. -8.02236516e-003
      1.49503723e-002 -1.71390884e-002 -8.02236516e-003 -8.02236516e-003
      2.00188488e-001</_>
    <_>
      2.65195698e-001 4.07993384e-002 4.07993384e-002 0. 3.05995028e-002
      1.01998346e-002 2.03996692e-002 3.05995028e-002 0. 2.03996692e-002
      3.05995028e-002 6.11990057e-002 1.01998346e-002 2.03996692e-002
      1.12198181e-001 7.85387218e-001 1.42797679e-001 0. 1.01998346e-002
      4.07993384e-002 1.73397183e-001 3.87593716e-001 1.01998346e-002 0.
      1.01998346e-002 0. 2.03996692e-002 1.32597849e-001 3.05995028e-002
      3.05995028e-002 1.01998346e-002 0. 3.05995028e-002 2.03996692e-002
      2.03996692e-002 1.01998346e-002 0. 1.01998346e-002 2.03996692e-002
      2.03996688e-001 7.13988394e-002 1.01998346e-002 0. 1.01998346e-002
      4.07993384e-002 5.09991720e-002 3.05995028e-002 2.03996692e-002
      1.01998346e-002 4.07993384e-002 1.01998346e-002 1.01998346e-002
      5.09991720e-002 0. 0. 3.05995028e-002 2.03996692e-002
      6.11990057e-002 4.07993384e-002 -1.41811073e-002 -2.12843940e-002
      9.75747220e-003 0. -4.42363322e-004 -1.47454441e-004
      -2.94908881e-004 -4.42363322e-004 0. -1.06421970e-002
      -8.32206681e-002 -2.15793066e-002 -1.04947435e-002
      -1.06421970e-002 -1.15442164e-001 1.95591748e-001 -8.48426670e-002
      -1.03472890e-002 -1.04947435e-002 -2.12843940e-002
      -1.05979621e-001 -1.40117973e-001 -2.08420306e-002 0.
      1.01998346e-002 -1.03472890e-002 -1.14115082e-001 -1.22641921e-002
      -5.21788076e-002 9.90492478e-003 -1.47454441e-004 -1.03472890e-002
      3.05995028e-002 1.00523802e-002 -3.13367769e-002 -1.47454441e-004
      -2.06945781e-002 -1.04947435e-002 -2.94908881e-004 1.10871091e-001
      -1.03218108e-003 1.01998346e-002 0. 1.01998346e-002
      9.75747220e-003 1.99573059e-002 2.02522129e-002 1.00523802e-002
      1.01998346e-002 3.04520503e-002 1.01998346e-002 -1.47454441e-004
      3.03045940e-002 0. -3.10418662e-002 -2.11369414e-002
      1.00523802e-002 3.01571395e-002 -4.19789739e-002</_>
    <_>
      1.60350397e-001 7.59554505e-002 1.68789886e-002 0. 8.43949430e-003
      0. 1.68789886e-002 8.43949430e-003 0. 1.68789886e-002
      4.21974733e-002 9.28344429e-002 4.21974733e-002 0. 8.43949467e-002
      7.67994046e-001 1.26592427e-001 0. 8.43949430e-003 6.75159544e-002
      2.53184855e-001 4.64172214e-001 1.68789886e-002 0. 0.
      8.43949430e-003 2.53184848e-002 6.75159544e-002 5.06369695e-002
      1.68789886e-002 0. 0. 1.68789886e-002 0. 2.53184848e-002
      8.43949430e-003 0. 0. 3.37579772e-002 6.75159544e-002 0.
      8.43949430e-003 0. 0. 1.77229390e-001 7.59554505e-002
      8.43949430e-003 0. 0. 1.68789886e-002 1.68789886e-002
      8.43949430e-003 2.53184848e-002 2.53184848e-002 0. 3.37579772e-002
      2.53184848e-002 1.68789886e-002 4.21974733e-002 -1.04845300e-001
      3.51561122e-002 -2.39203498e-002 0. -2.21600085e-002
      -1.01998346e-002 -3.52068059e-003 -2.21600085e-002 0.
      -3.52068059e-003 1.15979705e-002 3.16354372e-002 3.19976397e-002
      -2.03996692e-002 -2.78032348e-002 -1.73931718e-002
      -1.62052512e-002 0. -1.76034030e-003 2.67166160e-002
      7.97876716e-002 7.65784979e-002 6.67915400e-003 0.
      -1.01998346e-002 8.43949430e-003 4.91881557e-003 -6.50818944e-002
      2.00374667e-002 -1.37205143e-002 -1.01998346e-002 0.
      -1.37205143e-002 -2.03996692e-002 4.91881557e-003 -1.76034030e-003
      0. -1.01998346e-002 1.33583080e-002 -1.36480734e-001
      -7.13988394e-002 -1.76034030e-003 0. -1.01998346e-002
      1.36430055e-001 2.49562785e-002 -2.21600085e-002 -2.03996692e-002
      -1.01998346e-002 -2.39203498e-002 6.67915400e-003 -1.76034030e-003
      -2.56806873e-002 2.53184848e-002 0. 3.15847434e-003
      4.91881557e-003 -4.43200171e-002 1.39813498e-003</_>
    <_>
      5.34352899e-001 7.12470487e-002 1.78117622e-002 0. 0. 0. 0. 0. 0.
      0. 0. 0. 1.78117622e-002 0. 1.78117622e-002 0. 3.56235243e-002
      1.78117622e-002 0. 0. 3.56235243e-002 3.56235243e-002
      1.78117622e-002 0. 0. 0. 0. 0. 0. 0. 0. 3.56235243e-002
      1.60305858e-001 1.24682337e-001 1.78117622e-002 1.78117622e-002 0.
      3.56235243e-002 8.90588090e-002 4.27482307e-001 5.69976389e-001
      5.34352884e-002 3.56235243e-002 0. 7.12470487e-002 8.90588090e-002
      1.42494097e-001 7.12470487e-002 0. 0. 3.56235243e-002
      8.90588090e-002 0. 0. 1.78117622e-002 0. 0. 1.78117622e-002
      3.02799970e-001 3.39524150e-002 -8.81702453e-003 -4.22362983e-002
      -2.00160183e-002 -4.00320366e-002 -2.00160183e-002
      -2.00160183e-002 -8.00640732e-002 0. 0. -8.00640732e-002
      -1.20096117e-001 -2.22202744e-002 0. -2.20425613e-003
      -4.80384469e-001 -2.04568714e-001 1.78117622e-002 0. 0.
      3.56235243e-002 -1.24504626e-001 -2.22202744e-002 -4.00320366e-002
      -2.00160183e-002 0. 0. 0. 0. -4.00320366e-002 0. -4.44405489e-002
      4.02097404e-002 6.46342784e-002 -1.22300372e-001 -2.22202744e-002
      -4.00320366e-002 1.56075060e-002 -1.10212862e-002 1.67274058e-001
      3.49800169e-001 1.34032518e-002 -2.44245343e-002 0.
      -1.68945193e-001 -2.31197476e-001 1.02462061e-001 3.12150121e-002
      -2.00160183e-002 -1.00080095e-001 -2.44245343e-002
      -1.10212862e-002 0. -2.00160183e-002 1.78117622e-002 0. 0.
      -2.22202744e-002 1.62687838e-001</_>
    <_>
      1.84035361e-001 2.62907669e-002 0. 0. 0. 0. 0. 0. 0. 0. 0. 0. 0.
      0. 0. 1.31453834e-002 1.31453834e-002 0. 0. 0. 0. 0.
      1.31453834e-002 0. 0. 0. 0. 0. 0. 0. 0. 3.94361503e-002
      6.57269135e-002 6.57269135e-002 0. 3.94361503e-002 0. 0.
      1.31453827e-001 2.10326135e-001 1.18308447e-001 0. 2.62907669e-002
      1.31453834e-002 8.01868379e-001 4.60088432e-001 3.94361503e-002 0.
      0. 7.88723007e-002 1.18308447e-001 1.31453834e-002 0. 0. 0. 0. 0.
      0. 1.31453834e-002 -3.50317538e-001 -4.49562818e-002
      -1.78117622e-002 0. 0. 0. 0. 0. 0. 0. 0. 0. -1.78117622e-002 0.
      -1.78117622e-002 1.31453834e-002 -2.24781409e-002 -1.78117622e-002
      0. 0. -3.56235243e-002 -3.56235243e-002 -4.66637872e-003 0. 0. 0.
      0. 0. 0. 0. 0. 3.81262600e-003 -9.45789441e-002 -5.89554235e-002
      -1.78117622e-002 2.16243882e-002 0. -3.56235243e-002
      4.23950180e-002 -2.17156172e-001 -4.51667935e-001 -5.34352884e-002
      -9.33275744e-003 1.31453834e-002 7.30621338e-001 3.71029615e-001
      -1.03057951e-001 -7.12470487e-002 0. 7.88723007e-002
      8.26849192e-002 -7.59134293e-002 0. 0. -1.78117622e-002 0. 0.
      -1.78117622e-002 -2.89654583e-001</_>
    <_>
      5.93521476e-001 4.45141084e-002 1.48380361e-002 1.48380361e-002
      1.48380361e-002 0. 0. 2.96760723e-002 0. 0. 5.93521446e-002
      1.18704289e-001 0. 0. 0. 7.41901845e-002 1.18704289e-001 0. 0. 0.
      1.48380361e-002 0. 2.96760723e-002 0. 1.48380361e-002 0.
      1.48380361e-002 1.48380361e-002 2.96760723e-002 4.45141084e-002
      1.48380361e-002 4.45141084e-002 1.03866257e-001 1.33542329e-001
      2.96760723e-002 5.93521446e-002 2.96760723e-002 0. 7.41901845e-002
      3.70950907e-001 4.15465027e-001 1.18704289e-001 8.90282169e-002 0.
      1.48380361e-002 2.96760738e-001 1.33542329e-001 1.03866257e-001 0.
      1.48380361e-002 4.45141084e-002 1.03866257e-001 8.90282169e-002
      1.48380361e-002 1.48380361e-002 0. 1.48380361e-002 4.45141084e-002
      2.96760738e-001 4.09486115e-001 1.82233416e-002 1.48380361e-002
      1.48380361e-002 1.48380361e-002 0. 0. 2.96760723e-002 0. 0.
      5.93521446e-002 1.18704289e-001 0. 0. 0. 6.10448010e-002
      1.05558902e-001 0. 0. 0. 1.48380361e-002 0. 1.65306889e-002 0.
      1.48380361e-002 0. 1.48380361e-002 1.48380361e-002 2.96760723e-002
      4.45141084e-002 1.48380361e-002 5.07795811e-003 3.81393433e-002
      6.78154156e-002 2.96760723e-002 1.99159943e-002 2.96760723e-002 0.
      -5.72636425e-002 1.60624772e-001 2.97156572e-001 1.18704289e-001
      6.27374500e-002 -1.31453834e-002 -7.87030339e-001 -1.63327694e-001
      9.41061825e-002 1.03866257e-001 0. -6.40342683e-002
      -7.37943351e-002 9.07208771e-002 8.90282169e-002 1.48380361e-002
      1.48380361e-002 0. 1.48380361e-002 4.45141084e-002 2.83615351e-001</_>
    <_>
      1.49384856e-001 0. 0. 0. 0. 0. 0. 0. 1.06703471e-002 0.
      7.46924281e-002 1.06703471e-002 0. 0. 5.33517376e-002
      2.66758680e-001 7.46924281e-002 0. 0. 2.13406943e-002
      9.60331261e-002 1.60055205e-001 3.20110433e-002 0. 1.06703471e-002
      0. 0. 5.33517376e-002 1.06703471e-002 0. 0. 1.06703471e-002 0. 0.
      1.06703471e-002 3.20110433e-002 2.13406943e-002 0. 5.33517376e-002
      0. 1.06703471e-002 2.13406943e-002 2.13406943e-002 1.06703475e-001
      8.53627801e-001 4.26813886e-002 3.20110433e-002 1.06703471e-002
      7.46924281e-002 2.45417997e-001 4.26813886e-002 1.06703471e-002
      1.06703471e-002 1.06703471e-002 2.13406943e-002 4.26813886e-002
      3.20110433e-002 1.06703471e-002 1.81395903e-001 -2.85470039e-001
      -1.26248196e-001 -9.81930420e-002 0. -4.20827307e-002 0.
      -5.61103076e-002 -4.20827307e-002 -1.73848066e-002
      -2.80551538e-002 -5.15557677e-002 -4.66267288e-001
      -5.61103076e-002 -2.80551538e-002 -8.69240388e-002
      -1.11985892e-001 -2.05859125e-001 0. 0. 2.13406943e-002
      -1.14380538e-001 -2.23032981e-002 -5.21544181e-002 0.
      -1.73848066e-002 -4.20827307e-002 -2.80551538e-002 5.33517376e-002
      -4.54399586e-002 -5.61103076e-002 0. 1.06703471e-002
      -1.40275769e-002 -9.81930420e-002 -1.29605427e-001
      -3.81268449e-002 2.13406943e-002 -1.40275769e-002 2.52965838e-002
      0. -1.73848066e-002 7.31311738e-003 -6.71445951e-003
      6.46207482e-002 6.99324429e-001 4.26813886e-002 -2.40992643e-002
      -3.14123854e-002 -1.91831529e-001 1.89307690e-001 2.86538117e-002
      -1.73848066e-002 -7.34951124e-002 -1.73848066e-002 7.31311738e-003
      1.46262348e-002 1.79834664e-002 -4.54399586e-002 -1.49901807e-002</_>
    <_>
      3.42309654e-001 1.45663684e-002 0. 1.45663684e-002 7.28318421e-003
      1.45663684e-002 2.91327368e-002 8.01150277e-002 7.28318421e-003
      7.28318421e-003 1.16530947e-001 2.69477814e-001 0. 1.45663684e-002
      7.28318393e-002 4.73406971e-001 4.87973332e-001 7.28318421e-003
      7.28318421e-003 7.28318421e-003 3.64159197e-002 2.40345076e-001
      8.01150277e-002 0. 1.45663684e-002 2.91327368e-002 2.91327368e-002
      5.82654737e-002 4.36991043e-002 4.36991043e-002 0. 0. 0.
      8.01150277e-002 2.76760995e-001 1.23814128e-001 3.64159197e-002
      7.28318421e-003 1.45663684e-002 8.73982087e-002 5.82654737e-002
      1.01964578e-001 5.09822890e-002 6.55486584e-002 1.01964578e-001
      3.64159197e-002 2.18495522e-002 7.28318421e-003 1.67513236e-001
      1.16530947e-001 2.91327368e-002 4.36991043e-002 1.23814128e-001
      2.91327368e-002 1.45663684e-002 5.82654737e-002 5.09822890e-002
      7.28318421e-003 1.96645975e-001 2.99363792e-001 5.02284523e-003 0.
      1.45663684e-002 7.28318421e-003 9.79460683e-003 2.91327368e-002
      8.01150277e-002 7.28318421e-003 7.28318421e-003 9.26721394e-002
      2.69477814e-001 0. 5.02284523e-003 2.03424618e-002
      -1.56465530e-001 4.16396916e-001 7.28318421e-003 7.28318421e-003
      -7.03209965e-003 -1.49682775e-001 7.33334273e-002 4.19409350e-002
      0. 9.79460683e-003 1.95892137e-002 -6.15307316e-002
      -3.76742333e-003 7.53249973e-004 3.89273427e-002 0. 0. 0.
      8.01150277e-002 2.71989226e-001 1.14270605e-001 3.64159197e-002
      2.51142262e-003 -4.52067796e-003 8.26264471e-002 5.82654737e-002
      9.71928164e-002 4.14387658e-002 2.73745656e-002 -5.94712555e-001
      7.78535195e-003 1.70777906e-002 -2.26033898e-003 1.29339144e-001
      -1.70783773e-002 1.95892137e-002 4.36991043e-002 9.99553204e-002
      1.00456905e-002 9.79460683e-003 2.96349060e-002 1.75799578e-002
      -1.65756233e-002 1.39384836e-001</_>
    <_>
      4.01164621e-001 4.71958369e-002 0. 0. 0. 0. 7.86597282e-003 0. 0.
      7.86597282e-003 8.65257010e-002 8.65257010e-002 0. 1.57319456e-002
      5.50618097e-002 3.06772947e-001 2.98906982e-001 0. 7.86597282e-003
      2.35979185e-002 1.02257647e-001 1.88783348e-001 6.29277825e-002
      7.86597282e-003 7.86597282e-003 0. 1.17989592e-001 1.17989592e-001
      6.29277825e-002 5.50618097e-002 1.57319456e-002 7.86597282e-003 0.
      0. 3.93298641e-002 1.57319456e-002 7.86597282e-003 7.86597282e-003
      1.57319456e-002 7.86597282e-003 1.57319456e-002 7.86597282e-003
      1.57319456e-002 1.73051402e-001 4.32628512e-001 1.10123619e-001
      3.14638913e-002 2.35979185e-002 1.33721545e-001 4.56226438e-001
      6.29277825e-002 1.57319456e-002 6.29277825e-002 1.17989592e-001
      1.57319456e-002 7.86597282e-002 5.50618097e-002 4.71958369e-002
      2.35979185e-001 -3.55862767e-001 -3.08482274e-002 -7.80440634e-003
      -7.80440634e-003 -2.34132186e-002 -2.34132186e-002
      -2.33516525e-002 -2.34132186e-002 -3.12176254e-002
      -2.33516525e-002 2.40904503e-002 -3.05403918e-002 0.
      -7.68127292e-003 -3.85910645e-002 1.81902438e-001 1.27210036e-001
      0. 6.15664758e-005 7.98910577e-003 -6.16348907e-002
      -1.41312182e-002 -7.31187314e-003 7.86597282e-003 7.86597282e-003
      -7.80440634e-003 1.17989592e-001 1.10185184e-001 -7.75515288e-002
      -8.54175016e-002 1.57319456e-002 -7.74283987e-003 -1.56088127e-002
      -7.80440643e-002 -3.09097916e-002 -1.24747366e-001
      -7.79825002e-002 6.15664758e-005 1.23132952e-004 -7.74283987e-003
      -7.01165274e-002 -7.01780915e-002 -1.71573803e-001 1.73051402e-001
      4.24824119e-001 9.45148095e-002 1.58550777e-002 -5.44461459e-002
      1.33721545e-001 4.48422045e-001 5.51233776e-002 -2.32900865e-002
      6.29277825e-002 1.17989592e-001 -7.68127292e-003 7.08553195e-002
      4.72574048e-002 3.93914320e-002 -1.30827919e-001</_>
    <_>
      3.31496783e-002 0. 0. 0. 0. 5.52494638e-003 0. 0. 5.52494638e-003
      5.52494638e-003 6.62993565e-002 1.65748388e-001 0. 0.
      5.52494638e-003 4.97245163e-001 2.70722359e-001 0. 0.
      1.10498928e-002 4.41995710e-002 9.39240828e-002 5.52494638e-003 0.
      0. 5.52494638e-003 1.65748391e-002 2.20997855e-002 3.31496783e-002
      5.52494638e-003 0. 0. 0. 1.65748391e-002 5.52494638e-002
      1.10498928e-002 0. 0. 5.52494638e-003 5.52494638e-003
      1.10498928e-002 0. 0. 8.83991420e-002 6.13269031e-001
      2.76247319e-002 2.20997855e-002 1.65748391e-002 3.09396982e-001
      3.70171398e-001 5.52494638e-003 5.52494638e-003 7.73492455e-002
      2.20997855e-002 2.20997855e-002 4.41995710e-002 1.10498928e-002
      1.10498928e-002 4.97245155e-002 -1.07262805e-001 -6.68630889e-003
      0. 0. 0. 5.52494638e-003 -6.68630889e-003 -2.67452355e-002
      -1.16136251e-003 -1.16136251e-003 -4.06815857e-002 1.86495930e-002
      0. 0. -7.47107565e-002 -1.09142959e-002 -1.67888999e-002 0.
      -1.33726178e-002 4.36358387e-003 -6.27813712e-002 -3.31157818e-002
      -3.45929042e-002 0. 0. -3.45929042e-002 -3.48408706e-003
      -3.13906856e-002 1.97770596e-002 -7.84767140e-003 0. 0. 0.
      3.20222136e-003 1.51316114e-002 -1.56953428e-002 -1.33726178e-002
      0. -4.12792116e-002 -1.16136251e-003 -9.00903344e-003
      -1.33726178e-002 -2.00589262e-002 -5.86996526e-002 9.84232426e-002
      -4.59246635e-002 1.54134762e-002 -3.48408706e-003 -5.16636968e-002
      2.24833488e-002 -2.12202892e-002 -1.16136251e-003 1.71724670e-002
      2.04085931e-003 2.04085931e-003 -2.60458887e-003 -1.56953428e-002
      -2.23816521e-002 -2.38248818e-002</_>
    <_>
      7.53956884e-002 1.25659481e-002 0. 0. 6.28297403e-003 0. 0. 0. 0.
      0. 8.16786587e-002 1.57074347e-001 0. 6.28297403e-003
      2.51318961e-002 4.83788997e-001 3.32997620e-001 0. 6.28297403e-003
      1.25659481e-002 4.39808182e-002 1.19376503e-001 0. 0.
      1.25659481e-002 6.28297403e-003 3.14148702e-002 6.28297403e-002
      2.51318961e-002 1.25659481e-002 6.28297403e-003 0. 1.25659481e-002
      6.28297403e-003 3.14148702e-002 6.28297403e-003 0. 6.28297403e-003
      6.28297403e-003 1.88489221e-002 1.25659481e-002 2.51318961e-002
      1.25659481e-002 9.42446068e-002 5.40335774e-001 3.76978442e-002
      1.88489221e-002 5.02637923e-002 3.07865739e-001 4.20959264e-001
      3.14148702e-002 2.51318961e-002 8.79616365e-002 3.14148702e-002
      6.28297403e-003 1.88489221e-002 1.88489221e-002 6.28297403e-003
      6.28297403e-002 1.41093954e-002 1.25659481e-002 0. 0.
      6.28297403e-003 0. -6.12862920e-003 0. 0. -6.12862920e-003
      -1.63794085e-002 -9.41994637e-002 0. 6.28297403e-003
      -4.84116524e-002 -8.00448954e-002 2.65661478e-002 0.
      6.28297403e-003 1.25659481e-002 -5.40772490e-002 -9.32470709e-003
      -3.06431465e-002 0. 6.43731887e-003 6.28297403e-003
      6.90035336e-003 1.38007067e-002 -1.77685097e-002 -5.81993908e-003
      6.28297403e-003 0. 1.25659481e-002 -5.97428437e-003
      -2.98714228e-002 -1.21029131e-002 -6.12862920e-003 6.28297403e-003
      1.54344831e-004 1.88489221e-002 3.08689661e-004 6.74600899e-003
      6.43731887e-003 8.44379514e-003 8.06885958e-002 9.26069915e-004
      1.27202924e-002 2.57492755e-002 -9.04951692e-002 1.39042318e-001
      1.91576108e-002 1.90032665e-002 2.66753435e-002 -5.35690412e-003
      1.54344831e-004 -1.17942244e-002 6.59166370e-003 1.54344831e-004
      1.54344738e-003</_>
    <_>
      5.73609211e-002 0. 0. 0. 0. 0. 0. 0. 0. 0. 8.28546658e-002
      2.10323378e-001 6.37343572e-003 0. 0. 3.05924922e-001
      2.86804616e-001 0. 6.37343572e-003 0. 0. 4.46140505e-002
      1.91203076e-002 0. 0. 0. 3.82406153e-002 1.27468714e-002
      2.54937429e-002 1.27468714e-002 0. 0. 0. 0. 2.54937429e-002
      1.91203076e-002 6.37343572e-003 0. 0. 0. 0. 1.91203076e-002
      2.54937429e-002 8.28546658e-002 6.50090456e-001 4.46140505e-002
      1.27468714e-002 4.46140505e-002 4.27020192e-001 3.63285840e-001
      6.37343572e-003 6.37343572e-003 1.08348407e-001 1.91203076e-002 0.
      1.27468714e-002 1.27468714e-002 1.91203076e-002 4.46140505e-002
      -1.88962333e-002 0. 0. -5.86593524e-003 -5.86593524e-003 0.
      -5.86593524e-003 0. 0. 0. -2.27321684e-002 -1.94426134e-001
      6.37343572e-003 0. 0. -1.39886141e-001 -4.16877568e-002 0.
      6.37343572e-003 0. -5.86593524e-003 9.41843912e-003
      7.38843717e-003 0. 0. -1.75978057e-002 2.06428096e-002
      -4.85093426e-003 -9.70186852e-003 6.88093621e-003 0. 0. 0. 0.
      -3.83593328e-003 7.38843717e-003 6.37343572e-003 0. 0. 0.
      -5.86593524e-003 -4.34343331e-003 1.96278077e-002 6.59751147e-003
      2.10145324e-001 2.70162448e-002 1.27468714e-002 2.11503096e-002
      -1.19307637e-003 4.65253592e-002 5.07500488e-004 5.07500488e-004
      -2.07021609e-002 1.52250193e-003 0. -1.65828057e-002
      1.01500098e-003 1.52250193e-003 -2.57771723e-002</_>
    <_>
      2.03310419e-002 0. 0. 0. 0. 0. 0. 0. 0. 0. 6.09931238e-002
      5.08276038e-002 0. 0. 1.52482809e-002 6.25179529e-001
      2.13475928e-001 5.08276047e-003 0. 1.01655209e-002 2.03310419e-002
      1.06737964e-001 5.08276047e-003 0. 5.08276047e-003 1.01655209e-002
      5.59103638e-002 3.55793238e-002 2.03310419e-002 1.01655209e-002 0.
      0. 0. 0. 3.04965619e-002 2.03310419e-002 0. 5.08276047e-003 0.
      5.08276047e-003 5.08276047e-003 1.01655209e-002 1.01655209e-002
      7.62414038e-002 6.76007152e-001 3.55793238e-002 0. 2.03310419e-002
      1.27069011e-001 2.08393171e-001 0. 1.01655209e-002 9.14896876e-002
      2.54138019e-002 5.08276047e-003 4.06620838e-002 2.03310419e-002
      2.54138019e-002 4.57448438e-002 -3.45164090e-002 -5.48474491e-003
      0. 0. 0. 0. 0. 0. 0. 0. -5.41865192e-002 -4.24130596e-002 0. 0.
      1.52482809e-002 -5.56612015e-003 -2.30788395e-001 -4.01984435e-004
      -5.48474491e-003 1.01655209e-002 -7.09268264e-003 1.89820454e-002
      -1.13714747e-002 0. 5.08276047e-003 -6.28871378e-003
      1.06291473e-003 -4.12071049e-002 -7.09268264e-003 -6.28871378e-003
      0. 0. 0. 0. 1.40423272e-002 -1.60793774e-003 -1.09694898e-002
      -4.01984435e-004 -5.48474491e-003 -4.01984435e-004
      -4.01984435e-004 -8.03968869e-004 -2.82276943e-002 1.04244649e-002
      1.43986881e-001 3.00945789e-002 -1.09694898e-002 3.87680717e-003
      9.19878483e-004 -5.51187992e-003 -5.48474491e-003 -6.28871378e-003
      2.01880038e-002 3.47482227e-003 -4.01984435e-004 7.75361434e-003
      1.48462970e-002 8.95956717e-003 7.35162944e-003</_>
    <_>
      7.72307292e-002 0. 0. 0. 0. 0. 0. 0. 0. 0. 4.82692057e-003
      3.86153646e-002 0. 0. 2.41346024e-002 6.22672737e-001
      7.24038035e-002 0. 0. 0. 4.34422828e-002 1.39980689e-001 0. 0. 0.
      9.65384115e-003 4.82692057e-003 4.82692057e-003 9.65384115e-003 0.
      0. 0. 0. 0. 1.93076823e-002 1.44807613e-002 0. 4.82692057e-003
      4.82692057e-003 9.65384115e-003 0. 4.82692057e-003 1.44807613e-002
      2.89615225e-002 7.28864968e-001 2.41346024e-002 1.44807613e-002
      2.41346024e-002 4.82692048e-002 1.93076819e-001 4.82692057e-003
      4.82692057e-003 2.89615225e-002 9.65384115e-003 0. 1.93076823e-002
      4.82692057e-003 1.93076823e-002 3.86153646e-002 5.68996891e-002 0.
      0. 0. 0. 0. 0. 0. 0. 0. -5.61662018e-002 -1.22122392e-002 0. 0.
      8.88632145e-003 -2.50679255e-003 -1.41072124e-001 -5.08276047e-003
      0. -1.01655209e-002 2.31112409e-002 3.32427248e-002
      -5.08276047e-003 0. -5.08276047e-003 -5.11679798e-004
      -5.10834418e-002 -3.07524037e-002 -1.06772007e-002
      -1.01655209e-002 0. 0. 0. 0. -1.11888796e-002 -5.85028064e-003 0.
      -2.55839899e-004 4.82692057e-003 4.57108067e-003 -5.08276047e-003
      -5.33860037e-003 4.31524031e-003 -4.72798795e-002 5.28578162e-002
      -1.14447214e-002 1.44807613e-002 3.80356051e-003 -7.87998065e-002
      -1.53163522e-002 4.82692057e-003 -5.33860037e-003 -6.25281632e-002
      -1.57599598e-002 -5.08276047e-003 -2.13544015e-002
      -1.55041218e-002 -6.10611960e-003 -7.12947920e-003</_>
    <_>
      7.77212009e-002 9.71515011e-003 0. 0. 9.71515011e-003 0.
      9.71515011e-003 0. 0. 9.71515011e-003 9.71515011e-003 0.
      9.71515011e-003 0. 4.85757515e-002 5.82909025e-002 2.91454513e-002
      0. 0. 2.91454513e-002 2.04018161e-001 7.77212009e-002
      9.71515011e-003 0. 9.71515011e-003 2.91454513e-002 1.94303002e-002
      8.74363482e-002 1.94303002e-002 9.71515011e-003 1.94303002e-002 0.
      0. 0. 2.91454513e-002 1.94303002e-002 0. 0. 1.36012107e-001
      2.91454513e-002 9.71515011e-003 1.94303002e-002 1.94303002e-002
      3.88606004e-002 9.13224101e-001 2.13733301e-001 2.91454513e-002
      2.91454513e-002 5.82909025e-002 8.74363482e-002 2.91454513e-002 0.
      8.74363482e-002 2.91454513e-002 0. 9.71515011e-003 1.94303002e-002
      2.91454513e-002 4.85757515e-002 -2.38396823e-001 -1.66280195e-002
      -1.31715843e-002 0. 9.71515011e-003 -1.31715843e-002
      -1.66280195e-002 -2.63431687e-002 -1.31715843e-002
      -3.45643423e-003 -5.61427735e-002 -6.58579245e-002
      -3.45643423e-003 -2.63431687e-002 -1.22654848e-001
      -9.97681171e-002 -7.62272254e-002 0. 0. -3.67124751e-002
      -3.62359941e-001 -3.04254740e-001 9.71515011e-003 0.
      -1.66280195e-002 -3.67124751e-002 -1.12285547e-001
      -5.74510843e-002 -3.32560390e-002 -1.66280195e-002 1.94303002e-002
      -2.63431687e-002 -1.31715843e-002 -1.31715843e-002 2.91454513e-002
      -4.64276224e-002 -2.63431687e-002 0. 3.06394324e-002
      -8.93988088e-002 -1.66280195e-002 -6.91286847e-003
      -2.00844537e-002 1.25174318e-002 4.91733402e-001 -2.33552158e-002
      1.59738660e-002 2.91454513e-002 3.19477320e-002 6.10931814e-002
      2.80228257e-003 -1.31715843e-002 2.15784237e-002 2.91454513e-002
      -3.95147540e-002 -2.97996029e-002 -6.91286847e-003 1.59738660e-002
      -1.09483264e-001</_>
    <_>
      2.68199444e-001 7.15198517e-002 0. 1.78799629e-002 1.78799629e-002
      0. 1.78799629e-002 1.07279778e-001 0. 1.78799629e-002
      7.15198517e-002 1.07279778e-001 1.78799629e-002 0. 1.78799629e-002
      2.14559555e-001 8.93998146e-002 0. 1.78799629e-002 1.78799629e-002
      3.57599258e-002 8.93998146e-002 1.78799629e-002 0. 0. 0.
      7.15198517e-002 8.93998146e-002 0. 3.57599258e-002 0. 0. 0.
      1.78799629e-001 8.93998146e-002 3.57599258e-002 0. 0.
      1.78799629e-002 8.93998146e-002 1.25159740e-001 1.07279778e-001 0.
      0. 7.33078480e-001 2.32439533e-001 0. 5.36398888e-002
      2.14559555e-001 2.68199444e-001 3.57599258e-002 1.78799629e-002
      1.25159740e-001 3.57599258e-002 0. 3.57599258e-002 3.57599258e-002
      5.36398888e-002 3.57599258e-002 -1.95081383e-001 1.59261525e-002
      -3.70624661e-002 -6.51270151e-004 -6.51270151e-004 0.
      -6.51270151e-004 1.46236122e-002 0. -1.91825032e-002
      -2.60508060e-003 3.31548452e-002 -1.91825032e-002 -7.41249323e-002
      -9.33074355e-002 4.77784574e-002 7.08685815e-002 -1.85312331e-002
      -1.91825032e-002 1.78799629e-002 -2.23677337e-001 -5.88500500e-002
      -6.51270151e-004 0. -1.85312331e-002 -9.26561654e-002
      -3.96675467e-002 -2.17875838e-002 0. 3.57599258e-002 0.
      -7.41249323e-002 -1.85312331e-002 -2.50439346e-002
      -5.88500500e-002 -1.30254030e-003 -1.85312331e-002
      -9.26561654e-002 -7.47762024e-002 -4.03188169e-002 1.39723420e-002
      8.87485445e-002 0. -9.26561654e-002 2.14203954e-001
      1.02720901e-001 -1.85312331e-002 3.51086557e-002 -4.48777080e-002
      6.43558800e-002 -3.83650064e-002 1.78799629e-002 -2.30901241e-002
      -1.98337734e-002 0. -5.68962395e-002 -1.98337734e-002
      3.51086557e-002 -1.12489939e-001</_>
    <_>
      1.25340357e-001 3.41837332e-002 1.13945780e-002 0. 1.13945780e-002
      1.13945780e-002 0. 3.41837332e-002 0. 2.27891561e-002 0. 0. 0.
      1.13945780e-002 2.27891561e-002 2.27891561e-002 0. 0. 0.
      2.27891561e-002 3.41837332e-002 2.27891561e-002 0. 0.
      1.13945780e-002 0. 4.55783121e-002 1.13945780e-002 1.13945780e-002
      1.13945780e-002 0. 2.27891561e-002 2.27891561e-002 1.13945780e-002
      2.27891561e-002 1.13945780e-002 0. 1.13945780e-002 2.05102399e-001
      4.55783121e-002 6.83674663e-002 0. 1.13945780e-002 5.69728911e-002
      8.54593337e-001 2.27891564e-001 6.83674663e-002 4.55783121e-002
      1.48129508e-001 2.84864455e-001 5.69728911e-002 4.55783121e-002
      6.83674663e-002 3.41837332e-002 1.13945780e-002 2.27891561e-002
      3.41837332e-002 1.13945780e-002 1.25340357e-001 -6.57121986e-002
      3.41837332e-002 1.13945780e-002 0. 1.13945780e-002
      -3.30177229e-003 -1.46963503e-002 1.94873828e-002 0.
      -6.60354458e-003 0. 0. 0. -1.79981217e-002 -3.59962434e-002
      -8.00852999e-002 -4.40890528e-002 0. 0. -5.06925955e-002
      -1.12779774e-001 -2.12998968e-002 0. 0. 1.13945780e-002
      -4.40890528e-002 -2.79034413e-002 -9.14798826e-002 1.13945780e-002
      1.13945780e-002 0. 8.09280574e-003 8.09280574e-003
      -1.79981217e-002 -2.12998968e-002 -3.30177229e-003
      -1.46963503e-002 1.13945780e-002 1.61013350e-001 1.61856115e-002
      -5.11428714e-003 0. 1.13945780e-002 1.28838383e-002
      1.69013739e-002 2.21426487e-002 3.89747657e-002 1.61856115e-002
      1.16600096e-003 -9.06255841e-003 5.69728911e-002 3.08819618e-002
      -3.45069915e-002 -6.86907247e-002 -3.30177229e-003
      -3.59962434e-002 1.94873828e-002 1.13945780e-002 5.18586040e-002</_>
    <_>
      7.02959478e-001 8.11107084e-002 2.70369034e-002 0. 5.40738069e-002
      0. 5.40738069e-002 1.08147614e-001 2.70369034e-002 0.
      2.70369034e-002 1.62221417e-001 0. 0. 2.70369034e-002
      2.16295227e-001 3.24442834e-001 2.70369034e-002 5.40738069e-002
      5.40738069e-002 5.40738069e-002 2.70369034e-002 2.70369034e-002
      2.70369034e-002 5.40738069e-002 5.40738069e-002 3.24442834e-001
      1.08147614e-001 2.70369034e-002 2.70369034e-002 0. 0.
      2.70369034e-002 5.40738069e-002 8.11107084e-002 1.08147614e-001
      2.70369034e-002 0. 5.40738069e-002 1.35184512e-001 1.08147614e-001
      8.11107084e-002 8.11107084e-002 0. 0. 1.35184512e-001
      2.70369034e-002 5.40738069e-002 2.70369034e-002 0. 0.
      2.70369034e-002 0. 8.11107084e-002 0. 8.11107084e-002 0. 0.
      2.43332133e-001 5.77619135e-001 4.69269753e-002 1.56423263e-002 0.
      4.26792279e-002 -1.13945780e-002 5.40738069e-002 7.39638805e-002
      2.70369034e-002 -2.27891561e-002 2.70369034e-002 1.62221417e-001
      0. -1.13945780e-002 4.24774736e-003 1.93506077e-001
      3.24442834e-001 2.70369034e-002 5.40738069e-002 3.12846527e-002
      1.98900737e-002 4.24774736e-003 2.70369034e-002 2.70369034e-002
      4.26792279e-002 5.40738069e-002 2.78864533e-001 9.67530385e-002
      1.56423263e-002 1.56423263e-002 0. -2.27891561e-002
      4.24774736e-003 4.26792279e-002 5.83215505e-002 9.67530385e-002
      2.70369034e-002 -1.13945780e-002 -1.51028588e-001 8.96061957e-002
      3.97801474e-002 8.11107084e-002 6.97161332e-002 -5.69728911e-002
      -8.54593337e-001 -9.27070528e-002 -4.13305610e-002 8.49549472e-003
      -1.21092603e-001 -2.84864455e-001 -5.69728911e-002
      -1.85414087e-002 -6.83674663e-002 4.69269753e-002 -1.13945780e-002
      5.83215505e-002 -3.41837332e-002 -1.13945780e-002 1.17991775e-001</_>
    <_>
      1.60471410e-001 2.67452355e-002 1.33726178e-002 0. 5.34904711e-002
      0. 2.67452355e-002 6.68630898e-002 0. 1.33726178e-002
      1.60471410e-001 5.21532059e-001 0. 2.67452355e-002 1.33726178e-002
      4.41296369e-001 6.28513038e-001 0. 0. 0. 0. 4.01178524e-002
      4.01178524e-002 0. 0. 0. 0. 0. 1.33726178e-002 1.33726178e-002 0.
      0. 4.01178524e-002 1.33726180e-001 1.33726180e-001 5.34904711e-002
      1.33726178e-002 1.33726178e-002 0. 0. 6.68630898e-002
      8.02357048e-002 1.06980942e-001 0. 0. 0. 1.33726178e-002
      2.67452355e-002 0. 0. 0. 1.33726178e-002 0. 0. 1.33726178e-002 0.
      0. 1.33726178e-002 9.36083198e-002 -5.42488098e-001
      -5.43654710e-002 -1.36642857e-002 0. -5.83335757e-004 0.
      -2.73285713e-002 -4.12845239e-002 -2.70369034e-002 1.33726178e-002
      1.33434504e-001 3.59310627e-001 0. 2.67452355e-002
      -1.36642857e-002 2.25001141e-001 3.04070204e-001 -2.70369034e-002
      -5.40738069e-002 -5.40738069e-002 -5.40738069e-002 1.30809490e-002
      1.30809490e-002 -2.70369034e-002 -5.40738069e-002 -5.40738069e-002
      -3.24442834e-001 -1.08147614e-001 -1.36642857e-002
      -1.36642857e-002 0. 0. 1.30809490e-002 7.96523690e-002
      5.26154712e-002 -5.46571426e-002 -1.36642857e-002 1.33726178e-002
      -5.40738069e-002 -1.35184512e-001 -4.12845239e-002
      -8.75003636e-004 2.58702338e-002 0. 0. -1.35184512e-001
      -1.36642857e-002 -2.73285713e-002 -2.70369034e-002 0. 0.
      -1.36642857e-002 0. -8.11107084e-002 1.33726178e-002
      -8.11107084e-002 0. 1.33726178e-002 -1.49723813e-001</_>
    <_>
      3.01601470e-001 4.07569557e-002 1.63027830e-002 0. 0. 0. 0.
      8.15139152e-003 0. 0. 6.52111322e-002 8.15139115e-002
      4.89083491e-002 0. 7.33625218e-002 8.88501644e-001 2.03784794e-001
      0. 3.26055661e-002 0. 1.22270875e-001 9.78166983e-002
      2.44541746e-002 0. 1.63027830e-002 2.44541746e-002 8.15139152e-003
      0. 4.07569557e-002 1.63027830e-002 8.15139152e-003 0. 0. 0. 0.
      8.15139152e-003 0. 0. 2.44541746e-002 2.44541746e-002
      8.15139152e-003 2.44541746e-002 8.15139152e-003 1.63027830e-002
      4.89083491e-002 4.07569557e-002 0. 5.70597388e-002 8.15139152e-003
      8.15139152e-003 0. 1.63027830e-002 8.15139152e-003 0.
      8.15139152e-003 8.15139152e-003 1.63027830e-002 8.15139115e-002
      1.05968088e-001 1.41130060e-001 1.40117202e-002 2.93016527e-003 0.
      -5.34904711e-002 0. -2.67452355e-002 -5.87117001e-002 0.
      -1.33726178e-002 -9.52602774e-002 -4.40018147e-001 4.89083491e-002
      -2.67452355e-002 5.99899031e-002 4.47205275e-001 -4.24728245e-001
      0. 3.26055661e-002 0. 1.22270875e-001 5.76988459e-002
      -1.56636778e-002 0. 1.63027830e-002 2.44541746e-002
      8.15139152e-003 0. 2.73843370e-002 2.93016527e-003 8.15139152e-003
      0. -4.01178524e-002 -1.33726180e-001 -1.33726180e-001
      -4.53390777e-002 -1.33726178e-002 -1.33726178e-002 2.44541746e-002
      2.44541746e-002 -5.87117001e-002 -5.57815284e-002 -9.88295525e-002
      1.63027830e-002 4.89083491e-002 4.07569557e-002 -1.33726178e-002
      3.03145032e-002 8.15139152e-003 8.15139152e-003 0. 2.93016527e-003
      8.15139152e-003 0. -5.22122625e-003 8.15139152e-003
      1.63027830e-002 6.81412965e-002 1.23597682e-002</_>
    <_>
      1.39356002e-001 4.64520007e-002 1.16130002e-002 1.16130002e-002 0.
      0. 6.96780011e-002 3.48390006e-002 0. 1.16130002e-002
      1.62581995e-001 5.22584975e-001 4.64520007e-002 3.48390006e-002
      1.27743006e-001 5.80649972e-001 4.64520007e-001 0. 3.48390006e-002
      0. 1.62581995e-001 6.96780011e-002 3.48390006e-002 0. 0. 0.
      1.16130002e-002 1.16130002e-002 1.16130002e-002 1.16130002e-002 0.
      0. 1.16130002e-002 2.32260004e-002 2.09033996e-001 8.12909976e-002
      1.16130002e-002 0. 0. 0. 0. 2.32260004e-002 3.48390006e-002 0. 0.
      0. 0. 2.32260004e-002 0. 0. 0. 0. 0. 0. 0. 1.16130002e-002 0.
      5.80650009e-002 9.29040015e-002 -1.62245467e-001 5.69504499e-003
      -4.68978286e-003 1.16130002e-002 0. 0. 6.96780011e-002
      2.66876090e-002 0. 1.16130002e-002 9.73708630e-002 4.41071063e-001
      -2.45634839e-003 3.48390006e-002 5.43804839e-002 -3.07851672e-001
      2.60735214e-001 0. 2.23343447e-003 0. 4.03111205e-002
      -2.81386971e-002 1.03848260e-002 0. -1.63027830e-002
      -2.44541746e-002 3.46160866e-003 1.16130002e-002 -2.91439556e-002
      -4.68978286e-003 -8.15139152e-003 0. 1.16130002e-002
      2.32260004e-002 2.09033996e-001 7.31396079e-002 1.16130002e-002 0.
      -2.44541746e-002 -2.44541746e-002 -8.15139152e-003
      -1.22817419e-003 2.66876090e-002 -1.63027830e-002 -4.89083491e-002
      -4.07569557e-002 0. -3.38337384e-002 -8.15139152e-003
      -8.15139152e-003 0. -1.63027830e-002 -8.15139152e-003 0.
      -8.15139152e-003 3.46160866e-003 -1.63027830e-002 -2.34489106e-002
      -1.30640864e-002</_>
    <_>
      2.38976061e-001 3.41394357e-002 2.27596238e-002 0. 1.13798119e-002
      1.13798119e-002 2.27596238e-002 2.27596238e-002 1.13798119e-002
      1.13798119e-002 0. 0. 0. 2.27596238e-002 3.41394357e-002 0. 0. 0.
      0. 2.27596238e-002 1.13798119e-002 2.27596238e-002 0. 0. 0. 0.
      3.41394357e-002 5.68990633e-002 5.68990633e-002 2.27596238e-002 0.
      3.41394357e-002 2.27596238e-002 2.27596238e-002 1.13798119e-002
      1.13798119e-002 0. 2.27596238e-002 1.13798127e-001 9.10384953e-002
      3.41394357e-002 2.27596238e-002 0. 1.13798119e-002 8.42106104e-001
      2.84495324e-001 3.41394357e-002 4.55192477e-002 1.70697182e-001
      2.61735678e-001 3.41394357e-002 5.68990633e-002 4.55192477e-002
      1.13798119e-002 3.41394357e-002 1.13798119e-002 2.27596238e-002
      3.41394357e-002 4.55192477e-002 9.96200591e-002 -1.23125650e-002
      1.11466236e-002 -1.16130002e-002 1.13798119e-002 1.13798119e-002
      -4.69183773e-002 -1.20793767e-002 1.13798119e-002 -2.33188272e-004
      -1.62581995e-001 -5.22584975e-001 -4.64520007e-002
      -1.20793767e-002 -9.36035663e-002 -5.80649972e-001
      -4.64520007e-001 0. -3.48390006e-002 2.27596238e-002
      -1.51202187e-001 -4.69183773e-002 -3.48390006e-002 0. 0. 0.
      2.25264356e-002 4.52860631e-002 4.52860631e-002 1.11466236e-002 0.
      3.41394357e-002 1.11466236e-002 -4.66376543e-004 -1.97654188e-001
      -6.99111819e-002 -1.16130002e-002 2.27596238e-002 1.13798127e-001
      9.10384953e-002 3.41394357e-002 -4.66376543e-004 -3.48390006e-002
      1.13798119e-002 8.42106104e-001 2.84495324e-001 3.41394357e-002
      2.22932473e-002 1.70697182e-001 2.61735678e-001 3.41394357e-002
      5.68990633e-002 4.55192477e-002 1.13798119e-002 3.41394357e-002
      -2.33188272e-004 2.27596238e-002 -2.39255652e-002 -4.73847538e-002</_>
    <_>
      1.80974960e-001 1.39211509e-002 1.39211509e-002 4.17634547e-002
      1.39211509e-002 0. 4.17634547e-002 1.39211509e-002 0.
      1.39211509e-002 2.78423019e-002 2.78423019e-002 0. 2.78423019e-002
      2.78423019e-002 0. 4.17634547e-002 0. 0. 0. 1.11369208e-001
      2.78423019e-002 0. 0. 0. 1.39211509e-002 5.56846038e-002
      1.25290364e-001 1.39211509e-002 1.39211509e-002 0. 1.39211509e-002
      2.78423019e-002 2.78423019e-002 8.35269094e-002 1.39211509e-002
      2.78423019e-002 1.39211509e-002 8.35269094e-002 5.56846038e-002
      1.39211509e-002 1.39211509e-002 0. 2.78423019e-002 8.49190235e-001
      1.53132662e-001 2.78423019e-002 5.56846038e-002 2.08817273e-001
      2.92344183e-001 4.17634547e-002 2.78423019e-002 9.74480584e-002
      1.11369208e-001 1.39211509e-002 1.39211509e-002 1.39211509e-002 0.
      4.17634547e-002 -2.11299092e-001 -6.86628670e-002 -2.73708571e-002
      2.11174507e-002 1.39211509e-002 -2.06460040e-002 2.11174507e-002
      -1.09954871e-001 0. -2.73708571e-002 -1.34497061e-002
      -2.40555748e-001 -8.25840160e-002 7.19629787e-003 2.78423019e-002
      -4.12920080e-002 -1.02758572e-001 -2.06460040e-002 0. 0.
      1.11369208e-001 2.78423019e-002 0. 0. -2.06460040e-002
      1.39211509e-002 5.56846038e-002 1.04644358e-001 1.39211509e-002
      1.39211509e-002 -2.06460040e-002 -4.80168611e-002 -5.47417141e-002
      -2.19909742e-001 -2.05517143e-001 -6.86628670e-002 2.78423019e-002
      -6.72485307e-003 -1.97031051e-002 -8.88374224e-002
      -2.54476905e-001 -1.30600870e-001 -1.44522026e-001 7.19629787e-003
      4.56916183e-001 -1.35911390e-001 -1.78617731e-001 3.50385979e-002
      2.08817273e-001 1.47822157e-001 -4.08205613e-002 -7.53877163e-002
      7.68020526e-002 2.87851915e-002 1.39211509e-002 -6.86628670e-002
      -6.72485307e-003 0. -2.26634592e-001</_>
    <_>
      2.29691267e-002 0. 0. 0. 0. 0. 0. 0. 0. 0. 1.53127508e-002 0. 0.
      1.53127508e-002 6.12510033e-002 3.29224139e-001 1.53127508e-002 0.
      7.65637541e-003 2.29691267e-002 2.06722140e-001 2.90942252e-001
      7.65637541e-003 0. 0. 2.29691267e-002 1.76096633e-001
      1.45471126e-001 6.12510033e-002 7.65637541e-003 0. 0. 0. 0. 0.
      7.65637541e-003 0. 7.65637541e-003 2.29691267e-002 0. 0. 0. 0.
      1.53127508e-002 7.96263039e-001 3.82818766e-002 0. 0.
      1.37814760e-001 1.60783887e-001 7.65637541e-003 0. 9.18765068e-002
      3.82818766e-002 0. 6.12510033e-002 7.65637541e-003 0.
      8.42201263e-002 -3.61585021e-001 -6.40923604e-002 -3.20461802e-002
      0. -4.80692685e-002 -1.60230901e-002 -4.80692685e-002
      -1.44207805e-001 0. -1.60230901e-002 -3.27565186e-002
      -1.44207805e-001 0. 1.53127508e-002 2.92048231e-002
      2.65131772e-001 -6.48026988e-002 -1.60230901e-002 7.65637541e-003
      2.29691267e-002 1.58652872e-001 2.74919152e-001 7.65637541e-003
      -1.60230901e-002 0. 2.29691267e-002 1.44050449e-001
      1.13424942e-001 4.52279150e-002 -2.43898053e-002 -1.60230901e-002
      -4.80692685e-002 -3.20461802e-002 -9.61385369e-002
      -1.12161629e-001 -1.20528348e-001 -3.20461802e-002
      -5.64359836e-002 -8.91925022e-002 -1.28184721e-001
      -1.60230905e-001 -4.80692685e-002 -1.12161629e-001
      -1.67334303e-002 1.87385619e-001 -2.66156822e-001 -4.80692685e-002
      -3.20461802e-002 -2.24161446e-002 -2.07747191e-001
      -5.64359836e-002 -3.20461802e-002 1.17610544e-002 -2.58104838e-002
      -3.20461802e-002 2.92048231e-002 7.65637541e-003 0.
      -4.39645946e-002</_>
    <_>
      4.42683473e-002 6.32404955e-003 0. 0. 0. 0. 0. 0. 0. 0. 0. 0. 0.
      0. 0. 0. 0. 0. 0. 1.26480991e-002 3.03554386e-001 0. 0. 0. 0.
      4.42683473e-002 3.16202454e-002 4.42683473e-002 0. 1.26480991e-002
      0. 0. 0. 0. 0. 0. 6.32404955e-003 0. 5.05923964e-002
      1.26480991e-002 1.26480991e-002 0. 0. 5.05923964e-002
      8.85366917e-001 2.59286016e-001 1.89721491e-002 1.26480991e-002
      9.48607400e-002 1.64425284e-001 1.89721491e-002 2.52961982e-002
      4.42683473e-002 3.16202454e-002 1.26480991e-002 4.42683473e-002
      3.16202454e-002 6.32404955e-003 1.89721491e-002 2.12992206e-002
      6.32404955e-003 0. 0. 0. 0. 0. 0. 0. 0. -1.53127508e-002 0. 0.
      -1.53127508e-002 -6.12510033e-002 -3.29224139e-001
      -1.53127508e-002 0. -7.65637541e-003 -1.03210276e-002
      9.68322456e-002 -2.90942252e-001 -7.65637541e-003 0. 0.
      2.12992206e-002 -1.44476384e-001 -1.01202779e-001 -6.12510033e-002
      4.99172369e-003 0. 0. 0. 0. 0. -7.65637541e-003 6.32404955e-003
      -7.65637541e-003 2.76232697e-002 1.26480991e-002 1.26480991e-002
      0. 0. 3.52796465e-002 8.91038775e-002 2.21004143e-001
      1.89721491e-002 1.26480991e-002 -4.29540202e-002 3.64139676e-003
      1.13157742e-002 2.52961982e-002 -4.76081595e-002 -6.66163117e-003
      1.26480991e-002 -1.69826560e-002 2.39638705e-002 6.32404955e-003
      -6.52479753e-002</_>
    <_>
      5.10540195e-002 0. 0. 0. 0. 0. 0. 0. 0. 0. 5.67266904e-003
      5.67266904e-003 0. 0. 2.26906762e-002 6.58029616e-001
      6.80720285e-002 0. 0. 0. 9.64353755e-002 2.43924767e-001
      2.83633452e-002 0. 5.67266904e-003 1.70180071e-002 5.67266904e-003
      3.97086814e-002 1.70180071e-002 0. 0. 0. 0. 0. 1.70180071e-002
      1.13453381e-002 0. 0. 1.13453381e-002 5.67266904e-003 0.
      1.70180071e-002 5.67266904e-003 2.83633452e-002 6.86392963e-001
      3.40360142e-002 5.67266904e-003 1.13453381e-002 4.53813523e-002
      6.80720285e-002 0. 0. 5.67266904e-002 1.13453381e-002
      5.67266904e-003 2.83633452e-002 1.13453381e-002 1.13453381e-002
      4.53813523e-002 6.78567216e-003 -6.32404955e-003 0. 0. 0. 0. 0. 0.
      0. 0. 5.67266904e-003 5.67266904e-003 0. 0. 2.26906762e-002
      6.58029616e-001 6.80720285e-002 0. 0. -1.26480991e-002
      -2.07119018e-001 2.43924767e-001 2.83633452e-002 0.
      5.67266904e-003 -2.72503402e-002 -2.59475764e-002 -4.55966592e-003
      1.70180071e-002 -1.26480991e-002 0. 0. 0. 0. 1.70180071e-002
      1.13453381e-002 -6.32404955e-003 0. -3.92470583e-002
      -6.97543006e-003 -1.26480991e-002 1.70180071e-002 5.67266904e-003
      -2.22290512e-002 -1.98973954e-001 -2.25250006e-001
      -1.32994801e-002 -1.30276103e-003 -4.94793877e-002
      -9.63532552e-002 -1.89721491e-002 -2.52961982e-002 1.24583431e-002
      -2.02749074e-002 -6.97543006e-003 -1.59050021e-002
      -2.02749074e-002 5.02128853e-003 2.64092032e-002</_>
    <_>
      7.34819546e-002 5.24871098e-003 0. 0. 0. 0. 0. 0. 5.24871098e-003
      0. 1.04974220e-002 1.57461334e-002 0. 0. 5.24871126e-002
      4.82881427e-001 1.15471646e-001 0. 0. 3.14922668e-002
      7.87306651e-002 1.73207462e-001 1.04974220e-002 0. 0. 0.
      3.14922668e-002 1.10222936e-001 3.14922668e-002 0. 0. 0. 0. 0.
      2.62435563e-002 1.57461334e-002 0. 0. 1.04974220e-002
      5.24871098e-003 0. 2.62435563e-002 1.04974220e-002 2.62435563e-002
      8.08301508e-001 3.67409773e-002 1.57461334e-002 5.24871098e-003
      7.34819546e-002 1.62710041e-001 5.24871098e-003 5.24871098e-003
      3.67409773e-002 0. 1.04974220e-002 2.09948439e-002 1.57461334e-002
      1.04974220e-002 4.19896878e-002 -3.04685175e-001 -5.14763556e-002
      -8.50876048e-002 0. 0. 0. -2.83625331e-002 -4.72708903e-002
      -4.20546671e-003 -1.89083554e-002 -1.78651102e-002
      -2.67879188e-001 -3.78167108e-002 -6.61792457e-002
      -2.31463090e-002 -2.76441574e-002 -6.41577393e-002 0.
      -1.89083554e-002 -6.32444397e-003 -7.25361779e-002 3.03225219e-003
      -8.41093343e-003 0. 0. -3.78167108e-002 -6.30495101e-002
      -1.26813799e-002 -4.41411547e-002 -4.72708903e-002
      -1.89083554e-002 -1.89083554e-002 0. -1.89083554e-002
      -7.77523965e-002 -4.09789309e-002 -9.45417769e-003
      -9.45417769e-003 -5.56818247e-002 -1.36596449e-002
      -9.45417769e-003 -2.11897679e-003 -1.78651102e-002
      -2.11897679e-003 4.67951089e-001 -3.88924442e-002 -4.09789309e-002
      -3.25680003e-002 -3.23593527e-001 5.87140843e-002 -4.20221798e-002
      -4.20221798e-002 -9.56175178e-002 -3.78167108e-002 1.04324427e-003
      2.08648853e-003 -3.15247551e-002 -1.78651102e-002 -1.18731335e-001</_>
    <_>
      2.60757416e-001 2.11424939e-002 0. 0. 0. 0. 0. 0. 7.04749813e-003
      0. 2.81899925e-002 3.10089916e-001 0. 0. 1.40949963e-002
      4.93324883e-002 1.55044958e-001 0. 0. 7.04749813e-003
      2.11424939e-002 2.81899925e-002 2.81899925e-002 0. 1.40949963e-002
      2.11424939e-002 2.11424939e-002 1.40949963e-002 4.93324883e-002
      4.22849879e-002 0. 0. 0. 0. 7.04749813e-003 1.40949963e-002
      7.04749813e-003 2.81899925e-002 7.04749813e-003 0. 0.
      7.04749813e-003 7.04749813e-003 2.18472436e-001 3.94659907e-001 0.
      7.04749813e-003 7.04749813e-003 3.73517394e-001 6.27227306e-001
      7.75224790e-002 3.52374911e-002 9.86649767e-002 7.04749823e-002
      1.40949963e-002 2.81899925e-002 5.63799851e-002 1.40949963e-002
      1.90282449e-001 1.39580905e-001 2.11424939e-002 0. 0. 0. 0.
      -1.81764774e-002 -3.02941296e-002 7.04749813e-003 0.
      -6.87512234e-002 -4.16969210e-001 0. -6.05882611e-003
      1.40949963e-002 -1.14255816e-001 -1.23661026e-001 0. 0.
      7.04749813e-003 2.11424939e-002 1.00135151e-002 -2.10413709e-003
      0. 8.03617015e-003 1.50836678e-002 -3.94457653e-002
      1.40949963e-002 1.90383587e-002 1.19908582e-002 0. 0. 0.
      -5.45294322e-002 -1.14129022e-001 -2.83167847e-002
      -5.07015409e-003 2.81899925e-002 9.88672022e-004 0.
      -1.21176522e-002 9.88672022e-004 7.04749813e-003 1.45766526e-001
      3.52248132e-001 -1.81764774e-002 -1.71878058e-002 -5.07015409e-003
      -1.35423958e-001 4.45462525e-001 6.54048249e-002 1.10021867e-002
      1.72375888e-003 4.01808545e-002 1.40949963e-002 2.21311674e-002
      3.82035077e-002 -4.08148114e-003 1.35753021e-001</_>
    <_>
      6.22721799e-002 6.91913115e-003 1.38382623e-002 0. 0. 0. 0.
      1.38382623e-002 0. 0. 4.84339185e-002 2.49088719e-001 0.
      6.91913115e-003 3.45956571e-002 4.91258323e-001 2.69846112e-001 0.
      0. 6.91913115e-003 2.07573939e-002 1.24544360e-001 1.38382623e-002
      0. 0. 3.45956571e-002 5.53530492e-002 4.84339185e-002
      3.45956571e-002 6.91913115e-003 0. 0. 0. 0. 2.07573939e-002
      6.91913115e-003 0. 0. 2.07573939e-002 0. 6.91913115e-003
      1.38382623e-002 6.91913115e-003 1.03786968e-001 5.39692223e-001
      1.38382623e-002 6.91913115e-003 4.84339185e-002 2.76765257e-001
      4.35905278e-001 1.38382623e-002 6.91913115e-003 9.68678370e-002
      6.91913115e-003 6.91913115e-003 3.45956571e-002 0. 2.07573939e-002
      8.99487063e-002 -2.69428380e-002 -5.15453517e-004 1.38382623e-002
      0. 0. 0. 0. -1.03090703e-003 0. 0. -1.10427588e-002
      -1.52378842e-001 0. -1.53846238e-002 -1.74464360e-002
      4.51832414e-002 3.93739939e-002 0. 0. -5.15453517e-004
      -1.64155308e-002 -3.90165076e-002 6.40367763e-003 0. 0.
      -1.74464360e-002 -4.12362814e-003 -1.84773467e-002 1.22919027e-002
      -5.15453517e-004 0. 0. -1.48691693e-002 0. -8.98094475e-003
      -5.15453517e-004 -7.43458467e-003 -7.43458467e-003 5.88822458e-003
      -1.48691693e-002 -7.95003772e-003 -8.46549217e-003 6.91913115e-003
      -2.97218561e-004 1.60528392e-001 -1.03090703e-003 -3.02537940e-002
      4.09993343e-002 -1.09833151e-001 -1.01698041e-002 6.40367763e-003
      -5.15453517e-004 -7.21634924e-003 -5.15453517e-004
      -5.15453517e-004 4.85731848e-003 -1.48691693e-002 -1.54636055e-003
      -2.15700641e-002</_>
    <_>
      7.61816502e-002 6.34847069e-003 1.26969414e-002 0. 6.34847069e-003
      0. 0. 1.26969414e-002 0. 0. 2.53938828e-002 6.34847060e-002
      6.34847069e-003 1.90454125e-002 2.53938828e-002 3.68211299e-001
      3.80908251e-002 6.34847069e-003 0. 6.34847069e-003 1.26969414e-002
      5.07877655e-002 1.26969414e-002 0. 0. 3.17423530e-002
      5.71362339e-002 6.34847069e-003 5.07877655e-002 0. 0.
      6.34847069e-003 6.34847069e-003 0. 6.34847069e-003 3.80908251e-002
      0. 1.26969414e-002 6.34847069e-003 0. 0. 1.26969414e-002
      1.90454125e-002 8.88785869e-002 8.12604249e-001 1.26969414e-002
      1.26969414e-002 3.17423530e-002 1.71408713e-001 3.49165887e-001 0.
      0. 8.88785869e-002 3.80908251e-002 0. 1.90454125e-002
      6.34847069e-003 3.80908251e-002 8.25301185e-002 1.39094703e-002
      -5.70660457e-004 -1.14132091e-003 0. 6.34847069e-003 0. 0.
      -1.14132091e-003 0. 0. -2.30400357e-002 -1.85604006e-001
      6.34847069e-003 1.21262819e-002 -9.20177437e-003 -1.23047024e-001
      -2.31755286e-001 6.34847069e-003 0. -5.70660457e-004
      -8.06045253e-003 -7.37565905e-002 -1.14132091e-003 0. 0.
      -2.85330415e-003 1.78318471e-003 -4.20854464e-002 1.61921084e-002
      -6.91913115e-003 0. 6.34847069e-003 6.34847069e-003 0.
      -1.44089237e-002 3.11716944e-002 0. 1.26969414e-002
      -1.44089237e-002 0. -6.91913115e-003 -1.14132091e-003
      1.21262819e-002 -1.49083808e-002 2.72912025e-001 -1.14132091e-003
      5.77781023e-003 -1.66915655e-002 -1.05356544e-001 -8.67393911e-002
      -1.38382623e-002 -6.91913115e-003 -7.98925012e-003 3.11716944e-002
      -6.91913115e-003 -1.55502446e-002 6.34847069e-003 1.73334312e-002
      -7.41858780e-003</_>
    <_>
      2.31279567e-001 1.73459668e-002 5.78198908e-003 5.78198908e-003 0.
      0. 0. 0. 0. 1.15639782e-002 0. 0. 0. 0. 4.04739231e-002
      4.62559126e-002 0. 0. 0. 1.73459668e-002 9.25118253e-002
      1.56113714e-001 1.73459668e-002 0. 5.78198908e-003 2.31279563e-002
      0. 2.89099459e-002 2.89099459e-002 2.89099459e-002 0.
      1.15639782e-002 0. 0. 1.73459668e-002 5.78198908e-003
      1.15639782e-002 2.31279563e-002 1.15639783e-001 2.89099459e-002 0.
      5.78198908e-003 1.73459668e-002 9.82938185e-002 7.69004583e-001
      1.96587637e-001 2.89099459e-002 1.73459668e-002 1.56113714e-001
      4.33649182e-001 9.25118253e-002 5.20379022e-002 4.62559126e-002
      5.20379022e-002 1.15639782e-002 2.31279563e-002 2.31279563e-002
      1.15639782e-002 1.38767734e-001 -2.16831163e-001 -9.02006030e-002
      -2.11046524e-002 -3.18022491e-003 -4.48110700e-002 0.
      -2.68866420e-002 -9.85843539e-002 0. -6.36044983e-003
      -3.58488560e-002 -3.22639704e-001 -8.96221399e-003 0.
      -3.12237889e-002 -1.86761662e-001 -1.43395424e-001
      -8.96221399e-003 -1.79244280e-002 -1.85028892e-002
      -2.48052299e-001 -6.79416507e-002 -1.85028892e-002 0.
      5.78198908e-003 -1.27208997e-002 -1.07546568e-001 -8.75988454e-002
      -3.38255540e-002 2.02330388e-003 -1.79244280e-002 -3.32470909e-002
      -7.16977119e-002 -1.07546568e-001 -1.08125031e-001
      -1.10726804e-001 -6.36044983e-003 1.41657423e-002 8.09321553e-003
      -6.96744099e-002 -1.34433210e-001 -8.38401541e-002
      -6.33139610e-002 8.03693905e-002 3.47780526e-001 8.00788477e-002
      -7.86366239e-002 1.73459668e-002 1.38189286e-001 3.52989256e-001
      -6.07252866e-003 -1.73538178e-003 1.93692707e-002 -1.73538178e-003
      -1.53226638e-002 -5.75319678e-002 -2.16831136e-002
      -6.36044983e-003 -8.52876306e-002</_>
    <_>
      2.64770418e-001 2.48222277e-002 0. 0. 0. 0. 0. 1.65481512e-002
      8.27407558e-003 1.65481512e-002 1.73755586e-001 3.72333407e-001
      8.27407558e-003 0. 9.92889106e-002 4.05429691e-001 4.30251926e-001
      8.27407558e-003 2.48222277e-002 4.96444553e-002 7.44666830e-002
      2.23400041e-001 1.15837060e-001 0. 1.65481512e-002 8.27407558e-003
      6.61926046e-002 1.07562982e-001 7.44666830e-002 9.92889106e-002 0.
      0. 0. 8.27407558e-003 2.48222277e-002 4.13703769e-002
      1.65481512e-002 8.27407558e-003 2.48222277e-002 8.27407558e-003 0.
      1.65481512e-002 3.30963023e-002 5.79185300e-002 4.71622318e-001
      8.27407558e-003 1.65481512e-002 2.48222277e-002 4.13703769e-002
      1.15837060e-001 2.48222277e-002 1.65481512e-002 6.61926046e-002
      4.13703769e-002 8.27407558e-003 5.79185300e-002 4.13703769e-002
      4.13703769e-002 1.90303743e-001 -1.69863135e-001 -9.49094817e-003
      -2.28754506e-002 -1.14377253e-002 0. 0. 0. -1.77650247e-002
      -1.46013750e-002 -2.92027500e-002 1.28004685e-001 3.03707063e-001
      8.27407558e-003 -1.14377253e-002 -1.50883421e-002 1.65237457e-001
      3.27312410e-001 -3.16364970e-003 1.33845024e-002 -1.89818963e-002
      -1.08536921e-001 -1.67921931e-002 1.45980716e-003 0.
      5.11042587e-003 -3.16364970e-003 4.33171540e-002 -1.82519928e-002
      4.01535071e-002 7.78710842e-003 -1.14377253e-002 -1.14377253e-002
      -4.57509011e-002 -8.32277238e-002 -4.38041240e-002
      -4.38052416e-003 5.11042587e-003 -7.17899948e-002 -8.95550251e-002
      -4.14921761e-001 -6.86263517e-002 -6.35159239e-002
      -2.40923241e-002 3.50430794e-002 2.08554626e-001 -3.92046303e-001
      -1.43579990e-001 -5.52418455e-002 -2.72559747e-002 7.00861588e-002
      -3.23663987e-002 -1.09266825e-001 -2.43374705e-003
      -4.38052416e-003 -1.46013750e-002 7.29903579e-004 -1.58182494e-002
      -4.38052416e-003 -2.70130336e-002</_>
    <_>
      5.98680615e-001 5.63464127e-002 2.11299043e-002 3.52165066e-002
      2.81732064e-002 7.04330159e-003 2.11299043e-002 7.04330131e-002
      2.81732064e-002 2.11299043e-002 1.40866032e-002 7.04330131e-002
      7.04330159e-003 2.81732064e-002 9.15629193e-002 9.86062214e-002
      1.19736128e-001 0. 7.04330159e-003 2.11299043e-002 6.33897111e-002
      1.33822724e-001 4.93031107e-002 2.11299043e-002 0. 1.40866032e-002
      2.11299043e-002 5.63464127e-002 5.63464127e-002 7.74763152e-002
      1.40866032e-002 1.40866032e-002 1.54952630e-001 2.60602146e-001
      2.39472255e-001 9.15629193e-002 3.52165066e-002 0. 2.11299043e-002
      1.97212443e-001 4.36684698e-001 1.12692825e-001 1.05649523e-001 0.
      1.40866032e-002 7.74763152e-002 7.04330131e-002 6.33897111e-002
      7.04330159e-003 2.11299043e-002 2.11299043e-002 8.45196173e-002
      7.04330159e-003 2.11299043e-002 7.04330159e-003 1.40866032e-002
      2.81732064e-002 1.40866032e-002 3.38078469e-001 3.51682365e-001
      4.04110439e-002 2.11299043e-002 3.52165066e-002 2.81732064e-002
      -9.24382824e-004 2.11299043e-002 7.04330131e-002 2.02055220e-002
      -1.07408334e-002 -1.13396347e-001 -2.56242067e-001 7.04330159e-003
      -1.96329039e-002 -1.20169818e-002 -3.79454851e-001
      -3.74260336e-001 0. 7.04330159e-003 -1.87085215e-002
      1.55836008e-002 -8.92724544e-002 -9.41152126e-002 2.11299043e-002
      -7.96768442e-003 6.11891877e-003 -3.46438885e-002 -5.52011766e-002
      -5.52011766e-002 1.37348399e-002 1.40866032e-002 1.40866032e-002
      1.54952630e-001 2.60602146e-001 2.23536879e-001 5.96921816e-002
      2.72488222e-002 -7.96768442e-003 5.19453548e-003 1.89244762e-001
      4.28717017e-001 8.87897685e-002 7.37787858e-002 -2.39030551e-002
      -4.24136072e-001 2.96702050e-002 5.44976443e-002 3.94866541e-002
      -3.27951238e-002 -2.66762059e-002 5.19453548e-003 6.85842484e-002
      -3.27951238e-002 -2.77315080e-003 -9.24382824e-004
      -4.96548712e-002 4.27015126e-003 -2.57518217e-002 2.34498560e-001</_>
    <_>
      1.33997515e-001 1.16519574e-002 0. 5.82597870e-003 5.82597870e-003
      0. 1.16519574e-002 6.40857667e-002 0. 0. 5.82597870e-003
      3.37906748e-001 0. 0. 0. 5.82597852e-002 8.73896778e-002 0. 0. 0.
      0. 3.49558704e-002 1.16519574e-002 0. 5.82597870e-003 0.
      5.82597870e-003 5.82597870e-003 5.82597870e-003 5.82597870e-003
      5.82597870e-003 1.16519574e-002 2.33039148e-002 8.73896778e-002
      9.32156593e-002 2.91298926e-002 0. 5.82597870e-003 3.49558704e-002
      4.07818519e-002 5.24338074e-002 2.91298926e-002 2.33039148e-002
      1.39823481e-001 3.02950889e-001 5.82597852e-002 2.33039148e-002
      1.74779352e-002 6.81639493e-001 4.77730244e-001 8.15637037e-002
      5.24338074e-002 4.07818519e-002 2.33039148e-002 1.16519574e-002
      1.16519574e-002 1.16519574e-002 2.33039148e-002 6.99117407e-002
      -2.24002555e-001 -1.51980482e-002 -8.95000156e-003
      -3.12402286e-003 5.82597870e-003 0. -6.24804571e-003
      -5.22642583e-002 -8.95000156e-003 -1.79000031e-002
      -1.37374043e-001 -1.45393342e-001 0. 0. -8.95000156e-003
      -7.59902447e-002 -2.07960367e-001 0. 0. 0. -1.79000031e-002
      2.60058679e-002 -1.51980482e-002 -8.95000156e-003 -1.20740244e-002
      -8.95000156e-003 -3.12402286e-003 5.82597870e-003 -2.99740285e-002
      -2.10240260e-002 -3.12402286e-003 -6.24804571e-003 5.40391169e-003
      3.36896665e-002 -2.28984401e-001 -4.24701199e-002 -3.58000062e-002
      -1.20740244e-002 -9.79413837e-003 3.18318494e-002 -1.26620382e-003
      -8.72201324e-002 -5.72461002e-002 1.45234615e-002 3.44508290e-002
      -4.91402373e-002 -3.93460952e-002 8.52793362e-003 4.66839433e-001
      1.01830184e-001 -7.93631375e-003 1.66338012e-002 1.39318462e-002
      -1.24960914e-002 -6.24804571e-003 -1.51980482e-002
      -2.41480488e-002 2.33039148e-002 -1.53838307e-001</_>
    <_>
      2.15269998e-001 1.53764291e-002 7.68821454e-003 0. 0. 0.
      7.68821454e-003 3.07528581e-002 0. 7.68821454e-003 3.84410731e-002
      5.22798598e-001 7.68821454e-003 0. 3.84410731e-002 2.30646431e-002
      9.22585726e-002 0. 0. 7.68821454e-003 0. 7.68821454e-003
      1.53764291e-002 0. 0. 7.68821454e-003 2.30646431e-002
      3.84410731e-002 3.07528581e-002 1.53764291e-002 0. 3.84410731e-002
      7.68821454e-003 1.53764291e-002 1.46076068e-001 1.53764291e-002
      7.68821454e-003 1.53764291e-002 4.61292863e-002 7.68821454e-003
      5.38174994e-002 1.53764291e-002 1.53764291e-002 1.61452502e-001
      1.92205355e-001 6.15057163e-002 4.61292863e-002 3.07528581e-002
      5.15110373e-001 5.22798598e-001 2.30646431e-002 4.61292863e-002
      6.15057163e-002 0. 0. 0. 0. 0. 1.38387859e-001 -8.10087472e-002
      -1.75434276e-002 -5.41749876e-004 0. 0. 0. 7.68821454e-003
      -1.03969667e-002 0. -8.77171382e-003 -2.73986422e-002
      -1.35598600e-001 7.68821454e-003 -8.22996441e-003 5.52121550e-003
      -4.27750722e-002 -9.70306247e-002 0. 0. -5.41749876e-004 0.
      7.68821454e-003 7.14646466e-003 0. -1.64599288e-002
      -2.52316426e-002 -3.45451124e-002 3.84410731e-002 -1.86269302e-002
      -9.31346510e-003 -8.22996441e-003 2.19811443e-002 -5.41749876e-004
      -1.08349975e-003 -5.14430851e-002 -1.75434276e-002
      -8.77171382e-003 -9.31346510e-003 4.61292863e-002 7.68821454e-003
      5.38174994e-002 -9.31346510e-003 -9.31346510e-003 5.44629619e-002
      -1.35437697e-002 4.50457856e-002 1.32094286e-002 -3.50868553e-002
      7.89222419e-002 2.10059941e-001 -4.27750722e-002 -1.97104290e-002
      -5.37137948e-002 -4.93797883e-002 0. 0. -1.64599288e-002
      -1.64599288e-002 5.60882092e-002</_>
    <_>
      1.14679925e-001 3.18555348e-002 1.91133209e-002 0. 6.37110695e-003
      0. 0. 0. 0. 6.37110695e-003 1.01937711e-001 7.00821802e-002 0.
      3.18555348e-002 4.45977487e-002 7.13563979e-001 2.86699831e-001 0.
      1.27422139e-002 1.91133209e-002 3.82266417e-002 1.46535456e-001
      1.91133209e-002 0. 6.37110695e-003 6.37110695e-003 7.64532834e-002
      1.08308822e-001 7.64532834e-002 4.45977487e-002 0. 0.
      6.37110695e-003 0. 6.37110695e-003 2.54844278e-002 0. 0.
      3.82266417e-002 0. 6.37110695e-003 1.27422139e-002 1.27422139e-002
      7.64532834e-002 4.65090811e-001 4.45977487e-002 1.91133209e-002
      3.18555348e-002 1.65648788e-001 2.10246533e-001 1.91133209e-002
      1.27422139e-002 1.27422139e-001 3.18555348e-002 6.37110695e-003
      6.37110695e-002 3.82266417e-002 6.37110695e-003 5.73399626e-002
      -1.65623099e-001 -2.11747698e-002 -3.39169838e-002 0.
      -2.39319243e-002 0. 0. -3.78787890e-002 -7.57575780e-003
      -1.63561665e-002 -1.92744136e-002 -2.25372344e-001
      -7.57575780e-003 9.12826136e-003 -3.11598293e-002 1.75685167e-001
      -7.69365430e-002 0. 5.16645610e-003 -1.11897103e-002
      3.06508839e-002 6.32021204e-002 -2.63412260e-002 -7.57575780e-003
      -8.78040865e-003 -2.39319243e-002 2.34229788e-002 3.25512439e-002
      2.34229788e-002 6.71895966e-003 0. -3.78787890e-002
      -8.78040865e-003 -7.57575780e-003 -8.78040865e-003 2.75715441e-003
      -7.57575780e-003 -3.03030312e-002 3.47852707e-004 -3.03030312e-002
      6.37110695e-003 -4.02880907e-002 -9.98505950e-003 -5.23345917e-002
      1.01454437e-001 6.71895966e-003 -1.11897103e-002 -1.35990120e-002
      -1.22229993e-001 -6.24807477e-002 -1.11897103e-002
      -2.40930170e-003 -8.94150138e-003 1.55250356e-003 6.37110695e-003
      1.82565227e-002 3.06508839e-002 -5.42349555e-002 -5.62964045e-002</_>
    <_>
      6.01989850e-002 0. 0. 0. 0. 0. 0. 0. 0. 1.00331642e-002
      4.01326567e-002 2.00663283e-002 0. 0. 1.40464306e-001
      1.60530627e-001 1.10364810e-001 1.00331642e-002 0. 4.01326567e-002
      3.00994933e-001 1.70563787e-001 4.01326567e-002 0. 0.
      3.00994925e-002 5.01658209e-002 1.10364810e-001 3.00994925e-002
      2.00663283e-002 0. 0. 0. 0. 5.01658209e-002 1.00331642e-002 0.
      1.00331642e-002 3.00994925e-002 1.00331642e-001 3.00994925e-002
      1.00331642e-002 4.01326567e-002 4.01326567e-002 8.22719455e-001
      2.50829101e-001 3.00994925e-002 4.01326567e-002 6.01989850e-002
      9.02984813e-002 1.00331642e-002 1.00331642e-002 1.30431131e-001
      1.00331642e-002 0. 2.00663283e-002 2.00663283e-002 1.00331642e-002
      8.02653134e-002 -1.84064597e-001 0. 0. 0. 0. -1.11028897e-002 0.
      0. -2.22057793e-002 1.00331642e-002 6.82398677e-003
      -1.13168351e-001 -1.11028897e-002 -4.44115587e-002
      -3.87325883e-003 -1.83658957e-001 -3.39727551e-002 1.00331642e-002
      0. -9.31020230e-002 -1.09811991e-001 -2.84654707e-001
      6.82398677e-003 0. 0. 3.00994925e-002 -5.34862652e-003
      -7.83843100e-002 7.89371319e-003 2.00663283e-002 0. 0. 0.
      -1.11028897e-002 5.75426221e-003 -1.21726152e-002 -2.22057793e-002
      1.00331642e-002 -8.09293985e-002 -6.62117079e-002 3.00994925e-002
      -3.43783945e-002 6.82398677e-003 -4.27890196e-003 3.78603876e-001
      2.87713110e-002 1.89966038e-002 2.90297680e-002 -6.41835481e-003
      1.47536397e-003 -1.21726152e-002 -1.06972549e-003 9.71224606e-002
      -1.06972549e-003 0. -2.43452303e-002 2.00663283e-002
      -2.32755058e-002 -3.07635814e-002</_>
    <_>
      1.09270327e-001 1.98673327e-002 0. 0. 0. 0. 0. 0. 0. 0. 0.
      3.97346653e-002 0. 0. 9.93366614e-002 8.94029960e-002
      6.95356578e-002 0. 0. 9.93366633e-003 4.47014958e-001
      2.48341650e-001 2.98009980e-002 0. 1.98673327e-002 2.98009980e-002
      9.93366614e-002 7.94693306e-002 2.98009980e-002 9.93366633e-003
      9.93366633e-003 0. 0. 9.93366633e-003 2.98009980e-002
      2.98009980e-002 0. 9.93366633e-003 4.96683307e-002 5.96019961e-002
      4.96683307e-002 0. 0. 4.96683307e-002 7.84759581e-001
      1.78805992e-001 1.98673327e-002 9.93366633e-003 3.97346653e-002
      6.95356578e-002 0. 0. 8.94029960e-002 3.97346653e-002
      9.93366633e-003 2.98009980e-002 3.97346653e-002 9.93366633e-003
      4.96683307e-002 -6.25245795e-002 9.13015101e-003 0. 0. 0.
      -1.07371816e-002 0. 0. -2.14743633e-002 -1.07371816e-002
      -2.14743633e-002 -2.46884264e-002 0. 0. -9.39326063e-002
      -1.46815002e-001 -1.63617954e-002 0. 0. -1.15406970e-002
      -4.68953848e-002 -2.13357151e-001 8.32663476e-003 0.
      1.98673327e-002 1.90638155e-002 2.41763890e-002 4.30905819e-003
      8.32663476e-003 -8.03515315e-004 9.93366633e-003 0. 0.
      9.93366633e-003 -3.46220955e-002 -2.41054781e-003 -4.29487266e-002
      9.93366633e-003 2.81939674e-002 -1.44404456e-001 3.89311500e-002
      -1.07371816e-002 -3.22115459e-002 3.89311500e-002 2.47900486e-001
      -3.59376371e-002 -1.23442132e-002 9.93366633e-003 -3.21406126e-003
      2.65869312e-002 -1.07371816e-002 0. 4.64542694e-002
      1.82603020e-002 -8.03515315e-004 8.32663476e-003 2.89974846e-002
      9.93366633e-003 6.71960413e-003</_>
    <_>
      4.03304510e-002 8.06608982e-003 0. 0. 0. 0. 0. 1.61321796e-002 0.
      8.06608982e-003 0. 0. 0. 0. 1.29057437e-001 8.06609020e-002
      2.41982695e-002 0. 0. 8.06608982e-003 2.82313138e-001
      1.69387892e-001 3.22643593e-002 0. 8.06608982e-003 3.22643593e-002
      2.41982695e-002 4.83965389e-002 0. 0. 0. 8.06608982e-003 0.
      2.41982695e-002 1.61321796e-002 3.22643593e-002 0. 0.
      4.83965389e-002 8.06608982e-003 1.61321796e-002 1.61321796e-002 0.
      8.06609020e-002 8.95335972e-001 1.61321804e-001 2.41982695e-002
      1.61321796e-002 8.87269899e-002 6.45287186e-002 0. 1.61321796e-002
      7.25948140e-002 1.61321796e-002 8.06608982e-003 3.22643593e-002
      1.61321796e-002 0. 4.03304510e-002 -6.89398795e-002
      -1.18012428e-002 0. 0. 0. 0. 0. 1.61321796e-002 0. 8.06608982e-003
      0. -3.97346653e-002 0. 0. 2.97207758e-002 -8.74209404e-003
      -4.53373864e-002 0. 0. -1.86757650e-003 -1.64701819e-001
      -7.89537579e-002 2.46336125e-003 0. -1.18012428e-002
      2.46336125e-003 -7.51383901e-002 -3.10727917e-002 -2.98009980e-002
      -9.93366633e-003 -9.93366633e-003 8.06608982e-003 0.
      1.42646031e-002 -1.36688184e-002 2.46336125e-003 0.
      -9.93366633e-003 -1.27179176e-003 -5.15359044e-002
      -3.35361511e-002 1.61321796e-002 0. 3.09925713e-002
      1.10576391e-001 -1.74841881e-002 4.33093682e-003 6.19851332e-003
      4.89923246e-002 -5.00693917e-003 0. 1.61321796e-002
      -1.68081820e-002 -2.36024857e-002 -1.86757650e-003 2.46336125e-003
      -2.36024857e-002 -9.93366633e-003 -9.33787972e-003</_>
    <_>
      6.81071058e-002 3.40535529e-002 0. 0. 0. 0. 0. 3.40535529e-002 0.
      1.13511840e-002 2.27023680e-002 5.67559190e-002 0. 0. 0.
      1.47565395e-001 1.13511840e-002 0. 0. 0. 1.13511840e-002
      5.67559190e-002 0. 0. 1.13511840e-002 1.13511840e-002 0.
      4.54047360e-002 4.54047360e-002 1.13511840e-002 0. 1.13511840e-002
      4.54047360e-002 1.36214212e-001 1.13511840e-002 1.13511840e-002 0.
      1.13511840e-002 5.67559190e-002 1.24863021e-001 1.24863021e-001
      6.81071058e-002 0. 7.94582888e-002 8.28636408e-001 1.02160655e-001
      2.27023680e-002 1.13511840e-002 3.51886690e-001 2.15672493e-001 0.
      0. 1.24863021e-001 5.67559190e-002 0. 3.40535529e-002
      2.27023680e-002 5.67559190e-002 3.40535529e-002 -5.74664846e-002
      3.40535529e-002 0. 0. 0. 0. 0. 3.40535529e-002 -1.04644652e-002
      -2.00422145e-002 1.22379027e-002 5.67559190e-002 0. 0.
      -7.32512549e-002 -1.45439625e-001 1.13511840e-002 0.
      -1.04644652e-002 -3.13933976e-002 -2.92118311e-001
      -1.00211069e-001 -1.04644652e-002 0. -2.00422145e-002
      -9.32934731e-002 -4.18578610e-002 -5.92399202e-002 2.44758055e-002
      8.86718743e-004 0. 1.13511840e-002 4.54047360e-002 1.36214212e-001
      1.13511840e-002 1.13511840e-002 0. 8.86718743e-004 1.48980580e-002
      1.24863021e-001 1.24863021e-001 6.81071058e-002 0. 1.66714936e-002
      9.61238146e-002 2.89094001e-002 2.27023680e-002 1.13511840e-002
      3.79527211e-002 -4.08127904e-003 -1.04644652e-002 0.
      -8.44262913e-002 2.53625214e-002 -1.04644652e-002 -3.91977020e-002
      -1.91554930e-002 2.53625214e-002 2.66015530e-003</_>
    <_>
      4.68445122e-002 0. 0. 0. 0. 0. 0. 0. 0. 0. 5.20494580e-003 0. 0.
      0. 4.16395664e-002 3.01886857e-001 1.04098916e-002 0.
      5.20494580e-003 0. 5.72544038e-002 1.09303862e-001 0. 0.
      5.20494580e-003 4.68445122e-002 4.16395664e-002 1.04098916e-002
      1.56148374e-002 0. 0. 0. 0. 0. 0. 1.04098916e-002 5.20494580e-003
      5.20494580e-003 1.04098916e-002 1.56148374e-002 0. 0.
      1.56148374e-002 4.68445122e-002 9.10865486e-001 7.28692412e-002
      5.20494580e-003 2.08197832e-002 1.56148374e-001 1.35328591e-001 0.
      0. 3.64346206e-002 2.08197832e-002 5.20494580e-003 2.60247290e-002
      5.20494580e-003 2.60247290e-002 3.12296748e-002 -2.12625936e-002
      -3.40535529e-002 0. 0. 0. 0. 0. -3.40535529e-002 0.
      -1.13511840e-002 -1.74974222e-002 -5.67559190e-002 0. 0.
      4.16395664e-002 1.54321462e-001 -9.41292383e-004 0.
      5.20494580e-003 0. 4.59032208e-002 5.25479428e-002 0. 0.
      -6.14623819e-003 3.54933292e-002 4.16395664e-002 -3.49948443e-002
      -2.97898985e-002 -1.13511840e-002 0. -1.13511840e-002
      -4.54047360e-002 -1.36214212e-001 -1.13511840e-002
      -9.41292383e-004 5.20494580e-003 -6.14623819e-003 -4.63460274e-002
      -1.09248184e-001 -1.24863021e-001 -6.81071058e-002 1.56148374e-002
      -3.26137766e-002 8.22290778e-002 -2.92914137e-002 -1.74974222e-002
      9.46859922e-003 -1.95738316e-001 -8.03439021e-002 0. 0.
      -8.84284005e-002 -3.59361358e-002 5.20494580e-003 -8.02882388e-003
      -1.74974222e-002 -3.07311900e-002 -2.82387808e-003</_>
    <_>
      5.02538718e-002 6.28173398e-003 0. 0. 0. 0. 0. 0. 0.
      6.28173398e-003 3.14086713e-002 7.53808096e-002 0. 0.
      2.51269359e-002 4.71130073e-001 1.57043353e-001 0. 6.28173398e-003
      6.28173398e-003 1.13071218e-001 1.69606820e-001 1.88452024e-002 0.
      0. 6.90990761e-002 1.88452024e-002 4.39721383e-002 1.88452024e-002
      1.88452024e-002 0. 0. 0. 0. 3.14086713e-002 1.88452024e-002 0. 0.
      6.28173398e-003 0. 2.51269359e-002 0. 0. 7.53808096e-002
      7.53808081e-001 5.65356091e-002 0. 1.88452024e-002 1.63325086e-001
      2.51269370e-001 1.25634680e-002 6.28173398e-003 1.13071218e-001
      3.14086713e-002 0. 3.76904048e-002 0. 1.25634680e-002
      9.42260101e-002 -8.02299976e-002 6.28173398e-003 0. 0. 0. 0.
      -1.53510431e-002 -7.67552154e-003 -7.67552154e-003 6.28173398e-003
      8.38210620e-003 -9.04992968e-003 0. -1.53510431e-002
      -2.09261943e-002 1.05987787e-002 9.56391841e-002 0.
      6.28173398e-003 -1.39378756e-003 5.61391562e-003 7.75005594e-002
      -4.18136269e-003 0. -7.67552154e-003 2.30459459e-002
      -3.48834470e-002 -2.08099186e-003 -3.48834470e-002 1.11696813e-002
      -7.67552154e-003 0. 0. 0. -1.46444589e-002 -1.18568838e-002
      -7.67552154e-003 0. -1.39378756e-003 -4.60531302e-002
      9.77589283e-003 0. -1.53510431e-002 -4.74275351e-002
      6.30111098e-002 1.04824789e-002 -7.67552154e-003 3.49415932e-003
      -2.05099955e-001 -9.69836116e-003 -2.78757513e-003
      -1.39378756e-003 2.09649578e-002 -6.96893781e-003 -1.53510431e-002
      -6.87204301e-004 -3.07020862e-002 -2.78757513e-003 2.11974978e-003</_>
    <_>
      1.45050198e-001 0. 3.62625495e-002 0. 2.41750330e-002 0. 0.
      1.20875165e-002 0. 6.04375824e-003 7.85688534e-002 1.20875165e-002
      1.20875165e-002 2.41750330e-002 4.83500659e-002 6.82944655e-001
      2.53837854e-001 0. 6.04375824e-003 1.81312747e-002 3.02187912e-002
      7.85688534e-002 2.41750330e-002 0. 0. 1.20875165e-002
      4.83500659e-002 1.81312747e-002 5.43938242e-002 3.02187912e-002
      6.04375824e-003 3.02187912e-002 6.04375824e-003 0. 6.04375824e-003
      6.04375824e-003 1.20875165e-002 0. 2.41750330e-002 0. 0.
      6.04375824e-003 6.04375824e-003 3.02187912e-002 5.98332047e-001
      1.81312747e-002 1.20875165e-002 0. 1.32962674e-001 1.69225231e-001
      6.04375824e-003 0. 7.25250989e-002 1.20875165e-002 6.04375824e-003
      4.23063077e-002 1.81312747e-002 4.83500659e-002 6.64813370e-002
      6.27725646e-002 -7.47978501e-003 3.62625495e-002 0.
      2.41750330e-002 -7.47978501e-003 -2.24393550e-002 4.60773148e-003
      0. -1.63955968e-002 -3.70877981e-003 -1.00109264e-001
      -2.87205353e-003 2.41750330e-002 -1.14882141e-002 6.96022511e-002
      -3.78737748e-002 -7.47978501e-003 -8.91581178e-003
      -2.67474353e-002 -8.94577652e-002 -8.59864131e-002 1.73567794e-003
      0. -1.49595700e-002 4.60773148e-003 1.84309259e-002
      -6.41463548e-002 2.44746841e-002 2.27390062e-002 6.04375824e-003
      3.02187912e-002 6.04375824e-003 -4.48787101e-002 -8.37136656e-002
      -8.91581178e-003 4.60773148e-003 0. 2.41750330e-002
      -7.47978501e-003 -2.24393550e-002 -8.91581178e-003
      -8.91581178e-003 -7.18013570e-003 5.97875118e-002 -3.42272222e-002
      -2.87205353e-003 -1.49595700e-002 -1.66228741e-001
      -2.52491832e-002 -4.63147387e-002 -2.24393550e-002
      -3.21918949e-002 -1.03518385e-002 -1.43602677e-003 1.98669527e-002
      -1.17878653e-002 2.59107109e-002 -8.36730003e-004</_>
    <_>
      1.36872441e-001 2.10572984e-002 1.57929733e-002 0. 1.57929733e-002
      0. 0. 3.15859467e-002 0. 5.26432460e-003 4.21145968e-002
      1.36872441e-001 1.05286492e-002 5.26432460e-003 3.15859467e-002
      3.36916775e-001 1.05286494e-001 0. 5.26432460e-003 2.10572984e-002
      4.73789200e-002 3.15859467e-002 1.57929733e-002 0. 0. 0.
      3.68502736e-002 2.10572984e-002 2.10572984e-002 0. 0.
      3.68502736e-002 5.26432460e-003 5.26432460e-003 2.10572984e-002
      1.05286492e-002 0. 5.26432460e-003 5.79075702e-002 1.05286492e-002
      0. 1.05286492e-002 1.05286492e-002 7.37005472e-002 8.42291951e-001
      4.21145968e-002 2.10572984e-002 1.05286492e-002 1.00022167e-001
      2.84273535e-001 3.68502736e-002 5.26432460e-003 2.63216235e-002
      1.57929733e-002 0. 2.63216235e-002 1.05286492e-002 0.
      1.00022167e-001 -5.39086163e-002 -3.82718816e-003 -7.96684995e-004
      -1.65896583e-002 1.57929733e-002 0. 0. 3.15859467e-002
      -8.29482917e-003 -1.13253333e-002 -4.91285212e-002
      -3.73189598e-002 1.05286492e-002 -1.13253333e-002 -2.64778547e-002
      -1.77362591e-001 -2.18211815e-001 -8.29482917e-003 5.26432460e-003
      4.46764007e-003 -2.39005312e-003 -9.88819823e-003 -1.73863433e-002
      -8.29482917e-003 0. -2.48844866e-002 -5.43928444e-002
      -2.87116747e-002 -2.04168465e-002 0. 0. 3.67095694e-003
      -1.13253333e-002 -1.13253333e-002 4.46764007e-003 -3.92403230e-002
      0. -2.79149916e-002 -3.33355479e-002 -7.24196434e-002
      -5.80638014e-002 -4.75351512e-002 2.23382004e-003 -9.52914357e-004
      3.11422884e-001 -8.23078305e-002 -2.04168465e-002 -6.06100913e-003
      -1.15643382e-001 -7.24040866e-002 1.19657870e-002 -3.03050457e-003
      -8.98059756e-002 -1.73863433e-002 0. -1.51525214e-002
      2.23382004e-003 -1.65896583e-002 8.77904892e-003</_>
    <_>
      1.01846807e-001 1.90962758e-002 1.27308508e-002 6.36542542e-003 0.
      0. 6.36542542e-003 3.18271257e-002 0. 0. 2.54617017e-002
      3.18271257e-002 1.27308508e-002 1.27308508e-002 4.45579775e-002
