<?xml version="1.0"?>
<opencv_storage>
<my_svm type_id="opencv-ml-svm">
  <svm_type>C_SVC</svm_type>
  <kernel><type>RBF</type>
    <gamma>1.</gamma></kernel>
  <C>9.9999899999999997e-001</C>
  <term_criteria><epsilon>2.2204460492503131e-016</epsilon>
    <iterations>1000</iterations></term_criteria>
  <var_all>118</var_all>
  <var_count>118</var_count>
  <class_count>2</class_count>
  <class_labels type_id="opencv-matrix">
    <rows>1</rows>
    <cols>2</cols>
    <dt>i</dt>
    <data>
      -1 1</data></class_labels>
  <sv_total>51</sv_total>
  <support_vectors>
    <_>
      3.65485996e-001 6.73263669e-002 9.61805228e-003 9.61805228e-003
      9.61805228e-003 0. 0. 9.61805228e-003 0. 3.84722091e-002
      2.01979101e-001 3.36631835e-001 2.88541578e-002 9.61805228e-003
      8.65624771e-002 3.94340158e-001 3.65485996e-001 9.61805228e-003
      1.92361046e-002 2.88541578e-002 2.98159629e-001 1.25034690e-001
      3.84722091e-002 0. 0. 5.77083156e-002 7.69444183e-002
      1.15416631e-001 4.80902642e-002 2.88541578e-002 0. 9.61805228e-003
      9.61805228e-003 0. 9.61805284e-002 1.92361046e-002 4.80902642e-002
      0. 3.84722091e-002 2.88541578e-002 6.73263669e-002 4.80902642e-002
      4.80902642e-002 6.73263669e-002 2.21215218e-001 9.61805284e-002
      1.92361046e-002 4.80902642e-002 3.07777673e-001 1.05798580e-001
      2.88541578e-002 9.61805228e-003 1.34652734e-001 9.61805228e-003
      9.61805228e-003 6.73263669e-002 5.77083156e-002 9.61805228e-003
      2.30833262e-001 1.71418309e-001 5.23980856e-002 2.15391070e-003
      9.61805228e-003 9.61805228e-003 0. 0. -1.27743734e-002
      -7.46414158e-003 8.61564279e-003 1.12409398e-001 1.12707585e-001
      6.46173209e-003 -2.02385150e-002 -1.52290046e-001 -2.62504280e-001
      6.69203401e-002 2.15391070e-003 1.17719630e-002 -2.33948343e-002
      -3.02625895e-002 -2.33244121e-001 -2.87050642e-002 0.
      -7.46414158e-003 5.02441749e-002 1.72312856e-002 -8.61151963e-002
      -3.40152904e-002 -4.57872562e-002 0. 9.61805228e-003
      9.61805228e-003 -2.98565663e-002 5.13956770e-002 -3.30128893e-002
      1.82336979e-002 0. 3.84722091e-002 1.39258746e-002 5.23980856e-002
      1.82336979e-002 1.82336979e-002 4.49339412e-002 2.13751078e-001
      8.12522471e-002 1.17719630e-002 3.31619829e-002 2.92849392e-001
      8.34061503e-002 1.39258746e-002 2.15391070e-003 1.12260312e-001
      -2.77026556e-002 9.61805228e-003 3.00056599e-002 2.78517492e-002
      -5.31023089e-003 1.41263559e-001</_>
    <_>
      2.74125725e-001 0. 0. 0. 0. 8.30683950e-003 1.66136790e-002
      8.30683950e-003 2.49205194e-002 0. 9.96820778e-002 1.66136801e-001
      8.30683950e-003 2.49205194e-002 8.30684006e-002 5.81478775e-001
      3.15659910e-001 0. 0. 8.30683950e-003 1.07988916e-001
      1.57829955e-001 4.98410389e-002 0. 8.30683950e-003 2.49205194e-002
      0. 4.98410389e-002 7.47615620e-002 4.98410389e-002 0. 0.
      8.30683950e-003 8.30683950e-003 2.49205194e-002 8.30683950e-003
      1.66136790e-002 8.30683950e-003 0. 0. 3.32273580e-002
      8.30683950e-003 2.49205194e-002 2.49205194e-002 1.74443632e-001
      2.49205194e-002 1.66136790e-002 1.66136790e-002 5.56558251e-001
      1.07988916e-001 3.32273580e-002 8.30683950e-003 1.07988916e-001
      1.66136790e-002 8.30683950e-003 4.15342003e-002 3.32273580e-002
      1.66136790e-002 1.32909432e-001 -1.71309680e-001 -4.94928211e-002
      -9.89856478e-003 -9.89856478e-003 -9.89856478e-003
      -1.14902901e-002 6.71511423e-003 -5.10845482e-002 1.50219547e-002
      -9.89856478e-003 -4.87963855e-002 -1.20921582e-001
      -1.59172527e-003 -1.46737397e-002 -5.55115044e-002 1.85536206e-001
      1.87029839e-002 -9.89856478e-003 -2.96956934e-002 -3.12874205e-002
      -1.69170886e-001 -8.96341503e-002 -2.93474793e-002
      -9.89856478e-003 -1.59172527e-003 5.12338988e-003 -9.89856422e-002
      -9.55034792e-003 -1.43255219e-002 -1.94489136e-002 0. 0.
      -1.59172527e-003 -2.13888548e-002 -9.38622504e-002
      -2.13888548e-002 6.71511423e-003 -1.59172527e-003 -1.97971296e-002
      -2.96956934e-002 -3.60625945e-002 -4.11859825e-002
      -1.46737397e-002 -4.77517396e-003 -1.72006130e-001
      -6.41665608e-002 -4.27777097e-002 6.71511423e-003 3.78384084e-001
      5.84960952e-002 3.53166461e-003 -1.59172527e-003 9.00327414e-003
      -1.30820144e-002 -1.14902901e-002 -8.71471316e-002
      -3.60625945e-002 -3.28791440e-002 -1.55690312e-002</_>
    <_>
      4.70794976e-001 5.23105524e-002 0. 8.71842541e-003 1.74368508e-002
      0. 3.48737016e-002 1.74368508e-002 1.74368508e-002 1.74368508e-002
      1.65650085e-001 1.39494807e-001 2.61552762e-002 2.61552762e-002
      1.83086932e-001 5.05668700e-001 3.22581738e-001 8.71842541e-003
      8.71842541e-003 3.48737016e-002 2.70271182e-001 3.57455462e-001
      9.59026814e-002 0. 0. 2.61552762e-002 6.97474033e-002
      1.56931669e-001 7.84658343e-002 6.97474033e-002 0. 8.71842541e-003
      0. 1.74368508e-002 1.74368508e-002 3.48737016e-002 1.74368508e-002
      0. 0. 3.48737016e-002 1.74368508e-002 6.10289797e-002
      5.23105524e-002 8.71842541e-003 1.30776390e-001 5.23105524e-002 0.
      1.74368508e-002 3.48737016e-002 1.74368508e-002 1.74368508e-002
      8.71842541e-003 5.23105524e-002 1.74368508e-002 2.61552762e-002
      8.71842578e-002 3.48737016e-002 6.10289797e-002 1.74368516e-001
      3.77959818e-001 5.23105524e-002 0. 2.91622756e-003 1.74368508e-002
      0. 2.90715043e-002 1.16346534e-002 1.74368508e-002 1.74368508e-002
      1.48243487e-001 -5.19777238e-002 2.61552762e-002 2.61552762e-002
      1.77284732e-001 3.37404966e-001 2.29746580e-001 2.91622756e-003
      2.91622756e-003 3.48737016e-002 2.52864599e-001 2.76224703e-001
      5.52872978e-002 0. -5.80219785e-003 -1.13097474e-001
      -4.62965518e-002 1.33722872e-001 6.68614358e-002 4.65386137e-002
      0. 8.71842541e-003 0. 1.16346534e-002 -1.73763372e-002
      2.90715043e-002 1.16346534e-002 0. -5.80219785e-003
      3.48737016e-002 1.74368508e-002 5.52267805e-002 5.23105524e-002
      -8.68816860e-003 1.19171992e-001 4.65083532e-002 -5.80219785e-003
      1.16346534e-002 -8.70269120e-001 -6.37939125e-002 1.74368508e-002
      -2.88597029e-003 -1.50766373e-001 -1.73763372e-002 2.61552762e-002
      5.23710698e-002 2.90715043e-002 3.20179909e-002 1.27950937e-001</_>
    <_>
      2.66814947e-001 1.66759342e-002 0. 2.50139013e-002 8.33796710e-003
      8.33796710e-003 2.50139013e-002 3.33518684e-002 0. 4.16898355e-002
      1.33407474e-001 2.08449170e-001 8.33796710e-003 8.33796710e-003
      2.41801038e-001 5.91995656e-001 3.33518684e-001 0. 3.33518684e-002
      5.83657660e-002 3.83546472e-001 2.83490866e-001 7.50417039e-002 0.
      8.33796710e-003 6.67037368e-002 4.16898355e-002 1.00055605e-001
      1.50083408e-001 4.16898355e-002 0. 0. 0. 2.50139013e-002
      5.00278026e-002 4.16898355e-002 3.33518684e-002 0. 2.50139013e-002
      1.66759342e-002 1.66759342e-002 4.16898355e-002 5.00278026e-002 0.
      2.50139013e-002 3.33518684e-002 1.66759342e-002 8.33796710e-003
      2.50139013e-002 0. 0. 0. 3.33518684e-002 3.33518684e-002
      8.33796710e-003 5.00278026e-002 3.33518684e-002 3.33518684e-002
      2.08449170e-001 1.90048948e-001 1.07708573e-002 0. 2.50139013e-002
      2.43289024e-003 8.33796710e-003 2.50139013e-002 2.74467915e-002 0.
      4.16898355e-002 1.03882089e-001 7.67655671e-003 8.33796710e-003
      8.33796710e-003 2.41801038e-001 3.32172275e-001 2.09512055e-001 0.
      3.33518684e-002 5.83657660e-002 3.30400765e-001 2.06724867e-001
      5.73264733e-002 0. -3.47218663e-003 -4.15718555e-003
      -5.27913943e-002 5.87200671e-002 1.20558023e-001 2.98796818e-002
      0. 0. 0. 1.91088244e-002 1.45973414e-002 2.39746049e-002
      3.33518684e-002 0. 2.50139013e-002 1.66759342e-002 1.66759342e-002
      3.57847586e-002 5.00278026e-002 -4.13355380e-002 1.91088244e-002
      3.33518684e-002 1.07708573e-002 2.43289024e-003 -8.66652727e-001
      -8.26710761e-002 -5.90507686e-003 -1.18101537e-002
      -1.49705514e-001 -7.98366964e-003 2.43289024e-003 1.45973414e-002
      2.74467915e-002 1.56366378e-002 1.67113632e-001</_>
    <_>
      1.29556015e-001 7.62094185e-003 0. 0. 0. 7.62094185e-003
      7.62094185e-003 3.04837674e-002 0. 1.52418837e-002 7.62094185e-002
      9.90722477e-002 7.62094185e-003 7.62094185e-003 5.33465929e-002
      5.86812496e-001 2.97216743e-001 0. 7.62094185e-003 0.
      6.85884804e-002 2.21007317e-001 6.85884804e-002 0. 0.
      7.62094185e-003 0. 3.81047092e-002 3.04837674e-002 4.57256511e-002
      0. 0. 0. 0. 7.62094185e-003 5.33465929e-002 0. 0. 0.
      7.62094185e-003 7.62094185e-003 2.28628255e-002 7.62094185e-003
      6.85884804e-002 1.52418837e-001 6.09675348e-002 0. 3.04837674e-002
      6.24917209e-001 1.67660728e-001 1.52418837e-002 7.62094185e-003
      4.57256511e-002 1.52418837e-002 1.52418837e-002 2.28628255e-002
      3.04837674e-002 5.33465929e-002 7.62094185e-002 -3.29618216e-001
      -4.22893018e-002 -2.99461447e-002 0. -1.99640971e-002
      7.62094185e-003 7.62094185e-003 3.04837674e-002 0. 5.25983516e-003
      -1.13449506e-001 -1.70443058e-001 7.62094185e-003 -2.23252028e-002
      -7.64200389e-002 1.47602350e-001 -6.21370077e-002 0.
      -2.36110669e-003 -9.98204853e-003 -1.90944776e-001
      -1.85618401e-002 1.86782368e-002 0. 0. -3.23072523e-002
      -2.99461447e-002 -5.17337285e-002 -3.93905714e-002 1.57795064e-002
      -9.98204853e-003 -1.99640971e-002 -9.98204853e-003 0.
      -4.22893018e-002 3.33824977e-002 -1.99640971e-002 -1.99640971e-002
      -1.99640971e-002 -3.23072523e-002 -2.36110669e-003 2.89872847e-003
      -3.23072523e-002 1.86782368e-002 -7.71682709e-002 -2.88709030e-002
      -9.98204853e-003 -9.44442675e-003 5.15114665e-001 1.79300010e-002
      -2.46863104e-002 -2.23252028e-002 -1.41666383e-002
      -2.46863104e-002 1.52418837e-002 -7.08331913e-003 -1.94264762e-002
      1.34183988e-002 -1.93305880e-001</_>
    <_>
      9.36104134e-002 6.68645836e-003 0. 6.68645836e-003 6.68645836e-003
      0. 0. 2.00593751e-002 0. 6.68645836e-003 1.20356247e-001
      1.60475001e-001 0. 0. 6.01781234e-002 5.21543741e-001
      2.87517697e-001 0. 6.68645836e-003 0. 4.68052067e-002
      1.80534363e-001 6.01781234e-002 0. 1.33729167e-002 1.00296870e-001
      2.67458335e-002 1.33729167e-002 6.01781234e-002 2.00593751e-002 0.
      0. 0. 0. 2.00593751e-002 1.33729167e-002 6.68645836e-003 0.
      6.68645836e-003 0. 6.68645836e-003 1.33729167e-002 1.33729167e-002
      9.36104134e-002 9.36104134e-002 2.00593751e-002 6.68645836e-003
      2.67458335e-002 6.82018757e-001 1.80534363e-001 2.00593751e-002
      1.33729167e-002 1.00296870e-001 1.33729167e-002 0. 4.68052067e-002
      2.00593751e-002 6.68645836e-003 8.69239569e-002 -2.78615505e-001
      -7.70643726e-002 -1.86112951e-002 -2.61918921e-003 6.68645836e-003
      0. -9.30564757e-003 1.07537275e-002 -9.30564757e-003
      -2.12304853e-002 -5.64510673e-002 -4.42492515e-002
      -5.58338873e-002 -6.51395321e-002 -4.21840027e-002 8.41782987e-002
      -1.49847746e-001 0. -3.98417786e-002 -9.30564757e-003
      -2.32364237e-001 3.72704864e-003 2.29555331e-002 0.
      -5.23837842e-003 6.30742759e-002 -1.97824053e-002 -4.24609706e-002
      -7.01009408e-002 -3.57745141e-002 0. 0. -9.30564757e-003 0.
      -4.50801551e-002 -1.45440269e-002 -3.05361319e-002 0.
      -2.12304853e-002 -1.86112951e-002 -1.19248368e-002
      -1.45440269e-002 -1.45440269e-002 2.84708813e-002 -1.66947722e-001
      -5.43858036e-002 -1.19248368e-002 8.13453831e-003 3.47015440e-001
      5.95609397e-002 -2.64688637e-002 -1.45440269e-002 5.37686311e-002
      4.06726915e-003 -1.86112951e-002 -9.02868062e-003 -2.64688637e-002
      -3.05361319e-002 -2.47438177e-002</_>
    <_>
      2.42941022e-001 3.47058624e-002 5.78430993e-003 1.15686199e-002
      1.73529312e-002 5.78430993e-003 2.31372397e-002 1.15686199e-002
      5.78430993e-003 3.47058624e-002 1.15686201e-001 1.61960691e-001
      5.78430993e-003 1.15686199e-002 1.27254829e-001 5.26372254e-001
      3.93333077e-001 5.78430993e-003 0. 2.31372397e-002 1.50392070e-001
      2.94999808e-001 9.25489590e-002 0. 0. 1.15686199e-002
      1.73529312e-002 4.62744795e-002 7.51960352e-002 9.25489590e-002 0.
      0. 1.15686199e-002 1.15686199e-002 1.15686199e-002 4.04901728e-002
      2.31372397e-002 0. 5.78430993e-003 0. 1.73529312e-002
      1.73529312e-002 1.73529312e-002 7.51960352e-002 9.83332694e-002
      2.89215501e-002 5.78430993e-003 1.73529312e-002 4.85882044e-001
      1.67744994e-001 1.73529312e-002 5.78430993e-003 4.62744795e-002
      4.04901728e-002 5.78430993e-003 5.20587899e-002 2.89215501e-002
      3.47058624e-002 1.44607753e-001 -1.90906852e-001 -4.35290039e-002
      5.78430993e-003 4.45635943e-003 1.02406703e-002 -8.44021142e-003
      1.60249788e-002 -3.11049409e-002 -1.55524705e-002 1.33690815e-002
      -5.50080463e-002 -9.40806866e-002 -1.32795051e-003
      -1.68804228e-002 3.47954407e-002 4.27385569e-002 -1.20657682e-002
      -8.44021142e-003 -1.42245209e-002 -1.24240611e-002
      -9.85370427e-002 6.02952093e-002 1.43140927e-002 0. 0.
      1.15686199e-002 -1.82083696e-002 -2.48481221e-002 4.07343358e-003
      2.85386145e-002 -1.42245209e-002 -7.11226044e-003 -2.65590101e-003
      -2.65590101e-003 -2.39926800e-002 -2.18338892e-003
      -3.37608457e-002 -7.11226044e-003 -1.55524705e-002
      -1.42245209e-002 -3.95451523e-002 -3.98384966e-003
      -1.82083696e-002 3.96347344e-002 -3.67996842e-002 -7.06500933e-002
      -2.26647314e-002 1.73529312e-002 3.86310399e-001 7.52856061e-002
      1.02406703e-002 -2.97769904e-002 -8.17462057e-002 2.62656510e-002
      -3.68892513e-002 -4.04005982e-002 -2.79765334e-002
      -3.64167392e-002 -1.04321361e-001</_>
    <_>
      1.12549610e-001 0. 0. 0. 9.37913451e-003 0. 1.40687013e-002
      1.40687013e-002 4.68956726e-003 4.68956726e-003 8.91017765e-002
      1.12549610e-001 0. 0. 1.03170477e-001 8.44122052e-001
      2.81374007e-001 0. 4.68956726e-003 4.68956726e-003 7.03435019e-002
      2.95442730e-001 9.84809101e-002 0. 4.68956726e-003 4.68956726e-003
      2.34478358e-002 4.68956716e-002 4.68956716e-002 3.28269675e-002 0.
      0. 0. 0. 1.87582690e-002 2.34478358e-002 9.37913451e-003 0.
      4.68956726e-003 0. 0. 4.68956726e-003 1.40687013e-002
      4.22061048e-002 1.03170477e-001 1.40687013e-002 4.68956726e-003 0.
      1.35997444e-001 8.91017765e-002 9.37913451e-003 0. 3.28269675e-002
      4.22061048e-002 0. 4.68956716e-002 2.34478358e-002 9.37913451e-003
      9.84809101e-002 2.71131396e-002 -8.13680701e-003 0. 0.
      9.37913451e-003 0. 1.40687013e-002 -1.03417197e-002
      4.68956726e-003 4.68956726e-003 4.43493389e-002 -1.51896626e-001
      -4.06840350e-003 0. 7.06232488e-002 5.22718191e-001
      1.10501066e-001 -8.13680701e-003 6.21163752e-004 -1.15840472e-002
      3.37278694e-002 2.05937862e-001 5.37284724e-002 0. 6.21163752e-004
      -8.48153085e-002 -2.94414107e-002 2.24852506e-002 3.06220576e-002
      1.65533535e-002 0. 0. 0. -1.22052105e-002 -2.59941686e-002
      3.10581923e-003 5.31073101e-003 0. 4.68956726e-003 0. 0.
      4.68956726e-003 1.40687013e-002 -1.47515424e-002 9.50336680e-002
      1.40687013e-002 4.68956726e-003 -1.22052105e-002 -7.14298844e-001
      -3.70187312e-002 1.24232750e-003 0. -7.29515254e-002
      1.37272812e-002 -8.13680701e-003 2.14323401e-003 1.53110288e-002
      -2.72364989e-002 4.96600680e-002</_>
    <_>
      1.90045729e-001 1.35746952e-002 0. 0. 0. 6.78734761e-003
      2.03620438e-002 2.71493904e-002 6.78734761e-003 1.35746952e-002
      1.76471040e-001 3.19005340e-001 0. 0. 6.78734761e-003
      4.34390247e-001 3.73304129e-001 0. 1.35746952e-002 2.03620438e-002
      2.03620438e-002 6.10861294e-002 4.07240875e-002 0. 0.
      4.75114323e-002 1.08597562e-001 3.39367390e-002 8.14481750e-002
      5.42987809e-002 0. 0. 1.35746952e-002 1.35746952e-002
      8.82355198e-002 3.39367390e-002 4.07240875e-002 0. 0. 0.
      6.78734761e-003 1.35746952e-002 2.71493904e-002 6.78734761e-003
      6.78734761e-003 6.78734761e-003 6.78734761e-003 1.35746952e-002
      6.51585400e-001 2.03620438e-002 6.78734761e-003 0. 1.15384914e-001
      0. 1.35746952e-002 4.75114323e-002 1.35746952e-002 1.35746952e-002
      1.28959611e-001 -1.47348151e-001 -3.46244276e-002 -6.88558957e-003
      -1.37711791e-002 0. 6.78734761e-003 6.59086462e-003
      6.49262220e-003 6.78734761e-003 -1.96483918e-004 6.63016066e-002
      -1.28557980e-001 0. 0. -4.14117761e-002 -1.50884867e-001
      9.78805423e-002 0. 1.35746952e-002 -1.40659045e-002
      -3.47226709e-002 -5.59688918e-002 -2.12462172e-002 0.
      -2.06567682e-002 -3.51156406e-002 5.31372428e-003 -2.11479776e-002
      1.94778703e-002 2.67564226e-002 0. 0. 6.68910565e-003
      6.68910565e-003 6.75787479e-002 -4.91209328e-004 6.29613921e-003
      -6.88558957e-003 0. 0. -9.82419588e-005 -1.39676630e-002
      -1.41641460e-002 -1.38694206e-002 -4.82973680e-002
      -9.82419588e-005 -2.76405998e-002 -1.96483918e-004 2.65992403e-001
      -5.53794429e-002 -9.82419588e-005 -2.75423583e-002
      -1.67010725e-003 -2.06567682e-002 -1.39676630e-002 1.99690741e-002
      -2.77388413e-002 -7.08207302e-003 -8.75218213e-003</_>
    <_>
      1.58593833e-001 2.16264315e-002 0. 7.20881065e-003 7.20881065e-003
      0. 2.16264315e-002 4.32528630e-002 7.20881065e-003 2.16264315e-002
      1.80220261e-001 4.90199119e-001 0. 0. 7.20881065e-003
      2.52308369e-001 4.61363882e-001 0. 0. 0. 1.44176213e-002
      7.20881075e-002 7.20881075e-002 0. 0. 1.08132161e-001
      7.92969167e-002 3.60440537e-002 3.60440537e-002 5.76704852e-002 0.
      0. 7.20881065e-003 2.88352426e-002 1.29758596e-001 7.20881075e-002
      2.88352426e-002 0. 0. 0. 0. 2.88352426e-002 5.04616722e-002
      7.20881065e-003 7.20881065e-003 7.20881065e-003 7.20881065e-003
      2.88352426e-002 5.40660799e-001 3.60440537e-002 1.44176213e-002
      7.20881065e-003 2.37890750e-001 7.20881065e-003 0. 2.88352426e-002
      2.16264315e-002 3.60440537e-002 7.92969167e-002 -1.28759533e-001
      2.16264315e-002 0. 2.00191978e-004 -6.80842670e-003 0.
      -6.40804321e-003 8.20976868e-003 2.00191978e-004 -6.40804321e-003
      -2.00383365e-003 -3.54472697e-002 0. -2.10258570e-002
      -2.78342832e-002 -1.26157045e-001 1.24950171e-001 0. 0.
      -2.10258570e-002 -3.46427113e-002 -1.90239400e-002 2.00191885e-003
      0. -2.10258570e-002 -4.00573760e-003 -4.80651110e-003
      -1.30162798e-002 -6.90852329e-002 -1.24157034e-002 0. 0.
      7.20881065e-003 -1.32164713e-002 4.56551686e-002 2.00191885e-003
      8.00767913e-004 0. 0. -7.00861868e-003 -1.40172374e-002
      7.80938566e-003 2.94358153e-002 2.00191978e-004 2.00191978e-004
      -6.80842670e-003 2.00191978e-004 1.48180053e-002 6.40747249e-002
      1.50181968e-002 7.40900263e-003 2.00191978e-004 8.37011337e-002
      -1.38170458e-002 -7.00861868e-003 7.80938566e-003 7.60919414e-003
      -6.00766018e-003 -6.78840727e-002</_>
    <_>
      1.76143721e-001 7.04574864e-003 0. 7.04574864e-003 7.04574864e-003
      7.04574864e-003 7.04574864e-003 4.93202396e-002 0. 1.40914973e-002
      7.75032341e-002 4.29790676e-001 0. 0. 0. 2.11372465e-001
      3.31150174e-001 7.04574864e-003 0. 0. 7.04574864e-003
      7.04574883e-002 6.34117350e-002 0. 7.04574864e-003 1.40914977e-001
      1.26823470e-001 3.52287441e-002 3.52287441e-002 4.93202396e-002 0.
      0. 0. 1.40914973e-002 1.33869231e-001 3.52287441e-002
      2.11372450e-002 0. 0. 0. 0. 2.11372450e-002 1.40914973e-002
      7.04574864e-003 0. 7.04574864e-003 7.04574864e-003 0.
      6.69346094e-001 3.52287441e-002 7.04574864e-003 7.04574864e-003
      2.88875699e-001 4.93202396e-002 0. 2.81829946e-002 7.04574864e-003
      5.63659891e-002 1.05686232e-001 1.75498873e-002 -1.45806829e-002
      0. -1.63062010e-004 -1.63062010e-004 7.04574864e-003
      -1.45806829e-002 6.06737658e-003 -7.20881065e-003 -7.53493421e-003
      -1.02717027e-001 -6.04084432e-002 0. 0. -7.20881065e-003
      -4.09359038e-002 -1.30213708e-001 7.04574864e-003 0. 0.
      -7.37187266e-003 -1.63061917e-003 -8.67637247e-003 0.
      7.04574864e-003 3.27828154e-002 4.75265533e-002 -8.15309584e-004
      -8.15309584e-004 -8.35024565e-003 0. 0. -7.20881065e-003
      -1.47437453e-002 4.11063433e-003 -3.68593633e-002 -7.69799761e-003
      0. 0. 0. 0. -7.69799761e-003 -3.63701731e-002 -1.63062010e-004
      -7.20881065e-003 -1.63062010e-004 -1.63062010e-004
      -2.88352426e-002 1.28685296e-001 -8.15309584e-004 -7.37187266e-003
      -1.63062010e-004 5.09849489e-002 4.21114303e-002 0.
      -6.52248040e-004 -1.45806829e-002 2.03219354e-002 2.63893157e-002</_>
    <_>
      2.12743446e-001 0. 0. 0. 1.63648799e-002 8.18243995e-003 0.
      4.90946434e-002 8.18243995e-003 1.63648799e-002 1.39101490e-001
      4.09122020e-001 8.18243995e-003 0. 2.45473217e-002 8.18244070e-002
      1.80013686e-001 0. 8.18243995e-003 8.18243995e-003 1.63648799e-002
      9.00068432e-002 6.54595196e-002 0. 0. 8.18244070e-002
      8.18244070e-002 1.63648799e-002 4.09122035e-002 3.27297598e-002 0.
      8.18243995e-003 1.63648799e-002 5.72770834e-002 1.47283927e-001
      4.09122035e-002 1.63648799e-002 0. 8.18243995e-003 1.63648799e-002
      4.09122035e-002 8.18243995e-003 3.27297598e-002 3.27297598e-002
      1.30919039e-001 3.27297598e-002 1.63648799e-002 2.45473217e-002
      7.60966957e-001 1.06371723e-001 4.09122035e-002 8.18243995e-003
      1.96378574e-001 8.18243995e-003 8.18243995e-003 6.54595196e-002
      8.18243995e-003 2.45473217e-002 9.81892869e-002 6.30420595e-002
      -6.50875596e-003 0. 0. 1.63648799e-002 8.18243995e-003
      -1.95262674e-002 2.95683760e-002 1.67368399e-003 3.34736798e-003
      8.92636180e-003 -9.29623842e-004 8.18243995e-003 0.
      2.45473217e-002 -3.15209687e-001 -2.36546695e-001 0.
      8.18243995e-003 8.18243995e-003 -3.16138752e-003 1.19017735e-002
      1.98982283e-002 0. 0. 1.02280900e-002 -2.78942287e-003
      -9.67014395e-003 1.85966864e-003 -1.93402879e-002 0.
      8.18243995e-003 9.85612348e-003 5.72770834e-002 6.91788569e-002
      1.48771796e-002 1.63648799e-002 0. 8.18243995e-003 1.63648799e-002
      4.09122035e-002 -1.13438275e-002 2.62210034e-002 1.97122470e-002
      1.24410287e-001 2.62210034e-002 3.34736798e-003 2.45473217e-002
      1.55652642e-001 7.38279372e-002 2.78946906e-002 8.18243995e-003
      -2.49191374e-002 -4.83507197e-003 -4.83507197e-003 1.98982283e-002
      1.67368399e-003 -1.48770213e-003 1.35754570e-002</_>
    <_>
      9.78726000e-002 0. 0. 6.11703750e-003 0. 0. 6.11703750e-003
      2.44681500e-002 0. 2.44681500e-002 1.34574831e-001 3.11968923e-001
      0. 0. 1.22340750e-002 2.07979277e-001 2.32447430e-001 0. 0. 0.
      2.44681500e-002 5.50533384e-002 3.67022268e-002 0. 1.22340750e-002
      6.11703768e-002 1.28457785e-001 3.67022268e-002 6.11703768e-002
      2.44681500e-002 0. 0. 0. 1.22340750e-002 9.78726000e-002
      3.67022268e-002 1.22340750e-002 0. 0. 0. 6.11703750e-003
      6.11703750e-003 6.11703750e-003 3.05851884e-002 6.11703768e-002
      1.83511134e-002 1.22340750e-002 0. 8.25800061e-001 8.56385231e-002
      0. 6.11703750e-003 1.77394092e-001 6.11703750e-003 6.11703750e-003
      1.22340750e-002 6.11703750e-003 1.83511134e-002 8.56385231e-002
      -1.14870846e-001 0. 0. 6.11703750e-003 -1.63648799e-002
      -8.18243995e-003 6.11703750e-003 -2.46264935e-002 -8.18243995e-003
      8.10327008e-003 -4.52665985e-003 -9.71530974e-002 -8.18243995e-003
      0. -1.23132467e-002 1.26154870e-001 5.24337441e-002 0.
      -8.18243995e-003 -8.18243995e-003 8.10327008e-003 -3.49535048e-002
      -2.87572928e-002 0. 1.22340750e-002 -2.06540301e-002
      4.66333777e-002 2.03373469e-002 2.02581733e-002 -8.26160982e-003
      0. -8.18243995e-003 -1.63648799e-002 -4.50430065e-002
      -4.94113266e-002 -4.20997664e-003 -4.13080491e-003 0.
      -8.18243995e-003 -1.63648799e-002 -3.47951651e-002
      -2.06540246e-003 -2.66127214e-002 -2.14457139e-003
      -6.97486624e-002 -1.43786464e-002 -4.13080491e-003
      -2.45473217e-002 6.48331046e-002 -2.07332000e-002 -4.09122035e-002
      -2.06540246e-003 -1.89844817e-002 -2.06540246e-003
      -2.06540246e-003 -5.32254428e-002 -2.06540246e-003
      -6.19620830e-003 -1.25507638e-002</_>
    <_>
      3.17399472e-001 4.53427844e-002 1.51142608e-002 1.51142608e-002
      1.51142608e-002 7.55713042e-003 1.51142608e-002 0. 1.51142608e-002
      3.02285217e-002 3.02285217e-002 8.31284374e-002 7.55713042e-003 0.
      2.04042524e-001 3.77856523e-001 1.28471226e-001 1.51142608e-002
      7.55713042e-003 1.28471226e-001 5.66784799e-001 3.85413647e-001
      5.28999157e-002 0. 7.55713042e-003 3.77856530e-002 2.41828173e-001
      2.26713911e-001 4.53427844e-002 3.02285217e-002 7.55713042e-003 0.
      7.55713042e-003 1.51142608e-002 2.26713922e-002 6.04570433e-002
      7.55713042e-003 7.55713042e-003 4.53427844e-002 6.80141747e-002
      5.28999157e-002 6.04570433e-002 7.55713042e-003 0. 1.81371137e-001
      7.55713060e-002 7.55713042e-003 1.51142608e-002 2.26713922e-002
      3.02285217e-002 2.26713922e-002 1.51142608e-002 4.53427844e-002
      2.26713922e-002 0. 7.55713060e-002 2.26713922e-002 4.53427844e-002
      1.13356955e-001 2.40396827e-001 3.94195020e-002 9.19098035e-003
      1.51142608e-002 1.51142608e-002 7.55713042e-003 1.51142608e-002 0.
      1.51142608e-002 3.02285217e-002 6.53539784e-003 6.12578541e-003
      7.55713042e-003 -1.77698433e-002 1.44809723e-001 2.83829570e-002
      6.33151382e-002 -2.65558250e-003 1.63384946e-003 1.16624661e-001
      4.95705426e-001 1.78098813e-001 2.32835114e-002 0.
      -4.28943150e-003 -6.88334107e-002 1.41132399e-001 1.97097510e-001
      3.34962234e-002 1.83819607e-002 7.55713042e-003 -5.92328096e-003
      7.55713042e-003 1.51142608e-002 2.26713922e-002 5.45337610e-002
      1.63384946e-003 7.55713042e-003 4.53427844e-002 6.80141747e-002
      5.28999157e-002 6.04570433e-002 1.63384946e-003 -1.00695774e-001
      -1.26639470e-001 5.78014627e-002 7.55713042e-003 -1.45021435e-002
      -6.94045603e-001 -3.42938185e-001 1.08248303e-002 9.19098035e-003
      -6.12762757e-002 -3.65614146e-002 -5.92328096e-003 1.63384974e-002
      4.90154885e-003 3.94195020e-002 3.04310247e-002</_>
    <_>
      4.35653895e-001 6.45413175e-002 8.06766469e-003 8.06766469e-003
      8.06766469e-003 4.03383262e-002 1.61353294e-002 4.03383262e-002
      8.06766469e-003 2.42029950e-002 4.84059900e-002 1.85556293e-001 0.
      5.64736538e-002 1.77488625e-001 6.13142550e-001 1.45217970e-001 0.
      8.06766469e-003 5.64736538e-002 2.90435940e-001 2.58165270e-001
      8.06766525e-002 2.42029950e-002 1.61353294e-002 4.84059900e-002
      8.87443125e-002 1.29082635e-001 4.03383262e-002 6.45413175e-002 0.
      8.06766469e-003 8.06766469e-003 2.42029950e-002 1.29082635e-001
      4.03383262e-002 5.64736538e-002 0. 5.64736538e-002 7.26089850e-002
      0. 4.84059900e-002 4.03383262e-002 1.61353294e-002 1.77488625e-001
      1.53285637e-001 8.06766469e-003 4.03383262e-002 4.84059900e-002
      4.84059900e-002 3.22706588e-002 1.61353294e-002 4.03383262e-002
      1.61353294e-002 3.22706588e-002 4.84059900e-002 2.42029950e-002
      3.22706588e-002 1.85556293e-001 1.18254423e-001 1.91985331e-002
      -7.04659615e-003 -7.04659615e-003 -7.04659615e-003 3.27811949e-002
      1.02106854e-003 4.03383262e-002 -7.04659615e-003 -6.02552667e-003
      1.81774683e-002 1.02427855e-001 -7.55713042e-003 5.64736538e-002
      -2.65538990e-002 2.35286027e-001 1.67467445e-002 -1.51142608e-002
      5.10534272e-004 -7.19975680e-002 -2.76348859e-001 -1.27248377e-001
      2.77767368e-002 2.42029950e-002 8.57819896e-003 1.06203370e-002
      -1.53083861e-001 -9.76312757e-002 -5.00445813e-003 3.43127958e-002
      -7.55713042e-003 8.06766469e-003 5.10534272e-004 9.08873416e-003
      1.06411241e-001 -2.01187171e-002 4.89165224e-002 -7.55713042e-003
      1.11308694e-002 4.59481031e-003 -5.28999157e-002 -1.20510533e-002
      3.27811949e-002 1.61353294e-002 -3.88251245e-003 7.77143314e-002
      5.10534272e-004 2.52240654e-002 2.57345978e-002 1.81774683e-002
      9.59926657e-003 1.02106854e-003 -5.00445813e-003 -6.53606281e-003
      3.22706588e-002 -2.71653160e-002 1.53160281e-003 -1.30721256e-002
      7.21993372e-002</_>
    <_>
      1.26466125e-001 7.02589611e-003 0. 7.02589611e-003 0.
      7.02589611e-003 2.81035844e-002 4.91812713e-002 0. 1.40517922e-002
      1.12414338e-001 3.86424273e-001 0. 0. 0. 1.96725085e-001
      2.59958148e-001 0. 0. 7.02589611e-003 4.21553776e-002
      1.05388440e-001 3.51294801e-002 7.02589611e-003 0. 4.91812713e-002
      9.83625427e-002 4.21553776e-002 2.81035844e-002 6.32330626e-002 0.
      0. 0. 6.32330626e-002 9.83625427e-002 7.02589601e-002
      1.40517922e-002 7.02589611e-003 7.02589611e-003 0. 7.02589611e-003
      4.21553776e-002 1.40517922e-002 2.81035844e-002 1.05388440e-001
      3.51294801e-002 0. 7.02589611e-003 7.79874444e-001 9.83625427e-002
      0. 7.02589611e-003 1.33492023e-001 1.40517922e-002 7.02589611e-003
      2.81035844e-002 7.02589611e-003 4.91812713e-002 7.72848576e-002
      3.47656086e-002 1.63174793e-003 0. 7.02589611e-003 0.
      7.02589611e-003 2.27094367e-002 3.83929759e-002 -5.39414817e-003
      3.26349586e-003 -1.70452222e-002 4.11987901e-002 0. 0.
      -3.23648900e-002 -1.16135493e-001 -9.06614959e-002 0. 0.
      7.02589611e-003 9.79048759e-003 4.60528098e-002 1.89470351e-002
      7.02589611e-003 0. 1.14222355e-002 7.67859519e-002 1.51846372e-002
      -9.65545140e-003 2.54740268e-002 0. 0. 0. 4.70506176e-002
      1.74503177e-002 5.94706647e-002 8.65764357e-003 7.02589611e-003
      7.02589611e-003 0. 1.63174793e-003 2.59729326e-002
      -7.52480049e-003 6.52699172e-003 6.22352548e-002 2.97353324e-002
      -1.61824450e-002 1.63174793e-003 1.39054060e-002 2.82386169e-002
      -1.07882963e-002 -3.76240024e-003 1.48207620e-002 8.65764357e-003
      1.63174793e-003 1.13284402e-003 -9.15654935e-003 3.83929759e-002
      1.76678598e-003</_>
    <_>
      1.80817351e-001 6.95451302e-003 0. 0. 0. 0. 1.39090260e-002
      2.78180521e-002 0. 3.47725675e-002 1.80817351e-001 4.31179821e-001
      0. 0. 2.08635405e-002 2.78180540e-001 2.64271498e-001
      1.39090260e-002 1.39090260e-002 6.95451302e-003 6.95451302e-003
      9.73631889e-002 5.56361042e-002 0. 1.39090260e-002 1.04317695e-001
      2.78180540e-001 9.04086754e-002 4.17270809e-002 4.17270809e-002
      6.95451302e-003 0. 0. 6.95451302e-003 5.56361042e-002
      5.56361042e-002 1.39090260e-002 0. 0. 0. 6.95451302e-003
      1.39090260e-002 6.95451302e-003 4.86815944e-002 6.95451349e-002
      2.78180521e-002 6.95451302e-003 2.78180521e-002 5.84179103e-001
      1.66908324e-001 6.95451302e-003 0. 3.05998594e-001 3.47725675e-002
      1.39090260e-002 2.78180521e-002 6.95451302e-003 1.39090260e-002
      6.95451349e-002 6.63402155e-002 -8.30910541e-003 0.
      -7.63180899e-003 -7.63180899e-003 0. 6.27721706e-003
      2.78180521e-002 0. 2.71407589e-002 6.63402155e-002
      -1.94628537e-001 0. 0. -9.66369547e-003 -1.18282139e-002
      -7.15281069e-002 1.39090260e-002 1.39090260e-002 6.95451302e-003
      -3.88363414e-002 -9.48213786e-003 9.84524935e-003 -7.63180899e-003
      1.39090260e-002 -4.06866819e-002 8.73853117e-002 -2.40684599e-002
      -3.45910117e-002 -4.06377390e-003 -8.30910541e-003 0.
      -7.63180899e-003 -3.12045328e-002 -1.30501799e-002 2.51088683e-002
      -8.98640137e-003 0. 0. 0. -6.77295960e-004 -8.98640137e-003
      -3.88363414e-002 -4.74106893e-003 2.37542801e-002 -2.70918384e-003
      -1.59409139e-002 -1.03409942e-002 1.56797796e-001 7.53266141e-002
      -6.77295960e-004 -1.52636180e-002 4.65170741e-002 1.18771400e-002
      6.27721706e-003 -1.79728027e-002 -6.77295960e-004 6.27721706e-003
      -2.96683833e-002</_>
    <_>
      2.13928029e-001 0. 0. 1.86024383e-002 9.30121914e-003 0.
      9.30121914e-003 1.86024383e-002 9.30121914e-003 0. 9.30121914e-002
      5.58073163e-001 0. 0. 0. 1.11614630e-001 2.79036582e-001 0.
      9.30121914e-003 9.30121914e-003 1.86024383e-002 9.30121914e-002
      4.65060957e-002 0. 0. 1.48819506e-001 3.25542659e-001
      9.30121914e-002 4.65060957e-002 3.72048765e-002 0. 0. 0.
      9.30121914e-003 1.30217060e-001 2.79036574e-002 9.30121914e-003 0.
      0. 0. 0. 1.86024383e-002 2.79036574e-002 9.30121914e-003 0. 0. 0.
      2.79036574e-002 4.09253627e-001 1.86024383e-002 0. 0.
      4.27856058e-001 1.86024383e-002 9.30121914e-003 4.65060957e-002
      9.30121914e-003 2.79036574e-002 1.30217060e-001 6.04264736e-002
      -2.19287928e-002 0. 1.86024383e-002 9.30121914e-003 0.
      9.30121914e-003 1.12928404e-002 1.99162122e-003 -7.30959792e-003
      -2.01258063e-003 2.21831650e-001 0. 0. -1.46191958e-002
      9.28025693e-003 1.25535026e-001 0. 9.30121914e-003
      -5.31797670e-003 -2.52551474e-002 -9.32218134e-003 1.72677040e-002
      0. 0. -4.85396385e-002 -1.80084407e-002 4.91546057e-002
      2.64851004e-003 -6.65270910e-003 0. 0. 0. -1.26275737e-002
      1.08288266e-001 -1.33473426e-003 1.99162122e-003 0. 0. 0.
      -7.30959792e-003 -3.32635455e-003 1.32844616e-002 -1.26275737e-002
      -7.30959792e-003 -7.30959792e-003 -1.46191958e-002 2.79036574e-002
      -3.21706146e-001 3.98324244e-003 -7.30959792e-003 -7.30959792e-003
      1.13543361e-001 3.98324244e-003 -1.26275737e-002 2.45773029e-002
      1.99162122e-003 -1.33473426e-003 6.44306839e-002</_>
    <_>
      1.48415074e-001 1.34922788e-002 0. 6.74613938e-003 0. 0. 0.
      4.04768363e-002 0. 6.74613938e-003 6.07152544e-002 2.69845575e-001
      6.74613938e-003 1.34922788e-002 6.74613938e-003 6.74613938e-002
      1.68653488e-001 6.74613938e-003 0. 1.34922788e-002 3.37306969e-002
      6.07152544e-002 3.37306969e-002 6.74613938e-003 0. 2.22622603e-001
      4.99214321e-001 4.72229756e-002 4.04768363e-002 4.72229756e-002 0.
      0. 1.34922788e-002 6.74613938e-003 6.07152544e-002 1.34922788e-002
      6.74613938e-003 6.74613938e-003 6.74613938e-003 6.74613938e-003
      1.34922788e-002 6.74613938e-003 2.02384181e-002 3.37306969e-002
      2.02384181e-002 6.74613938e-003 0. 1.34922788e-002 5.12706578e-001
      5.39691150e-002 6.74613938e-003 6.74613938e-003 5.19452751e-001
      2.69845575e-002 0. 4.04768363e-002 0. 1.34922788e-002
      1.01192094e-001 -1.62235215e-001 5.09632565e-003 0.
      -1.64981373e-003 0. -8.39595310e-003 -1.67919062e-002
      1.52889751e-002 0. 6.74613938e-003 -4.00361903e-002
      -2.17119724e-001 6.74613938e-003 5.09632565e-003 -1.00457668e-002
      -8.36657658e-002 -6.64332062e-002 -1.64981373e-003
      -2.51878612e-002 -3.29962745e-003 8.54283571e-003 1.03395320e-002
      -2.50409767e-002 6.74613938e-003 -8.39595310e-003 3.79116237e-002
      1.46584272e-001 -3.15274671e-003 -1.82948373e-002 3.88270244e-002
      0. 0. 1.34922788e-002 -1.64981373e-003 1.87354870e-002
      -1.16955824e-002 -1.64981373e-003 6.74613938e-003 6.74613938e-003
      6.74613938e-003 -3.29962745e-003 -1.00457668e-002 2.02384181e-002
      3.37306969e-002 2.02384181e-002 -1.84417218e-002 -8.39595310e-003
      5.09632565e-003 1.73453093e-002 3.71772088e-002 6.74613938e-003
      6.74613938e-003 1.50030792e-001 1.01926513e-002 -1.67919062e-002
      -1.50293112e-003 -3.35838124e-002 -2.00915337e-002
      -1.63512528e-002</_>
    <_>
      2.30466381e-001 2.56073754e-002 0. 1.28036877e-002 2.56073754e-002
      1.28036877e-002 6.40184432e-002 5.12147509e-002 0. 1.28036877e-002
      6.40184432e-002 4.86540139e-001 0. 0. 0. 0. 1.66447937e-001 0.
      1.28036877e-002 0. 2.56073754e-002 3.84110622e-002 0. 0.
      1.28036877e-002 8.96258131e-002 5.12147509e-002 3.84110622e-002
      3.84110622e-002 2.56073754e-002 0. 0. 1.28036877e-002
      2.94484824e-001 2.94484824e-001 7.68221244e-002 6.40184432e-002 0.
      1.28036877e-002 2.56073754e-002 1.40840575e-001 1.28036886e-001
      3.84110622e-002 2.56073754e-002 1.66447937e-001 6.40184432e-002
      6.40184432e-002 0. 5.76165974e-001 8.96258131e-002 2.56073754e-002
      1.28036877e-002 1.53644249e-001 1.28036877e-002 2.56073754e-002
      3.84110622e-002 0. 0. 1.66447937e-001 -1.09975085e-001
      2.56073754e-002 0. -1.81455351e-002 2.56073754e-002
      1.28036877e-002 6.40184432e-002 2.02655271e-002 0. 1.28036877e-002
      -9.07276720e-002 -2.25291967e-001 0. 0. 0. -1.23796895e-001
      -1.43044293e-001 -3.09492238e-002 1.28036877e-002 -3.09492238e-002
      -5.34184836e-003 -1.47284269e-001 -1.23796895e-001 0.
      1.28036877e-002 2.77273655e-002 -1.34480581e-001 -1.16335049e-001
      7.46183842e-003 -3.62910703e-002 0. 0. 1.28036877e-002
      2.94484824e-001 2.94484824e-001 4.58729006e-002 3.30692194e-002 0.
      1.28036877e-002 2.56073754e-002 1.40840575e-001 1.28036886e-001
      3.84110622e-002 2.56073754e-002 1.66447937e-001 6.40184432e-002
      6.40184432e-002 -3.09492238e-002 3.90470624e-001 8.96258131e-002
      -5.34184836e-003 -1.81455351e-002 -9.39495414e-002
      -1.81455351e-002 2.56073754e-002 7.46183842e-003 -3.09492238e-002
      -9.28476676e-002 7.36002699e-002</_>
    <_>
      4.27771479e-001 2.19369996e-002 0. 0. 0. 0. 0. 1.09684998e-002
      1.09684998e-002 1.09684998e-002 4.38739993e-002 1.09684998e-002 0.
      1.09684998e-002 9.87164974e-002 3.50991994e-001 4.38739993e-002 0.
      1.09684998e-002 6.58110008e-002 6.69078469e-001 2.30338499e-001
      3.29055004e-002 0. 2.19369996e-002 4.38739993e-002 1.31622002e-001
      1.75495997e-001 1.09684998e-002 3.29055004e-002 0. 0.
      1.09684998e-002 0. 0. 2.19369996e-002 0. 2.19369996e-002
      2.19369996e-002 1.97432995e-001 3.29055004e-002 2.19369996e-002
      1.09684998e-002 3.29055004e-002 1.53558999e-001 5.48424982e-002
      2.19369996e-002 4.38739993e-002 1.09684998e-002 3.29055004e-002
      1.09684998e-002 1.09684998e-002 0. 5.48424982e-002 0.
      5.48424982e-002 4.38739993e-002 2.19369996e-002 1.97432995e-001
      2.66798496e-001 2.19369996e-002 0. 0. 0. 0. 0. 1.09684998e-002
      1.09684998e-002 -1.41403638e-003 -5.65614551e-003 -1.50004461e-001
      0. 1.09684998e-002 -6.22564703e-002 -2.06222147e-001
      -6.75688237e-002 0. 1.09684998e-002 6.58110008e-002
      4.09045219e-001 -1.41137585e-001 -4.24210727e-003 0.
      2.19369996e-002 1.91089269e-002 1.31622002e-001 1.75495997e-001
      1.09684998e-002 8.14042799e-003 0. 0. 1.09684998e-002
      -6.19126819e-002 -4.95301448e-002 9.55446344e-003 -1.23825362e-002
      2.19369996e-002 2.19369996e-002 1.23137780e-001 8.14042799e-003
      -2.75931451e-002 -1.41403638e-003 -9.09198672e-002
      -1.43621862e-001 -1.94527172e-002 -1.52106080e-002 3.14914621e-002
      -3.97655189e-001 -2.27127746e-001 -5.09441830e-002
      -1.41403638e-003 -4.95301448e-002 5.31235337e-003 -1.23825362e-002
      4.24599610e-002 -5.65614551e-003 -3.99756804e-002 8.59901682e-002</_>
    <_>
      2.09533319e-001 5.71454503e-002 1.90484822e-002 1.90484822e-002 0.
      0. 3.80969644e-002 7.61939287e-002 1.90484822e-002 3.80969644e-002
      1.52387857e-001 3.42872679e-001 3.80969644e-002 1.90484822e-002
      5.71454503e-002 5.33357501e-001 6.47648394e-001 0. 0.
      1.90484822e-002 3.80969644e-002 9.52424183e-002 3.80969644e-002
      1.90484822e-002 0. 0. 9.52424183e-002 0. 3.80969644e-002
      1.90484822e-002 0. 1.90484822e-002 1.90484822e-002 7.61939287e-002
      1.90484837e-001 7.61939287e-002 3.80969644e-002 1.90484822e-002 0.
      0. 3.80969644e-002 3.80969644e-002 5.71454503e-002 0. 0. 0.
      1.90484822e-002 0. 0. 0. 0. 1.90484822e-002 3.80969644e-002 0. 0.
      3.80969644e-002 0. 1.90484822e-002 9.52424183e-002
      -1.36462465e-001 2.56912895e-002 1.90484822e-002 1.90484822e-002
      -1.57270804e-002 0. 2.23698840e-002 6.04668483e-002
      1.90484822e-002 6.64280355e-003 8.94795358e-002 2.32783109e-001
      6.64280355e-003 3.32140177e-003 -1.94487840e-001 -1.70903206e-002
      5.21831751e-001 -1.57270804e-002 -6.29083216e-002 -2.81327628e-002
      -3.86534214e-001 -1.87845051e-001 6.64280355e-003 1.90484822e-002
      -1.57270804e-002 -6.29083216e-002 -1.48471519e-002
      -7.86354095e-002 -4.05384451e-002 3.32140177e-003 0.
      1.90484822e-002 1.90484822e-002 6.04668483e-002 1.27576515e-001
      4.47397679e-002 -2.48113573e-002 1.90484822e-002 -4.71812449e-002
      -4.71812449e-002 2.23698840e-002 6.64280355e-003 4.14183699e-002
      -4.71812449e-002 -2.35906214e-001 -2.20179141e-001
      -4.38598394e-002 -1.57270804e-002 -9.43624899e-002
      -4.71812449e-002 -3.14541608e-002 1.90484822e-002 -9.08428058e-003
      -1.57270804e-002 -3.14541608e-002 2.23698840e-002 -3.14541608e-002
      -7.53140077e-002 -7.77554736e-002</_>
    <_>
      3.94297153e-001 6.57161921e-002 4.38107960e-002 0. 4.38107960e-002
      2.19053980e-002 6.57161921e-002 1.31432384e-001 0. 0.
      1.53337777e-001 3.94297153e-001 0. 0. 8.76215920e-002
      4.81918752e-001 4.38107967e-001 0. 0. 4.38107960e-002
      4.38107960e-002 6.57161921e-002 1.97148576e-001 0. 0.
      2.19053980e-002 1.31432384e-001 4.38107960e-002 0. 2.19053980e-002
      0. 0. 4.38107960e-002 6.57161921e-002 2.40959376e-001
      1.31432384e-001 0. 0. 0. 0. 6.57161921e-002 4.38107960e-002
      4.38107960e-002 2.19053980e-002 0. 0. 0. 0. 0. 0. 2.19053980e-002
      0. 4.38107960e-002 2.19053980e-002 0. 4.38107960e-002
      2.19053980e-002 4.38107960e-002 1.97148576e-001 -5.39936423e-002
      2.98529305e-002 4.38107960e-002 -1.79316308e-002 2.58791652e-002
      -3.18894982e-002 6.57161921e-002 1.31432384e-001 -1.79316308e-002
      -3.58632617e-002 6.36796206e-002 3.04638982e-001 0.
      -1.79316308e-002 3.38266976e-002 -9.18934345e-002 2.04996765e-001
      -1.79316308e-002 0. 2.58791652e-002 -1.17573887e-001
      -4.18735966e-002 7.16271549e-002 -1.79316308e-002 -3.58632617e-002
      2.19053980e-002 1.31432384e-001 2.58791652e-002 -3.58632617e-002
      3.97376716e-003 0. -3.58632617e-002 7.94753432e-003
      -7.77368546e-002 1.15437955e-001 5.97058609e-002 0. 0.
      -5.37948944e-002 -3.22769374e-001 -9.56684947e-002
      -9.98409837e-003 2.58791652e-002 3.97376716e-003 -1.43453047e-001
      -1.25521421e-001 -1.79316308e-002 -7.17265233e-002
      -1.79316308e-002 -3.58632617e-002 2.19053980e-002 -1.79316308e-002
      4.38107960e-002 -3.18894982e-002 0. 4.38107960e-002
      3.97376716e-003 2.58791652e-002 -1.25620797e-001</_>
    <_>
      1.57055721e-001 0. 0. 0. 1.12182656e-002 0. 0. 0. 0. 0.
      6.73095956e-002 6.73095956e-002 0. 0. 8.97461250e-002
      5.94568074e-001 1.34619191e-001 1.12182656e-002 0. 0.
      6.73095956e-002 2.58020103e-001 3.36547978e-002 0. 3.36547978e-002
      2.24365313e-002 0. 0. 0. 0. 1.12182656e-002 0. 0. 0.
      3.36547978e-002 0. 0. 0. 2.24365313e-002 5.60913272e-002
      3.36547978e-002 2.24365313e-002 3.36547978e-002 1.12182654e-001
      4.71167147e-001 1.12182654e-001 1.12182656e-002 1.12182656e-002
      4.03857559e-001 2.69238383e-001 4.48730625e-002 0. 6.73095956e-002
      4.48730625e-002 2.24365313e-002 4.48730625e-002 0. 2.24365313e-002
      1.00964390e-001 -2.37241432e-001 -6.57161921e-002 -4.38107960e-002
      0. -3.25925313e-002 -2.19053980e-002 -6.57161921e-002
      -1.31432384e-001 0. 0. -8.60281810e-002 -3.26987565e-001 0. 0.
      2.12453306e-003 1.12649322e-001 -3.03488791e-001 1.12182656e-002
      0. -4.38107960e-002 2.34987997e-002 1.92303911e-001
      -1.63493782e-001 0. 3.36547978e-002 5.31133264e-004
      -1.31432384e-001 -4.38107960e-002 0. -2.19053980e-002
      1.12182656e-002 0. -4.38107960e-002 -6.57161921e-002
      -2.07304582e-001 -1.31432384e-001 0. 0. 2.24365313e-002
      5.60913272e-002 -3.20613943e-002 -2.13742647e-002 -1.01559982e-002
      9.02772546e-002 4.71167147e-001 1.12182654e-001 1.12182656e-002
      1.12182656e-002 4.03857559e-001 2.69238383e-001 2.29676645e-002 0.
      2.34987997e-002 2.29676645e-002 2.24365313e-002 1.06226653e-003
      -2.19053980e-002 -2.13742647e-002 -9.61841866e-002</_>
    <_>
      1.50240570e-001 1.00160381e-002 0. 0. 0. 0. 0. 0. 0. 0.
      3.00481152e-002 0. 0. 0. 5.00801913e-002 8.01283062e-001
      5.00801913e-002 1.00160381e-002 2.00320762e-002 5.00801913e-002
      2.80449092e-001 1.90304726e-001 2.00320762e-002 0. 1.00160381e-002
      0. 5.00801913e-002 7.01122731e-002 4.00641523e-002 0. 0.
      3.00481152e-002 0. 0. 1.00160381e-002 3.00481152e-002
      1.00160381e-002 0. 2.00320762e-002 5.00801913e-002 1.00160381e-002
      3.00481152e-002 2.00320762e-002 9.01443437e-002 3.30529273e-001
      9.01443437e-002 4.00641523e-002 2.00320762e-002 1.20192461e-001
      1.90304726e-001 4.00641523e-002 1.00160381e-002 5.00801913e-002
      1.00160381e-002 1.00160381e-002 6.00962304e-002 3.00481152e-002
      2.00320762e-002 9.01443437e-002 -2.06134915e-001 -1.63821466e-002
      0. 0. -1.31990919e-002 -1.31990919e-002 -3.95972766e-002
      -1.31990919e-002 0. 0. -3.59473452e-002 -1.18791826e-001
      -3.95972766e-002 -3.95972766e-002 -1.08308911e-001 2.07323909e-001
      -9.51098204e-002 1.00160381e-002 2.00320762e-002 1.04829147e-002
      6.92636222e-002 -2.08807439e-002 -4.59633842e-002 0.
      1.00160381e-002 -7.91945532e-002 3.68811004e-002 4.11681086e-003
      -1.27322152e-002 -1.31990919e-002 0. 3.00481152e-002
      -5.27963676e-002 -2.63981838e-002 -6.91785142e-002
      -2.27482524e-002 -2.95812376e-002 0. -6.36610761e-003
      -1.34707093e-001 -1.08775787e-001 3.64993140e-003 6.83298428e-003
      6.37461618e-002 -7.86425769e-002 -1.07842036e-001 -2.59313099e-002
      6.83298428e-003 2.77988166e-002 1.63906544e-001 2.68650614e-002
      -1.63821466e-002 -2.91143619e-002 -3.18305381e-003
      -1.63821466e-002 4.68971394e-002 1.68490224e-002 -3.27642933e-002
      -1.21041127e-001</_>
    <_>
      4.37269479e-001 3.27952094e-002 0. 3.27952094e-002 2.18634736e-002
      1.09317368e-002 3.27952094e-002 1.20249107e-001 1.09317368e-002
      2.18634736e-002 4.37269472e-002 6.55904233e-001 0. 2.18634736e-002
      4.37269472e-002 3.17020357e-001 2.73293406e-001 0. 0. 0.
      1.09317368e-002 1.31180838e-001 8.74538943e-002 0. 0. 0.
      1.09317368e-002 0. 3.27952094e-002 4.37269472e-002 0. 0.
      6.55904189e-002 8.74538943e-002 2.40498215e-001 1.42112583e-001
      1.09317368e-002 0. 0. 2.18634736e-002 7.65221566e-002
      6.55904189e-002 1.42112583e-001 0. 0. 0. 1.09317368e-002
      1.09317368e-002 0. 0. 0. 0. 5.46586849e-002 0. 1.09317368e-002
      2.18634736e-002 0. 2.18634736e-002 1.63976058e-001 2.18431249e-001
      1.09113865e-002 0. 3.27952094e-002 1.45688653e-002 1.09317368e-002
      3.27952094e-002 7.64814615e-002 -1.09520862e-002 2.18634736e-002
      -4.38083448e-002 2.69290030e-001 -1.45892156e-002 -2.91987788e-002
      7.25390762e-003 2.29485065e-001 8.36336017e-002 0.
      -1.45892156e-002 -4.37676460e-002 1.09317368e-002 8.74131918e-002
      7.28646815e-002 0. -7.29460781e-003 -1.67775974e-001
      -3.10030997e-001 -5.10622524e-002 -3.67783010e-003
      -4.06987965e-005 0. 0. 6.55904189e-002 1.45078152e-002
      8.00168514e-002 1.20228760e-001 1.09317368e-002 0. 0.
      2.18634736e-002 6.92275465e-002 5.10012023e-002 1.42112583e-001
      -2.18838230e-002 -7.29460781e-003 0. 1.09317368e-002
      -1.09520862e-002 -6.20041668e-001 -5.83568625e-002
      -7.29460781e-003 -7.29460781e-003 -3.46544743e-001
      -5.83568625e-002 3.63712898e-003 -7.31495768e-003 0.
      -5.83772063e-002 6.18515536e-002</_>
    <_>
      3.64405453e-001 2.60289609e-002 5.20579219e-002 0. 2.60289609e-002
      0. 5.20579219e-002 2.60289609e-001 0. 0. 2.60289609e-002
      2.60289609e-001 5.20579219e-002 0. 1.04115844e-001 1.04115844e-001
      5.20579219e-002 0. 2.60289609e-002 2.60289609e-002 1.56173766e-001
      5.20579219e-002 7.80868828e-002 0. 2.60289609e-002 7.80868828e-002
      2.60289609e-002 5.20579219e-002 0. 0. 0. 0. 1.82202727e-001
      3.38376492e-001 5.20579219e-002 2.60289609e-002 2.60289609e-002 0.
      3.38376492e-001 3.38376492e-001 2.34260648e-001 5.20579219e-002
      5.20579219e-002 5.20579219e-002 1.04115844e-001 5.20579219e-002
      2.60289609e-002 7.80868828e-002 3.90434414e-001 1.04115844e-001
      5.20579219e-002 0. 2.60289609e-002 2.60289609e-002 2.60289609e-002
      5.20579219e-002 0. 2.60289609e-002 1.30144805e-001
      -7.28640258e-002 -6.76624849e-003 5.20579219e-002 -3.27952094e-002
      4.16548736e-003 -1.09317368e-002 1.92627124e-002 1.40040502e-001
      -1.09317368e-002 -2.18634736e-002 -1.76979862e-002
      -3.95614624e-001 5.20579219e-002 -2.18634736e-002 6.03888966e-002
      -2.12904513e-001 -2.21235484e-001 0. 2.60289609e-002
      2.60289609e-002 1.45242035e-001 -7.91229159e-002 -9.36701149e-003
      0. 2.60289609e-002 7.80868828e-002 1.50972242e-002 5.20579219e-002
      -3.27952094e-002 -4.37269472e-002 0. 0. 1.16612308e-001
      2.50922590e-001 -1.88440293e-001 -1.16083622e-001 1.50972242e-002
      0. 3.38376492e-001 3.16513032e-001 1.57738492e-001
      -1.35324970e-002 -9.00546610e-002 5.20579219e-002 1.04115844e-001
      5.20579219e-002 1.50972242e-002 6.71551451e-002 3.90434414e-001
      1.04115844e-001 5.20579219e-002 0. -2.86297239e-002
      2.60289609e-002 1.50972242e-002 3.01944483e-002 0. 4.16548736e-003
      -3.38312536e-002</_>
    <_>
      1.34130552e-001 0. 0. 2.23550908e-002 4.47101817e-002 0.
      1.11775454e-002 1.00597911e-001 1.11775454e-002 0. 2.23550908e-002
      2.34728456e-001 0. 1.11775454e-002 0. 1.11775454e-002
      8.94203633e-002 1.11775454e-002 3.35326381e-002 7.82428235e-002
      2.23550908e-002 0. 0. 0. 1.11775454e-002 1.90018281e-001
      6.70652747e-001 1.00597911e-001 2.23550908e-002 6.70652762e-002 0.
      0. 3.35326381e-002 1.90018281e-001 3.01793724e-001 4.47101817e-002
      1.11775454e-002 0. 0. 1.11775454e-002 5.58877289e-002
      6.70652762e-002 5.58877289e-002 0. 0. 2.23550908e-002
      1.11775454e-002 1.11775454e-002 1.78840727e-001 2.23550908e-002
      1.11775454e-002 3.35326381e-002 4.58279371e-001 1.11775454e-002 0.
      3.35326381e-002 4.47101817e-002 3.35326381e-002 7.82428235e-002
      -2.30274901e-001 -2.60289609e-002 -5.20579219e-002 2.23550908e-002
      1.86812207e-002 0. -4.08803746e-002 -1.59691691e-001
      1.11775454e-002 0. -3.67387012e-003 -2.55611539e-002
      -5.20579219e-002 1.11775454e-002 -1.04115844e-001 -9.29382965e-002
      3.73624414e-002 1.11775454e-002 7.50367716e-003 5.22138625e-002
      -1.33818671e-001 -5.20579219e-002 -7.80868828e-002 0.
      -1.48514155e-002 1.11931399e-001 6.44623756e-001 4.85399887e-002
      2.23550908e-002 6.70652762e-002 0. 0. -1.48670092e-001
      -1.48358211e-001 2.49735802e-001 1.86812207e-002 -1.48514155e-002
      0. -3.38376492e-001 -3.27198952e-001 -1.78372920e-001
      1.50073543e-002 3.82980704e-003 -5.20579219e-002 -1.04115844e-001
      -2.97028311e-002 -1.48514155e-002 -6.69093356e-002
      -2.11593688e-001 -8.17607492e-002 -4.08803746e-002 3.35326381e-002
      4.32250410e-001 -1.48514155e-002 -2.60289609e-002 -1.85252838e-002
      4.47101817e-002 7.50367716e-003 -5.19019812e-002</_>
    <_>
      3.88796598e-001 3.73842865e-002 0. 1.49537148e-002 7.47685740e-003
      0. 2.24305727e-002 7.47685740e-003 2.24305727e-002 7.47685740e-003
      1.71967730e-001 4.41134602e-001 1.49537148e-002 3.73842865e-002
      4.48611453e-002 3.36458594e-001 5.00949442e-001 0. 7.47685740e-003
      7.47685740e-003 2.24305727e-002 7.47685730e-002 5.23380041e-002 0.
      7.47685740e-003 2.24305727e-002 3.73842865e-002 1.49537148e-002
      4.48611453e-002 5.23380041e-002 0. 0. 1.49537148e-002
      7.47685740e-003 9.71991494e-002 5.98148592e-002 1.49537148e-002 0.
      0. 0. 1.49537148e-002 1.49537148e-002 5.23380041e-002
      2.24305727e-002 1.49537148e-002 2.99074296e-002 0. 2.99074296e-002
      4.33657736e-001 2.99074296e-002 7.47685740e-003 0. 1.04676008e-001
      2.99074296e-002 7.47685740e-003 2.24305727e-002 2.99074296e-002
      2.24305727e-002 1.27106577e-001 2.54666030e-001 3.73842865e-002 0.
      -7.40137603e-003 -3.72333229e-002 0. 1.12530272e-002
      -9.31210518e-002 1.12530272e-002 7.47685740e-003 1.49612635e-001
      2.06406146e-001 1.49537148e-002 2.62067411e-002 4.48611453e-002
      3.25281054e-001 4.11529064e-001 -1.11775454e-002 -2.60557812e-002
      -7.07659647e-002 7.54818320e-005 7.47685730e-002 5.23380041e-002
      0. -3.70068802e-003 -1.67587712e-001 -6.33268476e-001
      -8.56441930e-002 2.25060545e-002 -1.47272721e-002 0. 0.
      -1.85789242e-002 -1.82541430e-001 -2.04594582e-001 1.51046775e-002
      3.77616938e-003 0. 0. -1.11775454e-002 -4.09340151e-002
      -5.21115623e-002 -3.54972482e-003 2.24305727e-002 1.49537148e-002
      7.55233876e-003 -1.11775454e-002 1.87298842e-002 2.54817009e-001
      7.55233876e-003 -3.70068802e-003 -3.35326381e-002 -3.53603363e-001
      1.87298842e-002 7.47685740e-003 -1.11020654e-002 -1.48027521e-002
      -1.11020654e-002 4.88637537e-002</_>
    <_>
      1.64719909e-001 1.83022115e-002 1.22014750e-002 0. 0. 0.
      1.22014750e-002 2.44029500e-002 1.22014750e-002 0. 6.10073730e-002
      6.10073730e-002 3.05036865e-002 8.54103267e-002 3.66044231e-002
      1.52518436e-001 7.93095827e-002 1.22014750e-002 3.05036865e-002
      7.93095827e-002 5.49066365e-002 4.88058999e-002 1.83022115e-002 0.
      1.83022115e-002 1.70820653e-001 4.75857526e-001 1.09813273e-001
      3.05036865e-002 1.22014750e-002 0. 0. 0. 1.22014750e-002
      3.66044231e-002 2.44029500e-002 6.10073749e-003 0. 0. 0. 0.
      1.22014750e-002 1.22014750e-002 6.10073730e-002 3.05036865e-002
      1.22014750e-002 0. 3.66044231e-002 7.38189220e-001 9.15110633e-002
      1.22014750e-002 6.10073749e-003 2.56230980e-001 4.27051634e-002 0.
      7.32088462e-002 1.83022115e-002 5.49066365e-002 6.71081096e-002
      -2.08733857e-001 -1.76068041e-002 -2.16213148e-003
      -7.18180323e-003 0. 0. 5.01967175e-003 1.72211472e-002
      -2.37075407e-002 0. 3.55294719e-003 -1.18537702e-001
      1.77647360e-003 2.79559009e-002 -7.11226165e-002 -5.57538569e-002
      -7.15082884e-002 -2.16213148e-003 1.61400810e-002 -2.84174606e-002
      -2.53910899e-001 -1.88193589e-001 -3.91522124e-002 0.
      -3.24319862e-003 3.43663990e-002 1.95767194e-001 -6.97318017e-002
      -1.25871338e-002 -3.80711481e-002 -1.43636065e-002 0.
      -7.18180323e-003 -1.65257379e-002 1.50590129e-002 -4.32426296e-003
      -8.26286897e-003 -1.43636065e-002 -7.18180323e-003
      -7.18180323e-003 -1.43636065e-002 -9.34393518e-003
      -9.34393518e-003 -3.23560685e-002 -5.56779541e-002
      -9.34393518e-003 -7.18180323e-003 2.22408175e-002 1.42099559e-001
      -3.05795893e-002 5.01967175e-003 -8.26286897e-003 1.55685738e-001
      -3.62946689e-002 -1.43636065e-002 -4.17000055e-002
      -2.47886088e-002 1.89976208e-002 -5.49825430e-002</_>
    <_>
      1.91273019e-001 7.08418572e-003 1.41683714e-002 0. 0. 0. 0.
      1.41683714e-002 0. 1.41683714e-002 9.20944139e-002 1.27515346e-001
      0. 7.08418572e-003 1.41683714e-002 4.88808811e-001 3.40040922e-001
      0. 0. 0. 5.66734858e-002 8.50102305e-002 2.12525576e-002 0.
      7.08418572e-003 0. 1.41683714e-002 5.66734858e-002 2.83367429e-002
      3.54209282e-002 0. 0. 0. 0. 4.25051153e-002 1.41683714e-002
      2.12525576e-002 7.08418572e-003 0. 1.41683714e-002 7.08418572e-003
      0. 2.83367429e-002 4.95892987e-002 7.79260397e-002 4.25051153e-002
      7.08418572e-003 7.08418572e-003 7.15502739e-001 1.70020461e-001
      7.08418572e-003 2.12525576e-002 7.79260397e-002 7.08418572e-003
      7.08418572e-003 2.83367429e-002 2.83367429e-002 2.12525576e-002
      5.66734858e-002 -1.58791646e-001 7.08418572e-003 1.41683714e-002
      -1.12924082e-002 -3.38772237e-002 -1.12924082e-002 0.
      -1.97088532e-002 -2.25848164e-002 1.41683714e-002 -8.85841176e-002
      -1.54794872e-001 0. -4.20822250e-003 -1.21340521e-001
      1.83913767e-001 -1.90702260e-001 -1.12924082e-002 -2.25848164e-002
      -4.51696329e-002 -1.80467099e-001 -8.43759030e-002
      -5.77943027e-002 -1.12924082e-002 -2.67930385e-002
      -5.64620420e-002 -6.48784861e-002 -1.12712651e-001
      -9.58797559e-002 1.54370442e-003 0. -2.25848164e-002
      -1.12924082e-002 -4.51696329e-002 -2.66451761e-003
      -4.22936715e-002 -1.33225881e-003 -4.20822250e-003
      -4.51696329e-002 -3.10012624e-002 -3.80854458e-002
      -3.38772237e-002 -5.54048084e-003 -1.81651488e-002
      -1.36629716e-001 -9.30037796e-002 -2.67930385e-002
      -3.80854458e-002 5.34824193e-001 9.09736007e-002 -3.80854458e-002
      -2.39170752e-002 -1.24132261e-002 -9.45474952e-002
      -4.20822250e-003 -6.20025247e-002 -3.94177064e-002
      -4.65018898e-002 -1.69174686e-001</_>
    <_>
      7.48959258e-002 0. 0. 0. 0. 0. 0. 0. 0. 5.76122524e-003
      6.33734763e-002 1.78597987e-001 5.76122524e-003 0. 2.30449010e-002
      3.16867381e-001 1.72836751e-001 5.76122524e-003 0. 1.15224505e-002
      6.33734763e-002 1.44030631e-001 2.30449010e-002 0. 0.
      8.06571543e-002 6.91347048e-002 7.48959258e-002 5.18510267e-002
      2.30449010e-002 0. 0. 0. 0. 1.72836762e-002 5.76122524e-003 0. 0.
      0. 0. 0. 0. 0. 4.60898019e-002 2.88061257e-002 0. 5.76122524e-003
      0. 8.52661312e-001 8.06571543e-002 5.76122524e-003 0.
      2.01642886e-001 1.72836762e-002 0. 3.45673524e-002 5.76122524e-003
      2.88061257e-002 4.60898019e-002 -3.10068280e-001 -7.69928396e-002
      -3.29969302e-002 0. 0. 0. -3.29969302e-002 0. 0. -1.62367299e-002
      -1.45607084e-001 -6.33795112e-002 -1.26226500e-001
      -6.59938604e-002 -9.79438499e-002 4.18929458e-002 -2.89120287e-001
      -1.62367299e-002 0. -2.14744806e-002 -2.11600959e-001
      -6.49499297e-002 -2.09510084e-002 0. -2.19979547e-002
      2.56622694e-002 5.81357256e-002 1.99010409e-002 -2.51418129e-002
      -6.49469197e-002 0. 0. -1.09989773e-002 -1.09989773e-002
      -4.71427850e-003 -7.12316111e-002 -1.09989773e-002 0.
      -2.19979547e-002 -1.31987721e-001 -1.09989773e-002
      -3.29969302e-002 -4.39959094e-002 -1.99040584e-002
      -2.46168315e-001 -4.39959094e-002 -1.62367299e-002
      -2.19979547e-002 5.55688918e-001 -1.83336437e-002 -3.82346846e-002
      -3.29969302e-002 8.06541368e-002 -4.87101823e-002 -1.09989773e-002
      -3.14265080e-002 -3.82346846e-002 -3.71877328e-002
      -1.29893839e-001</_>
    <_>
      1.11672007e-001 0. 0. 0. 0. 0. 0. 1.76324230e-002 0.
      5.87747386e-003 5.87747395e-002 2.23344013e-001 0. 5.87747386e-003
      5.87747395e-002 4.87830341e-001 1.88079163e-001 5.87747386e-003
      5.87747386e-003 0. 5.87747395e-002 1.88079163e-001 2.35098954e-002
      0. 1.17549477e-002 5.87747395e-002 1.76324230e-002 1.76324230e-002
      1.17549477e-002 1.17549477e-002 0. 0. 0. 0. 2.93873698e-002 0. 0.
      0. 5.87747386e-003 0. 0. 5.87747386e-003 0. 1.17549479e-001
      1.88079163e-001 2.35098954e-002 0. 2.93873698e-002 6.11257315e-001
      4.11423177e-001 1.17549477e-002 5.87747386e-003 1.05794534e-001
      2.35098954e-002 1.17549477e-002 5.87747386e-003 2.93873698e-002
      4.70197909e-002 5.87747395e-002 -2.21107364e-001 -3.91505137e-002
      0. -1.30501715e-002 -1.95752569e-002 -1.30501715e-002 0.
      -1.94283389e-003 -1.30501715e-002 -7.17269769e-003 3.91994826e-002
      1.64618239e-001 -6.52508577e-003 -2.02228688e-002 -1.10877484e-001
      -9.29023027e-002 4.45272774e-002 -6.47611916e-004 -2.02228688e-002
      -9.78762880e-002 -3.45780581e-001 -1.31650046e-001
      -2.86907908e-002 -6.52508577e-003 1.17549477e-002 2.61493102e-002
      -1.32444546e-001 -2.89046615e-001 -2.73955651e-002
      -4.69708219e-002 0. -6.52508577e-003 -6.52508577e-003
      -3.26254293e-002 -2.93384008e-002 -3.91505137e-002
      -3.26254293e-002 0. -6.58984706e-002 -8.48261118e-002
      -3.91505137e-002 -2.02228688e-002 -6.52508587e-002 9.79742259e-002
      5.75774461e-002 -8.08914751e-002 -1.95752569e-002 9.81211290e-003
      5.98207116e-001 3.98373008e-001 -7.82030914e-003 -6.47611916e-004
      6.01189323e-002 1.04597239e-002 -1.29522383e-003 -1.36977825e-002
      -3.23805958e-003 2.74445340e-002 -1.23927668e-001</_>
    <_>
      1.04370713e-001 5.21853566e-003 5.21853566e-003 0. 5.21853566e-003
      0. 0. 3.65297496e-002 0. 0. 5.74038923e-002 2.03522891e-001 0.
      1.04370713e-002 1.04370713e-002 2.97456533e-001 2.81800926e-001 0.
      1.04370713e-002 1.56556070e-002 3.13112140e-002 1.09589249e-001
      2.08741426e-002 0. 5.21853566e-003 1.46118999e-001 1.56556070e-001
      2.08741426e-002 4.69668210e-002 1.56556070e-002 0. 0.
      5.21853566e-003 1.56556070e-002 9.39336419e-002 3.65297496e-002 0.
      0. 0. 0. 5.21853566e-003 0. 1.56556070e-002 1.56556070e-002
      2.08741426e-002 0. 0. 1.04370713e-002 7.82780349e-001
      8.34965706e-002 1.04370713e-002 1.04370713e-002 2.60926783e-001
      3.13112140e-002 1.04370713e-002 5.21853566e-002 2.08741426e-002
      2.60926783e-002 8.87151062e-002 -3.62754375e-001 -3.59983817e-002
      -1.65095087e-003 -6.86948653e-003 5.21853566e-003 -1.37389731e-002
      -6.86948653e-003 2.27907766e-002 -2.74779461e-002 -2.06084587e-002
      -2.50299424e-002 -1.46820933e-001 -1.37389731e-002
      -1.70408748e-002 -1.33822143e-001 -1.42190605e-001
      -4.10649478e-002 -6.86948653e-003 -1.70408748e-002
      -1.18223391e-002 -1.06078520e-001 -1.30842775e-001
      -8.21681544e-002 0. 5.21853566e-003 1.04902081e-001
      1.08469665e-001 -3.40817496e-002 -7.98907131e-003 -4.61697727e-002
      -1.37389731e-002 -6.86948653e-003 -8.52043740e-003 1.91663392e-003
      5.27167246e-002 -1.84261426e-002 -3.43474336e-002 -6.86948653e-003
      -6.86948653e-003 0. -1.53899230e-002 0. -3.93002853e-002
      -3.93002853e-002 -1.43993527e-001 -1.37389731e-002
      -1.37389731e-002 -3.07798460e-002 4.18697566e-001 -2.64152139e-002
      -1.01713873e-002 -2.39103623e-002 1.51014999e-001 -3.03621963e-003
      -1.70408748e-002 1.09684393e-002 -4.09512371e-002 -1.51242390e-002
      -4.18051332e-002</_>
    <_>
      2.36934006e-001 0. 0. 7.89779983e-003 0. 0. 2.36934014e-002
      3.15911993e-002 7.89779983e-003 7.89779983e-003 5.52846007e-002
      5.44948220e-001 0. 7.89779983e-003 1.57955997e-002 2.05342814e-001
      2.68525213e-001 7.89779983e-003 7.89779983e-003 2.36934014e-002
      7.89779983e-003 5.52846007e-002 3.15911993e-002 0. 1.57955997e-002
      8.68758038e-002 1.57956004e-001 5.52846007e-002 7.89779983e-003
      4.73868027e-002 0. 0. 0. 3.94890010e-002 1.81649402e-001
      6.31823987e-002 2.36934014e-002 0. 0. 0. 2.36934014e-002
      2.36934014e-002 7.89779983e-003 0. 0. 7.89779983e-003 0.
      1.57955997e-002 6.16028428e-001 4.73868027e-002 7.89779983e-003
      2.36934014e-002 2.29036212e-001 1.57955997e-002 7.89779983e-003
      3.15911993e-002 2.36934014e-002 4.73868027e-002 7.10802004e-002
      -1.37162954e-001 -3.47997174e-002 -1.73998587e-002 7.89779983e-003
      -1.73998587e-002 -1.73998587e-002 -2.40638666e-003
      -1.19084455e-002 -9.50205885e-003 -1.82019882e-002
      -5.78144751e-002 1.70851260e-001 -4.34996448e-002 -9.50205885e-003
      -2.77040452e-002 -3.42752695e-001 -1.40371472e-001
      -8.02129507e-004 -8.02129507e-004 6.29354268e-003 -1.82019882e-002
      -1.18713975e-001 -2.06083767e-002 -1.73998587e-002
      -1.60425901e-003 5.20760864e-002 1.14456356e-001 -3.17146890e-002
      -4.43017781e-002 -1.35127008e-002 0. 0. 0. 2.20891424e-002
      8.59501809e-002 2.28289515e-003 -4.59060334e-002 0.
      -8.69992934e-003 -8.69992934e-003 -2.40638666e-003
      -3.72061022e-002 -4.43017781e-002 -6.08995035e-002
      -6.08995035e-002 -1.82019882e-002 -2.60997880e-002
      -2.77040452e-002 3.81130338e-001 -4.81277332e-003 -2.69019175e-002
      -2.40638666e-003 1.24637060e-001 -1.03041884e-002 -8.02129507e-004
      5.49141131e-003 -2.40638666e-003 1.25870854e-002 -1.89917654e-001</_>
    <_>
      7.70026520e-002 5.92328096e-003 5.92328096e-003 0. 0. 0. 0. 0. 0.
      0. 2.36931238e-002 7.70026520e-002 0. 1.77698433e-002
      5.92328086e-002 3.49473566e-001 6.51560873e-002 1.77698433e-002
      5.92328096e-003 1.18465619e-002 7.10793734e-002 2.07314834e-001
      2.96164043e-002 0. 1.18465619e-002 1.06619060e-001 1.00695774e-001
      2.96164043e-002 1.18465619e-002 1.18465619e-002 0. 5.92328096e-003
      0. 0. 0. 5.92328096e-003 5.92328096e-003 0. 0. 0. 0. 0.
      5.92328096e-003 1.00695774e-001 3.08010608e-001 1.77698433e-002 0.
      2.96164043e-002 7.16717005e-001 3.73166710e-001 1.18465619e-002
      5.92328096e-003 1.06619060e-001 5.92328086e-002 5.92328096e-003
      5.92328086e-002 1.77698433e-002 5.92328096e-003 8.29259306e-002
      -3.97289664e-001 -3.23260948e-002 -3.23260948e-002 0.
      -2.29496267e-002 -7.64987571e-003 -1.52997514e-002
      -1.52997514e-002 -7.64987571e-003 -1.52997514e-002
      -4.51557636e-002 -1.47958547e-002 -1.52997514e-002
      -2.81294100e-002 -5.55153266e-002 -2.01317519e-001
      -7.25416839e-002 -2.04795338e-002 -2.46762224e-002
      -1.87529400e-002 -1.81366533e-001 8.41806829e-003 -4.68823500e-002
      0. 4.19668620e-003 2.24704295e-002 1.00695774e-001
      -3.15826014e-002 -3.45318951e-003 -1.87529400e-002 0.
      5.92328096e-003 -7.64987571e-003 0. -7.64987571e-003
      -5.52757233e-002 -9.37647000e-003 -7.64987571e-003
      -3.82493772e-002 -4.58992533e-002 -4.58992533e-002
      -3.05995028e-002 -1.70263462e-002 1.65471435e-002 -2.09340453e-002
      -7.40286633e-002 -7.64987571e-003 -1.62828490e-002 5.79019248e-001
      1.74269944e-001 -3.45318951e-003 -1.72659475e-003 6.83696866e-002
      1.33335553e-002 -1.72659475e-003 5.68367913e-003 -4.34291624e-002
      -1.08824857e-001 -1.92469612e-001</_>
    <_>
      7.50667974e-002 0. 0. 0. 0. 0. 0. 3.46462131e-002 0.
      5.77436900e-003 1.15487382e-001 1.50133595e-001 0. 0.
      1.15487380e-002 5.71662545e-001 3.17590296e-001 5.77436900e-003 0.
      0. 3.46462131e-002 8.08411613e-002 4.04205807e-002 0.
      5.77436900e-003 2.30974760e-002 0. 1.73231065e-002 4.04205807e-002
      1.73231065e-002 0. 0. 0. 0. 2.88718455e-002 2.88718455e-002
      1.15487380e-002 0. 0. 0. 0. 1.15487380e-002 0. 8.08411613e-002
      5.19693196e-002 0. 0. 0. 6.69826806e-001 2.07877278e-001
      5.77436900e-003 0. 4.61949520e-002 1.15487380e-002 0.
      4.61949520e-002 0. 1.15487380e-002 9.81642678e-002
      -1.60098970e-001 -2.35165767e-002 -7.83885922e-003
      -2.35165767e-002 -1.56777184e-002 -7.83885922e-003
      -3.13554369e-002 -3.59035134e-002 -7.83885922e-003
      -3.34199257e-002 -9.93436575e-003 -6.15155995e-002
      -7.83885922e-003 -3.13554369e-002 -1.13873012e-001
      -1.49512470e-001 6.67468011e-002 5.77436900e-003 -1.56777184e-002
      -7.83885866e-002 -1.61325261e-001 -1.54324591e-001
      -6.14845864e-002 -7.83885922e-003 -9.90334898e-003
      -8.25796090e-003 -8.62274468e-002 -1.23776346e-001
      -6.61257282e-003 -4.53877673e-002 0. -7.83885922e-003 0.
      -7.83885922e-003 -7.30333179e-002 -3.38390283e-002
      -5.90009876e-002 0. -2.35165767e-002 -4.70331535e-002
      -7.83885922e-003 -3.54844145e-002 -6.27108738e-002 3.38080078e-002
      -1.91035300e-001 -1.01905167e-001 -7.83885922e-003
      -3.13554369e-002 6.54149115e-001 1.60844117e-001 -4.90976460e-002
      -2.35165767e-002 7.00065866e-003 -1.19678387e-002 -7.83885922e-003
      2.26783752e-002 -3.91942933e-002 -1.98066980e-002 -3.50963399e-002</_>
    <_>
      7.73823261e-002 0. 0. 0. 0. 6.44852687e-003 0. 5.80367409e-002 0.
      0. 7.09337965e-002 3.86911631e-001 0. 0. 0. 7.09337965e-002
      2.19249919e-001 0. 0. 1.93455815e-002 0. 4.51396890e-002
      2.57941075e-002 0. 0. 2.12801382e-001 2.25698441e-001
      2.57941075e-002 5.15882149e-002 1.28970537e-002 0. 0. 0.
      2.57941075e-002 1.16073482e-001 3.22426334e-002 0. 0. 0. 0.
      1.28970537e-002 1.93455815e-002 0. 2.57941075e-002 6.44852687e-003
      0. 0. 6.44852687e-003 7.15786517e-001 5.80367409e-002
      6.44852687e-003 6.44852687e-003 3.74014556e-001 2.57941075e-002
      6.44852687e-003 5.15882149e-002 6.44852687e-003 3.22426334e-002
      5.80367409e-002 -4.90837991e-002 -7.02589611e-003 0.
      -7.02589611e-003 0. -5.77369239e-004 -2.81035844e-002
      8.85546952e-003 0. -1.40517922e-002 -4.14805412e-002
      4.87357378e-004 0. 0. 0. -1.25791281e-001 -4.07082289e-002 0. 0.
      1.23196859e-002 -4.21553776e-002 -6.02487512e-002 -9.33537260e-003
      -7.02589611e-003 0. 1.63620114e-001 1.27335906e-001
      -1.63612701e-002 2.34846305e-002 -5.03360108e-002 0. 0. 0.
      -3.74389552e-002 1.77109390e-002 -3.80163267e-002 -1.40517922e-002
      -7.02589611e-003 -7.02589611e-003 0. 5.87115763e-003
      -2.28097960e-002 -1.40517922e-002 -2.30947696e-003
      -9.89399105e-002 -3.51294801e-002 0. -5.77369239e-004
      -6.40879273e-002 -4.03258018e-002 6.44852687e-003 -5.77369239e-004
      2.40522534e-001 1.17423153e-002 -5.77369239e-004 2.34846305e-002
      -5.77369239e-004 -1.69386379e-002 -1.92481168e-002</_>
    <_>
      5.11184707e-002 0. 0. 0. 0. 0. 0. 1.91694275e-002 6.38980884e-003
      0. 7.66777098e-002 4.47286636e-001 0. 0. 6.38980884e-003
      1.15016565e-001 2.17253506e-001 6.38980884e-003 0. 6.38980884e-003
      0. 3.83388549e-002 3.83388549e-002 0. 0. 1.98084071e-001
      3.38659883e-001 5.11184707e-002 7.66777098e-002 1.27796177e-002
      6.38980884e-003 0. 0. 1.27796177e-002 8.30675140e-002
      1.27796177e-002 0. 0. 0. 0. 0. 0. 0. 1.27796177e-002 0.
      6.38980884e-003 6.38980884e-003 6.38980884e-003 6.51760519e-001
      4.47286628e-002 6.38980884e-003 0. 3.51439506e-001 2.55592354e-002
      0. 2.55592354e-002 1.27796177e-002 2.55592354e-002 7.02878982e-002
      -1.39831901e-001 -5.96719887e-003 0. -1.19343977e-002 0. 0.
      -1.19343977e-002 1.32022286e-002 4.22609970e-004 0.
      1.10385194e-002 -1.21876895e-002 0. -5.96719887e-003
      6.38980884e-003 -1.23671398e-001 -3.93360555e-002 6.38980884e-003
      0. 6.38980884e-003 0. 2.53565982e-003 2.53565982e-003 0. 0.
      1.68248072e-001 2.49151900e-001 1.53152756e-002 5.28089143e-002
      -5.12197986e-003 6.38980884e-003 0. 0. -5.12197986e-003
      1.74283236e-002 -1.70563776e-002 -5.96719887e-003 0. 0. 0.
      -5.96719887e-003 -5.96719887e-003 0. 8.45219940e-004
      -2.98359953e-002 6.38980884e-003 4.22609970e-004 6.38980884e-003
      -1.00106537e-001 -5.67137189e-002 4.22609970e-004 -1.19343977e-002
      2.20161125e-001 2.55592354e-002 0. 1.95920356e-002
      -5.12197986e-003 -4.27675992e-003 -3.11544836e-002</_>
    <_>
      5.65741993e-002 7.07177492e-003 0. 0. 1.41435498e-002
      7.07177492e-003 0. 2.12153252e-002 0. 0. 7.07177492e-003
      3.39445204e-001 0. 0. 0. 2.82870997e-002 9.90048498e-002
      7.07177492e-003 0. 2.82870997e-002 0. 2.82870997e-002
      4.24306504e-002 7.07177492e-003 0. 1.90937921e-001 4.24306512e-001
      1.41435498e-002 5.65741993e-002 2.82870997e-002 0. 0. 0.
      7.07177520e-002 1.34363726e-001 7.07177492e-003 0. 0.
      7.07177492e-003 0. 0. 0. 0. 7.07177492e-003 5.65741993e-002
      1.41435498e-002 7.07177492e-003 7.07177492e-003 6.08172655e-001
      1.13148399e-001 0. 1.41435498e-002 4.80880708e-001 7.07177492e-003
      0. 4.95024249e-002 7.07177492e-003 4.24306504e-002 2.82870997e-002
      -1.31753400e-001 -2.11773645e-002 -9.41637997e-003
      -1.88327599e-002 -4.68921009e-003 7.07177492e-003 -9.41637997e-003
      -5.41157126e-002 0. -2.82491390e-002 -5.88428788e-002
      -2.72619456e-001 0. 0. -6.59146532e-002 -1.50624111e-001
      -1.64653763e-001 7.07177492e-003 0. 2.82870997e-002
      -6.59146532e-002 -1.31791353e-001 4.76513058e-003 7.07177492e-003
      -9.41637997e-003 1.43856019e-001 3.01893592e-001 -6.11874908e-002
      2.83250604e-002 9.45433974e-003 0. 0. -9.41637997e-003
      -1.40296668e-002 -3.51311117e-002 -3.05937454e-002
      -9.41637997e-003 0. -2.34460505e-003 -3.76655199e-002
      -4.70818989e-002 -5.64982779e-002 -1.88327599e-002
      -6.82592615e-002 -1.50586158e-001 -8.94366279e-002
      -4.00101244e-002 -3.05937454e-002 9.02717710e-002 1.51842833e-004
      -1.88327599e-002 4.72716987e-003 3.67884159e-001 -1.17609855e-002
      -1.88327599e-002 2.42052600e-003 -4.00101244e-002 3.30142714e-002
      -6.58767000e-002</_>
    <_>
      7.00793341e-002 0. 0. 0. 0. 0. 0. 1.91125460e-002 0. 0.
      1.01933576e-001 3.63138348e-001 0. 0. 0. 1.27416968e-001
      2.42092237e-001 0. 0. 0. 0. 5.73376343e-002 1.27416970e-002 0.
      6.37084851e-003 1.14675269e-001 1.14675269e-001 1.91125460e-002
      4.45959382e-002 1.27416970e-002 0. 0. 0. 3.18542421e-002
      7.00793341e-002 6.37084851e-003 0. 0. 0. 0. 0. 0. 1.27416970e-002
      0. 5.73376343e-002 0. 0. 6.37084851e-003 7.96356082e-001
      2.54833940e-002 1.27416970e-002 1.27416970e-002 3.12171578e-001
      1.91125460e-002 0. 1.91125460e-002 6.37084851e-003 3.18542421e-002
      3.82250920e-002 -6.79087713e-002 -8.11694749e-003 0. 0. 0. 0.
      -1.62338950e-002 -7.01738745e-002 0. 0. 2.88810506e-002
      -1.48229331e-001 0. 0. -4.05847356e-002 -1.07974499e-001
      4.72854972e-002 0. 0. -1.62338950e-002 -1.62338950e-002
      -5.62996268e-002 -2.78430395e-002 -8.11694749e-003 6.37084851e-003
      3.35057974e-002 4.97396886e-002 -2.95891389e-002 -1.22226924e-002
      -3.49219795e-003 0. 0. 0. -2.49643885e-002 -1.40961289e-001
      -4.23308350e-002 -8.11694749e-003 0. 0. -8.11694749e-003
      -2.43508425e-002 -1.62338950e-002 4.62474953e-003 -1.62338950e-002
      -9.68843624e-002 -4.05847356e-002 -8.11694749e-003
      -1.79799944e-002 1.22649431e-001 -6.38030246e-002 4.62474953e-003
      -3.49219795e-003 1.33598745e-001 1.09955985e-002 -8.11694749e-003
      -5.23829646e-003 -1.74609898e-003 -1.68474428e-002
      -2.67104879e-002</_>
    <_>
      8.41855928e-002 0. 0. 0. 0. 0. 0. 3.82661782e-002 0. 0.
      5.35726473e-002 3.59702080e-001 7.65323546e-003 1.53064709e-002
      7.65323546e-003 2.29597073e-002 1.07145295e-001 0. 0.
      1.53064709e-002 0. 1.53064709e-002 3.06129418e-002 0. 0.
      2.83169717e-001 3.13782662e-001 2.29597073e-002 3.82661782e-002
      1.53064709e-002 0. 0. 0. 2.29597073e-002 9.18388292e-002
      2.29597073e-002 2.29597073e-002 0. 0. 0. 0. 7.65323546e-003
      7.65323546e-003 0. 0. 7.65323546e-003 0. 0. 6.27565324e-001 0. 0.
      7.65323546e-003 5.05113542e-001 7.65323546e-003 0. 3.06129418e-002
      7.65323546e-003 2.29597073e-002 6.12258837e-002 -8.38543698e-002
      -7.30608543e-003 0. -7.30608543e-003 0. 0. -7.30608543e-003
      3.09600923e-002 0. -7.30608543e-003 -4.14064601e-002
      -5.67447841e-002 7.65323546e-003 1.53064709e-002 -6.95893541e-003
      -2.54671544e-001 -1.77792028e-001 0. -7.30608543e-003
      1.53064709e-002 -6.57547712e-002 -1.08896978e-001 -2.05296539e-002
      0. 0. 2.68557549e-001 2.33415723e-001 1.04145147e-003
      1.73575059e-003 1.53064709e-002 0. 0. 0. -1.35707203e-002
      2.60840580e-002 8.34753644e-003 1.04145147e-003 0.
      -7.30608543e-003 0. -1.46121709e-002 3.47150024e-004
      3.47150024e-004 -1.46121709e-002 -3.65304276e-002 -6.95893541e-003
      0. -1.46121709e-002 -1.03043199e-001 -5.11425957e-002
      -2.92243417e-002 3.47150024e-004 3.15155327e-001 7.65323546e-003
      -1.46121709e-002 1.38860010e-003 -6.95893541e-003 -6.26463443e-003
      -6.29775673e-002</_>
    <_>
      1.03058696e-001 0. 0. 6.06227620e-003 0. 0. 0. 1.21245524e-002 0.
      6.06227620e-003 1.39432356e-001 3.27362925e-001 0. 0.
      3.63736562e-002 3.57674301e-001 3.81923407e-001 0. 0.
      6.06227620e-003 3.03113814e-002 8.48718658e-002 4.24359329e-002 0.
      0. 9.09341425e-002 1.21245524e-002 6.06227620e-003 2.42491048e-002
      3.03113814e-002 0. 0. 0. 6.06227620e-003 6.06227629e-002
      3.03113814e-002 6.06227620e-003 0. 0. 0. 6.06227620e-003
      6.06227620e-003 0. 6.06227620e-003 0. 1.21245524e-002 0. 0.
      7.27473140e-001 3.63736562e-002 0. 6.06227620e-003 1.57619178e-001
      6.06227620e-003 0. 3.63736562e-002 6.06227620e-003 3.63736562e-002
      6.66850433e-002 -1.83899313e-001 -7.55152619e-003 0.
      6.06227620e-003 0. -7.55152619e-003 -1.51030524e-002
      -2.56330781e-002 -7.55152619e-003 -1.48924999e-003
      -5.69073260e-002 -1.63486272e-001 0. 0. 1.37190782e-002
      1.78556144e-002 -4.85135913e-002 -7.55152619e-003 -7.55152619e-003
      6.06227620e-003 -7.44624995e-003 -2.08495036e-002 -2.55278014e-002
      0. 0. 2.29704082e-002 -1.16251394e-001 -5.43499328e-002
      -2.10600514e-002 -4.52038795e-002 0. 0. 0. 6.06227620e-003
      -5.26501276e-002 -1.49977747e-002 -9.04077664e-003 0. 0.
      -7.55152619e-003 6.06227620e-003 6.06227620e-003 -3.77576314e-002
      -9.04077664e-003 -7.55152619e-003 1.21245524e-002 0.
      -1.51030524e-002 2.74381578e-001 2.88221296e-002 0.
      -1.65923014e-002 -6.89266026e-002 -2.41438281e-002 0.
      -1.38397515e-003 -9.04077664e-003 -1.38397515e-003
      -1.63817480e-002</_>
    <_>
      1.60972968e-001 0. 0. 0. 0. 0. 0. 0. 0. 1.23825362e-002
      4.95301448e-002 1.60972968e-001 0. 0. 1.60972968e-001
      5.57214141e-001 1.11442827e-001 0. 0. 0. 2.60033250e-001
      3.71476084e-001 3.71476077e-002 0. 0. 2.47650724e-002 0. 0. 0.
      2.47650724e-002 0. 0. 0. 6.19126819e-002 4.95301448e-002
      1.23825362e-002 1.23825362e-002 0. 0. 7.42952153e-002
      2.47650724e-002 4.95301448e-002 1.23825362e-002 1.23825364e-001
      2.97180861e-001 7.42952153e-002 3.71476077e-002 1.23825362e-002
      4.08623695e-001 2.60033250e-001 6.19126819e-002 1.23825362e-002
      4.95301448e-002 4.95301448e-002 1.23825362e-002 1.23825362e-002
      4.95301448e-002 6.19126819e-002 1.11442827e-001 -1.87671795e-001
      -9.68457665e-003 0. -9.68457665e-003 -1.93691533e-002 0. 0.
      -3.87383066e-002 0. -1.66711956e-002 -2.79464684e-002
      5.44426218e-002 -9.68457665e-003 -9.68457665e-003 6.01974130e-003
      -1.49760008e-001 -9.19332877e-002 -9.68457665e-003
      -9.68457665e-003 -7.74766132e-002 -1.11349225e-002 2.06838280e-001
      1.77784543e-002 -9.68457665e-003 -9.68457665e-003 -1.39732342e-002
      -3.87383066e-002 -1.64637804e-001 -4.84228842e-002
      -1.39732342e-002 0. -9.68457665e-003 -2.90537309e-002
      2.31743753e-002 -1.82618983e-002 -3.60403471e-002 -6.98661711e-003
      -1.93691533e-002 -4.84228842e-002 -3.22351307e-002
      -2.36578118e-002 3.01609915e-002 -3.60403471e-002 1.04456209e-001
      4.53818440e-002 -6.12888709e-002 1.77784543e-002 -6.98661711e-003
      3.79569978e-001 1.92241207e-001 6.19126819e-002 -2.63557695e-002
      -8.57731700e-003 2.04764139e-002 -6.98661711e-003 -4.57249247e-002
      3.01609915e-002 4.25435305e-002 -4.35103998e-002</_>
    <_>
      2.00991705e-001 0. 0. 0. 0. 0. 0. 0. 0. 1.25619816e-002
      1.25619816e-002 0. 0. 0. 3.76859456e-002 4.01983410e-001
      2.51239631e-002 2.51239631e-002 0. 0. 2.51239631e-002
      1.50743783e-001 1.25619816e-002 0. 3.76859456e-002 1.13057829e-001
      2.51239631e-002 0. 2.51239631e-002 0. 0. 0. 1.25619816e-002
      1.25619816e-002 0. 1.25619816e-002 0. 2.51239631e-002
      3.76859456e-002 2.51239631e-002 0. 2.51239631e-002 0.
      1.38181791e-001 4.77355301e-001 1.25619814e-001 1.25619816e-002 0.
      5.90413153e-001 2.76363581e-001 6.28099069e-002 2.51239631e-002
      1.88429728e-001 5.02479263e-002 0. 2.51239631e-002 2.51239631e-002
      8.79338682e-002 1.13057829e-001 -4.93335575e-002 -1.31750135e-002
      0. 0. 0. 0. 0. 0. 0. 1.25619816e-002 -6.64880946e-002
      -7.90500790e-002 -1.31750135e-002 0. -1.20414212e-001
      -1.64542168e-001 -6.71011284e-002 1.19489497e-002 0.
      -1.18575118e-001 -5.15051603e-001 -9.95814800e-002
      -5.33130877e-002 0. 3.76859456e-002 1.13057829e-001
      -5.39261177e-002 -3.29375327e-001 -2.75760908e-002
      -2.63500270e-002 -1.31750135e-002 0. -2.69630589e-002
      -4.01380733e-002 -5.27000539e-002 -4.01380733e-002
      -1.31750135e-002 2.51239631e-002 3.76859456e-002 -1.72501236e-001
      -1.18575118e-001 -2.75760908e-002 -2.63500270e-002 1.25006780e-001
      4.77355301e-001 8.60947743e-002 -6.13031909e-004 -1.31750135e-002
      5.90413153e-001 2.63188571e-001 4.96348925e-002 2.51239631e-002
      1.88429728e-001 5.02479263e-002 0. -1.44010764e-002
      1.19489497e-002 4.84088287e-002 3.40077505e-002</_>
    <_>
      1.14819832e-001 0. 0. 1.27577595e-002 2.55155191e-002 0.
      2.55155191e-002 3.82732786e-002 0. 1.27577595e-002 6.37887940e-002
      1.91366389e-001 0. 0. 6.37887940e-002 7.90981054e-001
      2.42397428e-001 0. 0. 0. 8.93043131e-002 1.53093114e-001
      5.10310382e-002 0. 0. 0. 0. 0. 2.55155191e-002 1.27577595e-002 0.
      2.55155191e-002 2.55155191e-002 5.10310382e-002 1.02062076e-001
      6.37887940e-002 1.27577595e-002 0. 1.27577595e-002 1.65850863e-001
      8.93043131e-002 5.10310382e-002 2.55155191e-002 0. 3.06186229e-001
      1.40335351e-001 5.10310382e-002 5.10310382e-002 0. 0.
      3.82732786e-002 1.27577595e-002 0. 1.27577595e-002 0.
      1.27577595e-002 0. 0. 2.04124153e-001 -2.46814042e-001
      -4.52042334e-002 -1.13010583e-002 1.27577595e-002 1.42144607e-002
      0. 1.42144607e-002 2.69722193e-002 0. 1.27577595e-002
      5.24877347e-002 1.23560041e-001 -1.13010583e-002 -7.91074112e-002
      -1.05727084e-001 2.59831309e-001 1.40687913e-001 0. 0.
      -1.24311641e-001 -3.06232750e-001 -9.55301672e-002 2.84289215e-002
      -1.13010583e-002 -1.13010583e-002 -5.65052927e-002
      -6.78063482e-002 -2.03419045e-001 -5.35918921e-002
      -9.84435715e-003 0. 1.42144607e-002 2.55155191e-002
      2.84289215e-002 6.81589022e-002 4.11866754e-002 1.45670120e-003 0.
      -3.24464738e-002 5.28402776e-002 5.54011390e-002 3.97299789e-002
      -8.38765502e-003 -4.52042334e-002 -1.00651860e-001 1.60237104e-002
      3.97299789e-002 2.84289215e-002 -4.52042334e-002 -6.78063482e-002
      1.56711619e-002 1.45670120e-003 -4.52042334e-002 -9.84435715e-003
      0. -9.84435715e-003 -5.65052927e-002 -4.52042334e-002
      4.59093302e-002</_>
    <_>
      1.73795745e-001 1.24139823e-002 1.86209735e-002 0. 1.86209735e-002
      0. 0. 6.20699115e-003 0. 6.20699115e-003 6.82769045e-002
      1.80002734e-001 6.20699115e-002 1.24139823e-002 4.34489362e-002
      5.15180230e-001 1.48967788e-001 0. 3.10349558e-002 1.86209735e-002
      6.20699115e-002 1.55174777e-001 3.10349558e-002 0. 0.
      1.11725837e-001 2.48279646e-002 3.72419469e-002 3.10349558e-002
      1.24139823e-002 0. 0. 0. 0. 4.34489362e-002 2.48279646e-002
      1.86209735e-002 0. 0. 0. 0. 1.86209735e-002 6.20699115e-003
      7.44838938e-002 6.82769045e-002 0. 6.20699115e-003 4.34489362e-002
      7.07596958e-001 2.11037695e-001 0. 6.20699115e-003 1.30346805e-001
      2.48279646e-002 0. 6.20699115e-002 3.72419469e-002 1.86209735e-002
      9.31048617e-002 -2.16090783e-001 -4.69165742e-002 1.66938640e-003
      -8.47579353e-003 1.66938640e-003 0. -8.47579353e-003
      -1.07445959e-002 -8.47579353e-003 -1.07445959e-002
      -2.49568298e-002 4.43900377e-002 1.96909420e-002 -4.53760475e-003
      -5.82605861e-002 3.20599973e-002 -1.22257605e-001 0.
      5.60757518e-003 -1.52822006e-002 -1.83728114e-001 -3.97684872e-002
      -1.13440137e-002 0. 0. -6.93527609e-003 -9.07520950e-003
      -8.98949504e-002 -2.82956008e-002 -1.30133983e-002
      -1.69515871e-002 0. -2.54273806e-002 -8.47579353e-003
      -7.40582496e-003 -1.75510049e-002 1.66938640e-003 -1.69515871e-002
      -3.39031741e-002 -6.78063482e-002 -4.23789695e-002
      -6.80640712e-003 -3.61719802e-002 -3.57014239e-002
      -3.30085397e-001 -2.54273806e-002 -3.61719802e-002 1.80215556e-002
      5.29605269e-001 -5.17119169e-002 -3.39031741e-002 -1.07445959e-002
      7.10162520e-002 -1.75510049e-002 -2.54273806e-002 -3.11638229e-002
      2.02903599e-002 -6.61369637e-002 -1.18789978e-001</_>
    <_>
      2.91592538e-001 2.30204631e-002 7.67348753e-003 7.67348753e-003
      1.53469751e-002 0. 0. 3.06939501e-002 0. 0. 1.30449295e-001
      3.52980435e-001 2.30204631e-002 3.06939501e-002 6.90613911e-002
      4.22041804e-001 2.76245564e-001 0. 2.30204631e-002 3.06939501e-002
      2.30204631e-002 1.45796269e-001 3.06939501e-002 0. 7.67348753e-003
      8.44083652e-002 1.07428826e-001 1.53469751e-002 4.60409261e-002
      1.53469751e-002 0. 0. 0. 3.06939501e-002 1.30449295e-001
      4.60409261e-002 1.53469751e-002 0. 7.67348753e-003 1.53469751e-002
      7.67348753e-003 2.30204631e-002 3.83674391e-002 7.67348753e-003
      3.83674391e-002 2.30204631e-002 7.67348753e-003 4.60409261e-002
      6.13879025e-001 7.67348781e-002 1.53469751e-002 0. 1.15102313e-001
      0. 7.67348753e-003 4.60409261e-002 1.53469751e-002 7.67348781e-002
      1.84163705e-001 -9.83390212e-003 -1.80831421e-002 -1.28783155e-002
      8.22886825e-004 1.53469751e-002 -6.85060071e-003 0.
      2.38433499e-002 0. -2.05518026e-002 -6.56272471e-003
      2.63922632e-001 -1.12325419e-002 -1.04096550e-002 -8.85024294e-002
      -1.19155675e-001 -1.00537479e-001 0. 9.31926165e-003
      -1.04096550e-002 -2.51003563e-001 -1.28227770e-001
      -2.41108555e-002 0. -6.02771388e-003 5.70059642e-002
      3.20722163e-002 -9.42626372e-002 -2.93156840e-002 -5.20482752e-003
      0. 0. 0. 1.69927478e-002 1.23598695e-001 1.17879212e-002
      8.49637389e-003 0. 7.67348753e-003 8.49637389e-003 7.67348753e-003
      -1.12325419e-002 2.46662386e-002 -8.82349238e-002 -1.32897586e-001
      9.31926165e-003 8.22886825e-004 1.17879212e-002 3.12452585e-001
      -1.69886738e-001 1.53469751e-002 -2.05518026e-002 7.39987046e-002
      -2.74024028e-002 -6.02771388e-003 -1.91327929e-003
      -1.20554278e-002 -3.28747332e-002 2.65998840e-002</_>
    <_>
      2.18838230e-001 2.18838230e-002 0. 0. 7.29460781e-003 0. 0.
      4.37676460e-002 2.18838230e-002 0. 8.75352919e-002 3.86614203e-001
      1.45892156e-002 5.10622524e-002 3.64730395e-002 8.75352919e-002
      1.89659804e-001 0. 1.45892156e-002 4.37676460e-002 0.
      4.37676460e-002 1.45892156e-002 0. 7.29460781e-003 1.67775974e-001
      3.20962727e-001 5.10622524e-002 3.64730395e-002 4.37676460e-002 0.
      0. 0. 7.29460791e-002 1.60481364e-001 2.18838230e-002 0. 0. 0. 0.
      7.29460781e-003 1.45892156e-002 0. 2.18838230e-002 7.29460781e-003
      0. 0. 2.18838230e-002 6.20041668e-001 5.83568625e-002
      7.29460781e-003 7.29460781e-003 4.01203424e-001 5.83568625e-002
      7.29460781e-003 2.91784313e-002 0. 8.02406818e-002 1.02124505e-001
      -1.43979475e-001 -2.64918692e-002 -1.81408841e-002 0.
      7.29460781e-003 0. -6.04696153e-003 3.77206840e-002
      1.58368610e-002 -2.41878461e-002 -5.15448302e-002 -2.72504628e-001
      -9.59863048e-003 1.47804841e-002 -5.42313866e-002 -2.93423295e-001
      -1.06641322e-001 -1.81408841e-002 8.54225457e-003 1.95797998e-002
      -9.67513844e-002 -1.07406393e-001 -3.98334377e-002 0.
      -4.79931524e-003 1.31494209e-001 2.84680963e-001 -3.36040184e-003
      -1.79496147e-002 1.35328379e-002 0. 0. 0. 6.08521551e-002
      1.06058709e-001 3.74293886e-003 -3.02348081e-002 0. 0.
      -6.04696153e-003 7.29460781e-003 -3.55166849e-003 -4.23287302e-002
      3.74293886e-003 -4.10810858e-002 -6.04696153e-003 -1.20939231e-002
      -2.04449072e-002 3.47928405e-001 1.60281323e-002 -4.79931524e-003
      -2.29401998e-002 3.46780777e-001 5.23099005e-002 -1.08462758e-002
      -7.10333697e-003 -2.41878461e-002 1.37241036e-002 -5.50964996e-002</_>
    <_>
      1.08402267e-001 0. 0. 0. 0. 6.02234807e-003 2.40893923e-002
      1.20446961e-002 0. 6.02234807e-003 9.03352201e-002 1.56581059e-001
      0. 0. 3.01117413e-002 6.50413632e-001 2.34871581e-001
      1.20446961e-002 0. 0. 2.40893923e-002 1.44536361e-001
      4.81787845e-002 0. 1.20446961e-002 1.80670451e-002 6.02234807e-003
      1.80670451e-002 1.80670451e-002 3.61340903e-002 0. 0. 0. 0.
      3.01117413e-002 3.61340903e-002 1.80670451e-002 0. 0. 0. 0. 0.
      1.20446961e-002 4.21564393e-002 6.62458315e-002 6.02234807e-003
      6.02234807e-003 6.02234807e-003 6.38368905e-001 1.50558710e-001 0.
      6.02234807e-003 4.81787845e-002 3.61340903e-002 0. 2.40893923e-002
      1.80670451e-002 1.80670451e-002 7.22681805e-002 -3.52161527e-001
      -4.26447950e-002 -8.52895901e-003 -4.26447950e-002 0.
      -2.50661094e-003 1.55604333e-002 -2.20711399e-002 0.
      -2.80934870e-002 5.04563004e-003 -2.18693152e-001 -8.52895901e-003
      -1.70579180e-002 -9.78226364e-002 1.64262950e-001 -8.06999058e-002
      3.51573713e-003 0. -4.26447950e-002 -2.65895218e-001
      -3.45717818e-002 -2.99496949e-003 0. 1.20446961e-002
      -7.51983188e-003 -3.66224460e-002 -4.16356698e-002
      -5.01646250e-002 -1.50396638e-002 -8.52895901e-003 0.
      -8.52895901e-003 -8.52895901e-003 -4.00409475e-003
      -6.51070476e-003 1.80670451e-002 0. -2.55868770e-002
      -9.38185528e-002 -2.55868770e-002 -2.55868770e-002
      -1.35421809e-002 -4.88355756e-004 -1.38449192e-001
      -9.63251591e-002 -1.10355699e-002 -2.80934870e-002 6.04253054e-001
      5.67401573e-002 -5.11737540e-002 -1.10355699e-002 -2.99496949e-003
      1.90761723e-002 0. -2.70843618e-002 -3.31067070e-002
      -3.31067070e-002 -1.58013701e-001</_>
    <_>
      1.07786365e-001 0. 0. 0. 5.98813128e-003 0. 5.98813128e-003
      1.19762626e-002 0. 5.98813128e-003 9.58101004e-002 1.61679551e-001
      0. 0. 3.59287895e-002 5.03003001e-001 2.75454044e-001
      5.98813128e-003 5.98813128e-003 0. 0. 5.38931824e-002
      4.79050502e-002 0. 0. 5.38931824e-002 5.98813128e-003
      2.99406573e-002 3.59287895e-002 1.19762626e-002 0. 0. 0.
      5.98813128e-003 1.19762626e-002 4.79050502e-002 5.98813128e-003 0.
      5.98813128e-003 0. 0. 1.19762626e-002 2.99406573e-002
      4.79050502e-002 9.58101004e-002 1.19762626e-002 5.98813128e-003
      1.79643948e-002 7.54504561e-001 1.31738886e-001 3.59287895e-002 0.
      4.79050502e-002 5.98813128e-003 5.98813128e-003 3.59287895e-002
      5.98813128e-003 2.39525251e-002 6.58694431e-002 -2.60759503e-001
      -5.99958375e-002 0. 0. -2.58270279e-003 -1.71416681e-002
      -1.11535368e-002 -2.23070737e-002 -3.42833363e-002
      -2.82952040e-002 1.86725929e-002 -1.04016289e-001 0.
      -2.57125013e-002 -1.26917064e-001 -1.05526209e-001
      -1.59543157e-002 -2.58270279e-003 -2.82952040e-002
      -5.14250025e-002 -2.65695840e-001 -2.20373511e-001
      -6.35157898e-002 0. -8.57083406e-003 3.67515162e-002
      -6.25785440e-002 -1.15763523e-001 -7.54920542e-002
      -7.37320781e-002 0. -8.57083406e-003 -8.57083406e-003
      -3.68660390e-002 -7.37320781e-002 5.05087897e-003 -2.58270279e-003
      0. -3.68660390e-002 -1.71416681e-002 -2.57125013e-002
      3.40542849e-003 4.22815606e-003 5.05087897e-003 1.53093040e-003
      -3.08779087e-002 -4.54368703e-002 9.39356070e-003 6.94508731e-001
      1.06026381e-001 1.87871214e-002 -8.57083406e-003 -2.92324573e-002
      -1.11535368e-002 -1.11535368e-002 -6.92538172e-003 5.98813128e-003
      6.81085698e-003 -1.48401409e-001</_></support_vectors>
  <decision_functions>
    <_>
      <sv_count>51</sv_count>
      <rho>-3.8034094052261658e-001</rho>
      <alpha>
        4.6875403903437629e-001 9.9999899999999997e-001
        1.0191987095918793e-001 8.6317364195154400e-002
        9.9999899999999997e-001 9.9999899999999997e-001
        9.9999899999999997e-001 1.8288177419650858e-002
        9.9999899999999997e-001 9.9999899999999997e-001
        9.9999899999999997e-001 9.9999899999999997e-001
        9.9999899999999997e-001 1.9824625225073841e-001
        1.1989589483856126e-001 4.6294654972324562e-001
        4.4786222971038109e-001 1.1949202081306580e-001
        9.9999899999999997e-001 5.9681388388470791e-001
        1.1060989374493595e-001 4.8327316969808648e-001
        8.0698017955263726e-002 8.0540058681395965e-001
        3.9017598106583379e-001 1.0032658369490140e-001
        3.8121841972390463e-001 9.9999899999999997e-001
        4.9088640499378618e-002 9.9999899999999997e-001
        -9.9999899999999997e-001 -1.7723276068318028e-002
        -1.9310212950846986e-001 -5.7687343153265169e-001
        -9.9999899999999997e-001 -4.7827064003297803e-001
        -9.9999899999999997e-001 -9.9999899999999997e-001
        -9.9999899999999997e-001 -7.0124518845742756e-001
        -9.9999899999999997e-001 -9.9999899999999997e-001
        -9.9999899999999997e-001 -9.9999899999999997e-001
        -9.9999899999999997e-001 -9.9999899999999997e-001
        -9.5783503368372169e-001 -9.9999899999999997e-001
        -9.9999899999999997e-001 -9.9999899999999997e-001
        -9.6279876741766107e-002</alpha>
      <index>
        0 1 2 3 4 5 6 7 8 9 10 11 12 13 14 15 16 17 18 19 20 21 22 23 24
        25 26 27 28 29 30 31 32 33 34 35 36 37 38 39 40 41 42 43 44 45
        46 47 48 49 50</index></_></decision_functions></my_svm>
</opencv_storage>
